{"model_type": "xgboost", "opt_type": 0, "learner": {"attributes": {}, "feature_names": [], "feature_types": [], "gradient_booster": {"model": {"gbtree_model_param": {"num_parallel_tree": "1", "num_trees": "1"}, "iteration_indptr": [0, 1], "tree_info": [0], "trees": [{"base_weights": [1.5854064e-10, 0.05205833, -0.0032564874, 0.039376087, 0.07793603, -0.0065884064, 0.05068226, 0.012375827, 0.045365762, 0.06855628, 0.11839561, 0.00047109489, -0.015158465, 0.059618447, 0.0125430785, 0.0048758555, 0.024448324, 0.039062444, 0.052104145, 0.06476871, 0.078170285, 0.104237825, 0.13131724, -0.0070979143, 0.013326908, -0.018436842, -0.0034411754, 0.0486754, 0.08732265, 0.0060258335, 0.023659946, 0.0014705873, 0.009313538, 0.01957252, 0.026398586, 0.044316035, 0.035851035, 0.057590347, 0.048125695, 0.06982755, 0.058122855, 0.08092502, 0.06720555, 0.11274857, 0.09826462, 0.1398864, 0.11932177, -0.014423688, -0.0024575298, 0.024631867, 0.009505213, -0.022277443, -0.015113746, -0.0066559515, 0.0021268092, 0.043446984, 0.059823412, 0.07630677, 0.117364384, 0.0135190915, 0.0037874936, 0.031043777, 0.019551268, -0.0012462955, 0.0033360342, 0.011434655, 0.00660738, 0.020336244, 0.0035468426, 0.009315605, 0.024474464, 0.038458426, 0.047035493, 0.032099355, 0.039293192, 0.05392318, 0.06037413, 0.04909607, 0.039447542, 0.067104824, 0.073673725, 0.060122926, 0.050314426, 0.07811009, 0.088901944, 0.018361067, 0.07324853, 0.03226608, 0.03563556, 0.09956698, 0.024511643, 0.039234202, 0.044405483, 0.11471408, 0.03954005, -0.019817067, -0.012197061, 0.0050003408, -0.006640125, 0.020752648, 0.04931363, 0.004344107, 0.022697873, -0.020647857, -0.023845922, -0.0119933495, -0.01750171, -0.005811099, -0.013128047, 0.0065130824, -0.00077492883, 0.039813768, 0.050822027, 0.06400531, 0.052196324, 0.07213363, 0.082627006, 0.09349906, 0.12472672, 0.0066749686, 0.014568215, 0.0028246192, 0.011930001, 0.020151587, 0.03439916, 0.02181734, 0.017139053, 0.001171614, -0.0023770707, 0.005493615, 0.0018451168, 0.009501967, 0.013285091, 0.005890177, 0.01006653, 0.016717693, 0.021323299, 0.025060818, 0.005371363, 0.03558228, 0.040294394, 0.049986728, 0.04496474, 0.033024456, 0.024877377, 0.040191665, 0.03152907, 0.01709169, 0.015732048, 0.062669694, 0.057988692, 0.04640368, 0.052309673, 0.010807614, 0.0126422765, 0.021086287, 0.01931406, 0.02320678, 0.021092473, 0.017070265, 0.062364742, 0.014341639, 0.015996838, 0.024721624, 0.021921147, 0.028511388, 0.025591642, 0.022822881, 0.01984963, 0.028272195, 0.031210357, 0.035423912, 0.030797144, -0.024670621, -0.018471664, -0.006903601, -0.013591399, -7.665375e-05, 0.00860351, -0.0031709697, -0.008761413, 0.016849829, 0.02571982, 0.0425374, 0.060380943, 0.011024056, 0.0010597373, 0.018155457, 0.029644622, -0.022613868, -0.018842109, -0.025244715, -0.023187727, -0.014208869, -0.010553842, -0.019136563, -0.015735777, -0.008091694, -0.004263152, -0.018099993, -0.011728678, 0.00091353274, 0.008117373, 0.00042327814, -0.0027179015, 0.032805305, 0.04102735, 0.046327062, 0.055420626, 0.022969585, 0.06267339, 0.055224117, 0.04607255, 0.073668145, 0.018390141, 0.084703825, 0.02128202, 0.0283373, 0.021682223, 0.13619718, 0.09799825, 0.003890538, 0.00939562, 0.0026784062, 0.015324746, 0.0045057153, 0.001137712, 0.0127194915, 0.0025134736, 0.004660148, 0.007201711, 0.037907705, 0.029027686, 0.018444423, 0.024183942, 0.014103546, 0.018562784, 0.00219812, 3.4361463e-05, -0.0019582273, -0.005641595, 0.004321341, 0.006412362, 0.002185291, -0.0016092368, 0.003222592, 0.008569225, 0.0043740775, 0.011807474, 0.006551548, 0.0034322785, 0.0032145274, 0.00250212, 0.005926249, 0.0046346392, 0.007959215, 0.020423766, 0.007021665, 0.007826984, 0.011247647, 0.010107131, 0.01265742, 0.011321997, 0.014202222, 0.015537324, 0.012719942, 0.013959181, 0.030576928, 0.035249088, 0.0063336, 0.02670853, 0.03838487, 0.041272696, 0.007951495, 0.009868208, 0.018314257, 0.01958396, 0.016929649, 0.018017942, 0.047450863, 0.0132463975, 0.05362291, 0.014943481, 0.01912154, 0.018035864, -0.007855334, -0.023092382, -0.015123775, -0.019664006, -0.008566344, 2.7209247e-05, -0.012911416, -0.017875127, -0.005679897, 0.0013974451, 0.015873756, 0.006472181, -0.007875466, -0.0009777927, -0.007874613, -0.01441814, 0.0181597, 0.013330353, 0.02333448, 0.029421862, 0.045608863, 0.035874087, 0.056792386, 0.0686055, 0.007786559, 0.024525965, -0.0019136069, 0.008319022, 0.023297947, 0.016151885, 0.028054893, 0.03792196, -0.024949547, -0.021886742, -0.01716222, -0.019856337, -0.007990477, -0.024654826, -0.02218451, -0.02368883, -0.013266708, -0.016129043, -0.009177512, -0.011917767, -0.01821737, -0.021544399, -0.01466911, -0.017084945, -0.007081448, -0.009493989, -0.0028335287, -0.00576619, -0.0045378627, -0.0187542, -0.013019385, -0.010272791, -0.002002121, 0.0026457217, 0.010050076, 0.004993446, -0.0014178588, 0.0021246937, -0.0022647914, -0.00689787, 0.033374924, 0.014638751, 0.04299858, 0.034897126, 0.047061924, 0.026522143, 0.06004148, 0.046269696, 0.060259815, 0.066755556, 0.015506475, 0.017243614, 0.01294335, 0.014615571, 0.07525279, 0.021293752, 0.02478796, 0.027027516, 0.14239483, 0.035727147, 0.10938333, 0.024651933, 0.004695827, -0.00026996926, 0.0028971322, 0.00033634977, 0.012761894, 0.017090397, 0.0032273207, 0.006157193, 0.0017586604, -0.0041745985, 0.0106026055, 0.013511983, 0.001466091, -0.00023594341, 0.03177459, 0.04137069, 0.026125928, 0.030826708, 0.0042447555, 0.0058412943, 0.006702869, 0.0077135656, 0.0150860455, 0.010845124, 0.019921876, 0.016280826, 0.0005222868, 0.00257096, -0.0005230634, 0.0009072339, -0.0032257896, -0.0010677942, -0.0020909095, -0.0012582229, 0.0016125542, 0.003638406, 0.0023397447, 0.0057126987, 0.0014686813, 0.0034800097, -0.0034185078, -0.0007636985, 0.002256383, 0.0027122987, 0.00319728, 0.0038636022, 0.0056025344, 0.0077286917, 0.0021913538, 0.00492242, 0.005453064, 0.0063090376, 0.008776094, 0.009586943, 0.010926349, 0.010139903, 0.006804649, 0.008250006, 0.01188057, 0.011061035, 0.012740919, 0.011910458, 0.013833737, 0.014750896, 0.015642324, 0.016523166, -0.022812065, -0.0075261705, -0.017336817, -0.013439832, -0.019049445, -0.02216151, -0.010516494, -0.0064871707, 0.0040607583, -0.0021032281, -0.015021244, -0.010585664, -0.019882696, -0.016544133, -0.00015117423, -0.0071269847, 0.004975447, -0.00037759173, 0.012125752, 0.018760456, 0.009144102, 0.0043910183, -0.011998084, -0.006248454, -0.0027362711, 0.0010883542, -0.010866274, -0.00519303, -0.012619412, -0.016663862, 0.015693199, 0.019743113, 0.011917372, 0.016372388, 0.029764153, 0.021965085, 0.03892405, 0.028424917, 0.040638346, 0.048701644, 0.029765112, 0.040202513, 0.05841992, 0.04810989, 0.02336882, 0.019921824, 0.0057414575, 0.011447765, 0.020335147, 0.031897135, 0.000971514, -0.007812205, 0.014078807, 0.005940803, 0.020269915, 0.027960766, 0.012857039, 0.01932566, 0.031507708, 0.02585585, 0.04453631, 0.03271258, -0.0077031692, -0.007241056, -0.02131467, -0.02267416, -0.019048806, -0.015958318, -0.020671811, -0.019284233, -0.024222549, -0.007512377, -0.022656187, -0.021376094, -0.024061, -0.023406476, -0.012492766, -0.013925836, -0.015429899, -0.016612148, -0.009918698, -0.007502344, -0.01252374, -0.008274045, -0.018813357, -0.01743006, -0.020644363, -0.022301426, -0.015519532, -0.011689448, -0.018226989, -0.015244531, -0.009035215, -0.004165475, -0.012297357, -0.008525191, -0.0056239325, 0.0006684808, -0.009174496, -0.0046702805, -0.00579792, -0.005164296, -0.012024587, -0.0042433925, -0.009796967, -0.011655491, -0.006044674, -0.0014753329, 0.0035744393, 0.0005885046, 0.007691679, 0.012794686, 0.0033527794, 0.0066125384, -0.0030097305, -0.00046474088, 0.0031400106, 0.0012089406, -0.004455352, -0.0012503327, -0.0077634435, -0.004422868, 0.008936731, 0.010551902, 0.009388047, 0.0052871043, 0.040889677, 0.049356513, 0.030852472, 0.037396435, 0.013327192, 0.048858635, 0.0094332155, 0.005985675, 0.016858615, 0.06276547, 0.014704146, 0.037004396, 0.057747632, 0.06230073, 0.020554792, 0.019318301, 0.021967791, 0.02318998, 0.03868704, 0.043925192, 0.029089766, 0.03408602, -0.00068907253, 0.0049250047, 0.00016046886, -0.00024189183, 0.013188439, 0.0033044964, 0.016138565, 0.022618448, 0.0043543666, 0.002209185, 0.005737905, 0.009405497, 0.0005147493, 0.003531448, -0.004936184, -0.0021781032, 0.0033804656, 0.002411247, 0.004575392, 0.012668545, 0.00032903175, -0.0007454354, 0.007997855, 0.009912997, 0.011644171, 0.013416501, 0.008652843, 0.0069991928, 0.010427493, 0.008724315, 0.0031925587, 0.004674374, 0.0034133673, 0.0012994474, 0.0054356, 0.0063329595, 0.005067024, 0.004150074, -6.545758e-05, 0.00034439063, 0.0011122003, 0.00063999655, -0.0005731714, -8.8547684e-05, 0.00044683798, 0.00014642291, -0.001252414, -0.00078566396, -0.00015276935, -0.0004776578, 0.0008679522, 0.0012461618, 0.0014852056, 0.0019027357, 0.0002056043, 0.0005711764, 0.0012518385, 0.0008240278, -0.000264786, -0.0010609796, -0.0003588972, 7.4891694e-05, 0.0014093841, 0.0018127122, 0.002434171, 0.0019391343, 0.0004310262, 0.00097106106, 0.00017645332, 0.0015048216, -0.006273004, -0.0068997475, -0.0043621594, -0.005406964, -0.00301419, -0.004309444, -0.006123646, -0.0054263547, -0.0063766777, -0.007107828, -0.002714841, -0.0037460509, 7.519865e-05, -0.0020535954, 0.0008064539, 0.0020561095, -0.0009120839, 0.00018784765, -0.004944754, -0.0043161684, -0.0028936737, -0.0038213439, -0.0064993086, -0.0057092626, -0.004847941, -0.0057183034, 0.000493579, -0.00077250117, -0.0037496008, -0.0018158455, 0.0024674041, 0.0011908552, -0.0007042588, 0.00040224873, 0.0028734412, 0.0040443917, 0.005131147, 0.006251953, 0.0020332416, 0.003343988, 0.00072128716, 0.0019362638, -0.0046909293, -0.0031659866, -0.0022344359, -0.0016411812, -0.00058353523, -0.0011560192, 0.0005647193, -0.00011647546, -0.0041781543, -0.0029288395, -0.0010957211, -0.0019606457, -0.0058507607, -0.0035310078, -0.004655528, -0.0054827332, 0.0045280852, 0.0054233507, 0.007416546, 0.0056974655, 0.0038898615, 0.0032814497, 0.0052364706, 0.004622625, 0.007872802, 0.009480219, 0.0069038575, 0.0051654074, 0.010679614, 0.012294404, 0.008237969, 0.009752505, 0.014142509, 0.011627228, 0.016177222, 0.014280944, 0.003921815, 0.00908494, 0.011093894, 0.0131763, 0.019117206, 0.017140549, 0.010746155, 0.014879706, 0.0023271572, 0.00093859335, 0.0043844217, 0.0028075043, 0.006996937, 0.004957187, 0.010392468, 0.008157872, -0.0006400252, 0.0016277109, -0.0037087298, -0.001166233, 0.0033829866, 0.005167608, 0.0008442483, 0.0022739456, 0.0075211395, 0.005496067, 0.007921737, 0.009606318, 0.0047087166, 0.0034280065, 0.005395541, 0.0070676715, 0.008603864, 0.010395287, 0.006825454, 0.008305136, 0.01288307, 0.014223718, 0.011222981, 0.009318543, -0.0066671856, -0.006216858, -0.0070181834, -0.0065716845, -0.0060369307, -0.005499936, -0.0045236223, -0.0050057727, -0.0059407116, -0.006324943, -0.0054832413, -0.005942474, -0.007392269, -0.0071706655, -0.006888406, -0.0066852155, -0.00627204, -0.006533943, -0.007131168, -0.0073597305, -0.0069183824, -0.007107311, -0.0039673196, -0.0034576564, -0.0044082743, -0.003992978, -0.004795572, -0.0044085705, -0.005111787, -0.0048220335, -0.0031654157, -0.0028012749, -0.002407802, -0.0017697625, -0.0034963987, -0.004093577, -0.0027536778, -0.00197321, -0.0053511546, -0.0057756053, -0.004908707, -0.005391959, -0.0063695153, -0.0060166228, -0.0068142884, -0.0064923074, -0.004273278, -0.0048184735, -0.003924426, -0.0032752282, -0.0052883965, -0.005699789, -0.00425872, -0.0048092157, -0.0035390926, -0.0024835153, 0.00026116893, -0.0014731582, -0.0042503267, -0.0035185504, -0.002742241, -0.0021716477, -0.0021967033, -0.0013412383, 0.000775264, -0.000282281, -0.003203489, -0.0023735738, -0.0016475758, -0.0008709734, -0.0037696052, -0.0034646438, -0.0031159695, -0.0026226244, -0.0035965682, -0.003035592, -0.002037262, -0.001271469, -0.0003053377, -0.0008984957, 0.0005992745, 0.0013052459, -0.00015040649, 0.00053735665, 0.0019699074, 0.0026570032, 0.0034604643, 0.004350867, 0.0015014177, 0.0007012722, 0.0026862, 0.0016538366, -0.0013181586, -0.0007155363, 0.000106408275, -0.00041620823, 0.00070437347, 0.0012951036, 0.00019173772, 0.000759389, -0.0017116207, -0.0010909002, -0.00059960585, -0.00013707408, -0.0025523154, -0.0021221628, -0.00085153757, -0.0015923051, 0.00062626397, 0.003240999, 0.012693999, 0.0107947765, 0.015614392, 0.013928641, 0.008231672, 0.009698502, 0.010693478, 0.011833678, 0.01532011, 0.01417515, 0.019444495, 0.017249195, 0.010308052, 0.0120533025, 0.017954567, 0.016688598, 0.01926847, 0.018034227, -0.00040694672, 9.6864074e-05, 0.0022350037, 0.0013630446, 0.00397358, 0.0013761371, 0.0053071403, 0.0032855584, 0.007945633, 0.0059437077, 0.00092058204, 0.001392103, 0.00041292392, 0.00086683774, 0.0019944198, 0.0014300098, 0.0019116204, 0.0029688985, 0.00042308428, -0.00010798188, 0.0013859089, 0.00025835316, -0.001584472, -0.0011653897, -0.00051332504, -0.0009492434, 0.0033989784, 0.004050556, -0.00012993976, -0.00039892943], "categories": [], "categories_nodes": [], "categories_segments": [], "categories_sizes": [], "default_left": [0, 0, 0, 0, 0, 0, 0, 0, 0, 0, 0, 0, 0, 0, 0, 0, 0, 0, 0, 0, 0, 0, 0, 0, 0, 0, 0, 0, 0, 0, 0, 0, 0, 0, 0, 0, 0, 0, 0, 0, 0, 0, 0, 0, 0, 0, 0, 0, 0, 0, 0, 0, 0, 0, 0, 0, 0, 0, 0, 0, 0, 0, 0, 0, 0, 0, 0, 0, 0, 0, 0, 0, 0, 0, 0, 0, 0, 0, 0, 0, 0, 0, 0, 0, 0, 0, 0, 0, 0, 0, 0, 0, 0, 0, 0, 0, 0, 0, 0, 0, 0, 0, 0, 0, 0, 0, 0, 0, 0, 0, 0, 0, 0, 0, 0, 0, 0, 0, 0, 0, 0, 0, 0, 0, 0, 0, 0, 0, 0, 0, 0, 0, 0, 0, 0, 0, 0, 0, 0, 0, 0, 0, 0, 0, 0, 0, 0, 0, 0, 0, 0, 0, 0, 0, 0, 0, 0, 0, 0, 0, 0, 0, 0, 0, 0, 0, 0, 0, 0, 0, 0, 0, 0, 0, 0, 0, 0, 0, 0, 0, 0, 0, 0, 0, 0, 0, 0, 0, 0, 0, 0, 0, 0, 0, 0, 0, 0, 0, 0, 0, 0, 0, 0, 0, 0, 0, 0, 0, 0, 0, 0, 0, 0, 0, 0, 0, 0, 0, 0, 0, 0, 0, 0, 0, 0, 0, 0, 0, 0, 0, 0, 0, 0, 0, 0, 0, 0, 0, 0, 0, 0, 0, 0, 0, 0, 0, 0, 0, 0, 0, 0, 0, 0, 0, 0, 0, 0, 0, 0, 0, 0, 0, 0, 0, 0, 0, 0, 0, 0, 0, 0, 0, 0, 0, 0, 0, 0, 0, 0, 0, 0, 0, 0, 0, 0, 0, 0, 0, 0, 0, 0, 0, 0, 0, 0, 0, 0, 0, 0, 0, 0, 0, 0, 0, 0, 0, 0, 0, 0, 0, 0, 0, 0, 0, 0, 0, 0, 0, 0, 0, 0, 0, 0, 0, 0, 0, 0, 0, 0, 0, 0, 0, 0, 0, 0, 0, 0, 0, 0, 0, 0, 0, 0, 0, 0, 0, 0, 0, 0, 0, 0, 0, 0, 0, 0, 0, 0, 0, 0, 0, 0, 0, 0, 0, 0, 0, 0, 0, 0, 0, 0, 0, 0, 0, 0, 0, 0, 0, 0, 0, 0, 0, 0, 0, 0, 0, 0, 0, 0, 0, 0, 0, 0, 0, 0, 0, 0, 0, 0, 0, 0, 0, 0, 0, 0, 0, 0, 0, 0, 0, 0, 0, 0, 0, 0, 0, 0, 0, 0, 0, 0, 0, 0, 0, 0, 0, 0, 0, 0, 0, 0, 0, 0, 0, 0, 0, 0, 0, 0, 0, 0, 0, 0, 0, 0, 0, 0, 0, 0, 0, 0, 0, 0, 0, 0, 0, 0, 0, 0, 0, 0, 0, 0, 0, 0, 0, 0, 0, 0, 0, 0, 0, 0, 0, 0, 0, 0, 0, 0, 0, 0, 0, 0, 0, 0, 0, 0, 0, 0, 0, 0, 0, 0, 0, 0, 0, 0, 0, 0, 0, 0, 0, 0, 0, 0, 0, 0, 0, 0, 0, 0, 0, 0, 0, 0, 0, 0, 0, 0, 0, 0, 0, 0, 0, 0, 0, 0, 0, 0, 0, 0, 0, 0, 0, 0, 0, 0, 0, 0, 0, 0, 0, 0, 0, 0, 0, 0, 0, 0, 0, 0, 0, 0, 0, 0, 0, 0, 0, 0, 0, 0, 0, 0, 0, 0, 0, 0, 0, 0, 0, 0, 0, 0, 0, 0, 0, 0, 0, 0, 0, 0, 0, 0, 0, 0, 0, 0, 0, 0, 0, 0, 0, 0, 0, 0, 0, 0, 0, 0, 0, 0, 0, 0, 0, 0, 0, 0, 0, 0, 0, 0, 0, 0, 0, 0, 0, 0, 0, 0, 0, 0, 0, 0, 0, 0, 0, 0, 0, 0, 0, 0, 0, 0, 0, 0, 0, 0, 0, 0, 0, 0, 0, 0, 0, 0, 0, 0, 0, 0, 0, 0, 0, 0, 0, 0, 0, 0, 0, 0, 0, 0, 0, 0, 0, 0, 0, 0, 0, 0, 0, 0, 0, 0, 0, 0, 0, 0, 0, 0, 0, 0, 0, 0, 0, 0, 0, 0, 0, 0, 0, 0, 0, 0, 0, 0, 0, 0, 0, 0, 0, 0, 0, 0, 0, 0, 0, 0, 0, 0, 0, 0, 0, 0, 0, 0, 0, 0, 0, 0, 0, 0, 0, 0, 0, 0, 0, 0, 0, 0, 0, 0, 0, 0, 0, 0, 0, 0, 0, 0, 0, 0, 0, 0, 0, 0, 0, 0, 0, 0, 0, 0, 0, 0, 0, 0, 0, 0, 0, 0, 0, 0, 0, 0, 0, 0, 0, 0, 0, 0, 0, 0, 0, 0, 0, 0, 0, 0, 0, 0, 0, 0, 0, 0, 0, 0, 0, 0, 0, 0, 0, 0, 0, 0, 0, 0, 0, 0, 0, 0, 0, 0, 0, 0, 0, 0, 0, 0, 0, 0, 0, 0, 0, 0, 0, 0, 0, 0, 0, 0, 0, 0, 0, 0, 0, 0, 0, 0, 0, 0, 0, 0, 0, 0, 0, 0, 0, 0, 0, 0, 0, 0, 0, 0, 0, 0, 0, 0, 0, 0, 0, 0, 0, 0, 0, 0, 0, 0, 0, 0, 0, 0, 0, 0, 0, 0, 0, 0, 0, 0, 0, 0, 0, 0, 0, 0, 0, 0, 0, 0, 0, 0, 0, 0, 0, 0, 0, 0, 0, 0, 0, 0, 0, 0, 0, 0, 0, 0, 0, 0, 0, 0, 0, 0, 0, 0, 0, 0, 0, 0, 0, 0, 0, 0, 0, 0, 0, 0, 0, 0, 0, 0, 0, 0, 0, 0, 0, 0, 0, 0, 0, 0], "id": 0, "left_children": [1, 3, 5, 7, 9, 11, 13, 15, 17, 19, 21, 23, 25, 27, 29, 31, 33, 35, 37, 39, 41, 43, 45, 47, 49, 51, 53, 55, 57, 59, 61, 63, 65, 67, 69, 71, 73, 75, 77, 79, 81, 83, 85, 87, 89, 91, 93, 95, 97, 99, 101, 103, 105, 107, 109, 111, 113, 115, 117, 119, 121, 123, 125, 127, 129, 131, 133, 135, -1, -1, 137, 139, 141, 143, 145, 147, 149, 151, 153, 155, 157, 159, 161, 163, 165, -1, 167, -1, -1, 169, -1, -1, -1, 171, -1, 173, 175, 177, 179, 181, 183, 185, 187, 189, 191, 193, 195, 197, 199, 201, 203, 205, 207, 209, 211, 213, 215, 217, 219, 221, 223, 225, 227, 229, 231, 233, 235, 237, 239, 241, 243, 245, 247, 249, 251, 253, 255, 257, -1, 259, 261, 263, 265, 267, 269, 271, 273, -1, -1, 275, 277, 279, 281, -1, -1, -1, -1, -1, -1, -1, 283, -1, -1, -1, -1, -1, -1, -1, -1, -1, -1, -1, -1, 285, 287, 289, 291, 293, 295, 297, 299, 301, 303, 305, 307, 309, 311, 313, 315, 317, 319, 321, 323, 325, 327, 329, 331, 333, 335, 337, 339, 341, 343, 345, 347, 349, 351, 353, 355, -1, 357, 359, 361, 363, -1, 365, -1, -1, -1, 367, 369, 371, 373, -1, 375, 377, 379, 381, 383, -1, -1, 385, 387, 389, 391, 393, 395, 397, 399, 401, 403, 405, 407, 409, 411, -1, 413, -1, 415, 417, 419, -1, -1, -1, -1, -1, 421, -1, -1, -1, -1, -1, -1, -1, -1, -1, -1, 423, 425, -1, 427, 429, 431, -1, -1, -1, -1, -1, -1, 433, -1, 435, -1, -1, -1, -1, 437, 439, 441, 443, 445, 447, 449, 451, 453, 455, 457, 459, 461, 463, 465, 467, 469, 471, 473, 475, 477, 479, 481, 483, 485, 487, 489, 491, 493, 495, 497, 499, 501, 503, 505, -1, 507, 509, 511, 513, 515, 517, 519, 521, 523, 525, 527, 529, 531, 533, 535, -1, 537, 539, 541, 543, 545, 547, 549, 551, 553, 555, 557, 559, 561, 563, 565, 567, 569, 571, 573, 575, 577, -1, -1, -1, -1, 579, -1, -1, -1, 581, -1, 583, -1, 585, 587, -1, -1, 589, 591, 593, 595, 597, 599, 601, 603, -1, 605, 607, 609, 611, 613, -1, -1, -1, -1, 615, 617, 619, 621, 623, 625, 627, 629, 631, 633, -1, -1, -1, 635, -1, 637, 639, 641, 643, 645, -1, -1, -1, -1, 647, 649, 651, 653, -1, -1, -1, -1, -1, -1, -1, -1, -1, -1, -1, -1, -1, -1, -1, -1, 655, -1, 657, 659, 661, 663, 665, 667, 669, 671, 673, 675, 677, 679, 681, 683, 685, 687, 689, 691, 693, 695, 697, 699, 701, 703, 705, 707, 709, 711, 713, 715, 717, 719, 721, 723, 725, 727, 729, 731, 733, 735, 737, 739, -1, -1, 741, 743, 745, 747, 749, 751, 753, 755, 757, 759, 761, 763, 765, 767, 769, 771, -1, -1, 773, 775, 777, 779, 781, 783, 785, -1, 787, 789, 791, 793, 795, 797, 799, 801, 803, 805, 807, 809, 811, 813, 815, 817, 819, 821, 823, 825, 827, 829, 831, 833, 835, 837, 839, 841, -1, -1, 843, -1, 845, 847, 849, 851, 853, 855, 857, 859, 861, 863, 865, 867, 869, 871, 873, 875, 877, 879, -1, -1, 881, -1, 883, 885, 887, 889, -1, 891, -1, -1, -1, 893, -1, 895, 897, 899, -1, -1, -1, -1, -1, -1, -1, -1, 901, 903, -1, -1, 905, -1, 907, 909, 911, 913, 915, 917, 919, 921, 923, 925, -1, -1, -1, 927, -1, 929, -1, -1, -1, -1, -1, -1, -1, -1, -1, -1, -1, -1, -1, -1, -1, -1, -1, -1, -1, -1, -1, -1, -1, -1, -1, -1, -1, -1, -1, -1, -1, -1, -1, -1, -1, -1, -1, -1, -1, -1, -1, -1, -1, -1, -1, -1, -1, -1, -1, -1, -1, -1, -1, -1, -1, -1, -1, -1, -1, -1, -1, -1, -1, -1, -1, -1, -1, -1, -1, -1, -1, -1, -1, -1, -1, -1, -1, -1, -1, -1, -1, -1, -1, -1, -1, -1, -1, -1, -1, -1, -1, -1, -1, -1, -1, -1, -1, -1, -1, -1, -1, -1, -1, -1, -1, -1, -1, -1, -1, -1, -1, -1, -1, -1, -1, -1, -1, -1, -1, -1, -1, -1, -1, -1, -1, -1, -1, -1, -1, -1, -1, -1, -1, -1, -1, -1, -1, -1, -1, -1, -1, -1, -1, -1, -1, -1, -1, -1, -1, -1, -1, -1, -1, -1, -1, -1, -1, -1, -1, -1, -1, -1, -1, -1, -1, -1, -1, -1, -1, -1, -1, -1, -1, -1, -1, -1, -1, -1, -1, -1, -1, -1, -1, -1, -1, -1, -1, -1, -1, -1, -1, -1, -1, -1, -1, -1, -1, -1, -1, -1, -1, -1, -1, -1, -1, -1, -1, -1, -1, -1, -1, -1, -1, -1, -1, -1, -1, -1, -1, -1, -1, -1, -1, -1, -1, -1, -1, -1, -1, -1, -1, -1, -1, -1, -1, -1, -1, -1, -1, -1, -1, -1, -1, -1, -1, -1, -1, -1, -1, -1, -1, -1, -1, -1, -1, -1, -1, -1, -1, -1, -1, -1, -1, -1, -1, -1, -1, -1, -1, -1, -1, -1, -1, -1, -1, -1, -1, -1, -1, -1, -1, -1, -1, -1, -1, -1, -1, -1, -1, -1, -1, -1, -1, -1, -1, -1, -1, -1, -1, -1, -1, -1, -1, -1, -1, -1, -1, -1, -1, -1, -1, -1, -1, -1, -1, -1, -1, -1, -1, -1, -1, -1, -1, -1], "loss_changes": [101.675705, 11.584892, 101.44321, 3.8319473, 4.3986435, 32.16278, 11.191391, 0.38957953, 0.82175064, 0.33828735, 0.38585663, 28.364435, 9.223713, 8.061546, 0.4515915, 0.040122434, 0.015163839, 0.16754532, 0.20176506, 0.22354889, 0.0749073, 0.042146683, 0.100286484, 6.237089, 4.6668034, 2.3942223, 0.9396832, 1.1091576, 2.4836578, 0.065898106, 0.06929147, 0.007626732, 0.0065427497, 0.0025709122, 0.009760678, 0.058707237, 0.079154015, 0.03690529, 0.043855667, 0.035259247, 0.042765617, 0.04068184, 0.015102863, 0.00055217743, 0.005300522, 0.02936554, 0.012536049, 0.8542013, 3.5038462, 2.6119785, 5.4969077, 0.22195816, 0.7493305, 0.181903, 0.24458273, 0.34598923, 0.19080925, 0.13947296, 0.34308434, 0.0063937753, 0.023714308, 0.02934879, 0.0077325106, 0.0016787953, 0.0028592264, 0.0021804944, 0.0012034923, 0.0011829287, 0.0, 0.0, 0.0027717948, 0.0049556494, 0.013580799, 0.01912117, 0.021355629, 0.0047311783, 0.008565903, 0.039857864, 0.0035697818, 0.0150642395, 0.014154434, 0.013274193, 0.0020098686, 0.028094292, 0.003942013, 0.0, 0.000254035, 0.0, 0.0, 0.003830433, 0.0, 0.0, 0.0, 0.0024461746, 0.0, 0.13529587, 0.3716221, 0.7383355, 0.5295756, 0.45680428, 0.27536297, 1.2731769, 0.7158232, 0.1511364, 0.04024124, 0.138937, 0.16420555, 0.10389578, 0.026518762, 0.06872386, 0.026927764, 0.07270241, 0.08596516, 0.06089592, 0.03752327, 0.05082512, 0.047047615, 0.002939701, 0.45879936, 0.00088765286, 0.0032042414, 0.007680036, 0.0023469888, 0.0031153858, 0.010716081, 0.0056284964, 0.002862841, 0.00022873419, 0.00056049414, 0.00036432687, 0.0006251347, 0.00027690455, 0.0004536435, 0.0006667599, 6.908551e-06, 6.855652e-05, 0.0010273755, 0.00069251657, 0.0, 0.00047123432, 0.0019500256, 0.0026040077, 0.0041799545, 0.013312817, 0.0018011183, 0.0040860176, 0.0014666319, 0.0, 0.0, 0.00076913834, 0.00017619133, 0.0041885376, 0.004611492, 0.0, 0.0, 0.0, 0.0, 0.0, 0.0, 0.0, 0.00037193298, 0.0, 0.0, 0.0, 0.0, 0.0, 0.0, 0.0, 0.0, 0.0, 0.0, 0.0, 0.0, 0.010167837, 0.064692974, 0.12102699, 0.115878105, 0.13839978, 0.3656944, 0.2817609, 0.22390842, 0.060661316, 0.090940475, 0.045476437, 0.037570953, 0.8359394, 0.83975506, 0.141078, 0.11702204, 0.034157753, 0.037583828, 0.010970116, 0.014638901, 0.030853748, 0.0495224, 0.06508446, 0.039177895, 0.016793907, 0.03767109, 0.0013543963, 0.005505502, 0.008616337, 0.03585556, 0.022416329, 0.008340646, 0.012860417, 0.08812618, 0.030363083, 0.08652735, 0.0, 0.031012535, 0.0085167885, 0.003484249, 0.0070619583, 0.0, 0.013273239, 0.0, 0.0, 0.0, 0.09701538, 0.0749712, 0.00020899338, 0.00012115622, 0.0, 0.0028996766, 0.0028450806, 0.0044737416, 0.00035163015, 0.00017082207, 0.0, 0.0, 0.0066713095, 0.00051014125, 0.0011266619, 0.00067448616, 0.0005887188, 0.0011922419, 6.301346e-05, 4.621125e-05, 0.00041642424, 6.1123865e-05, 9.775488e-05, 0.00015144236, 0.0004420923, 7.082005e-05, 0.0, 2.4451874e-05, 0.0, 5.7360157e-05, 0.00032870285, 0.00015933544, 0.0, 0.0, 0.0, 0.0, 0.0, 1.283735e-05, 0.0, 0.0, 0.0, 0.0, 0.0, 0.0, 0.0, 0.0, 0.0, 0.0, 0.0013762712, 0.0011100769, 0.0, 9.9658966e-05, 0.000569582, 0.0017049313, 0.0, 0.0, 0.0, 0.0, 0.0, 0.0, 0.0018892288, 0.0, 0.00023555756, 0.0, 0.0, 0.0, 0.0, 0.000666976, 0.01571703, 0.017999649, 0.034274995, 0.017478567, 0.16865969, 0.014255166, 0.027920835, 0.08425536, 0.057666898, 0.101481676, 0.058166623, 0.06767999, 0.30967212, 0.024232388, 0.03728032, 0.015223026, 0.05494833, 0.037373543, 0.022186518, 0.018132746, 0.011094332, 0.003450513, 0.11546701, 0.113618135, 0.46972606, 0.15477264, 0.0537498, 0.103099346, 0.056375504, 0.048264265, 0.0022449493, 0.0065398216, 0.018745184, 0.006073475, 0.0, 0.0010581017, 0.0033535957, 0.0015487671, 0.0057058334, 0.0016515255, 0.01627016, 0.029209852, 0.009721279, 0.00510478, 0.03860855, 0.025135279, 0.039397955, 0.013423026, 0.087864004, 0.03188935, 0.0, 0.00027175248, 0.0016064048, 0.00081676245, 0.0013454878, 0.0020422102, 0.023676455, 0.0060211197, 0.0052133603, 0.0034540538, 0.008843362, 0.0008889921, 0.007011652, 0.00047713984, 0.07317543, 0.017143011, 0.0077495575, 0.0019595325, 0.0111403465, 0.016314507, 0.007912636, 0.0010418892, 0.0, 0.0, 0.0, 0.0, 0.001871109, 0.0, 0.0, 0.0, 0.023497581, 0.0, 0.003082037, 0.0, 6.756664e-05, 5.1797592e-06, 0.0, 0.0, 6.709248e-05, 0.0017659962, 0.00087050255, 0.0007509608, 0.0026730779, 0.00020515989, 5.455874e-05, 0.00011632964, 0.0, 9.644679e-06, 2.7611852e-05, 0.00029471517, 0.00010930747, 1.8671155e-05, 0.0, 0.0, 0.0, 0.0, 0.00022592396, 0.00015199138, 0.0002644509, 4.6655536e-05, 9.51656e-06, 3.3866032e-05, 1.7776792e-05, 8.302672e-06, 7.718138e-05, 6.36293e-05, 0.0, 0.0, 0.0, 2.7164584e-05, 0.0, 3.4823548e-05, 0.0001050678, 7.5403834e-05, 1.3704994e-06, 1.5204105e-05, 0.0, 0.0, 0.0, 0.0, 4.6413392e-05, 1.8693507e-05, 3.6374637e-05, 1.3691839e-05, 0.0, 0.0, 0.0, 0.0, 0.0, 0.0, 0.0, 0.0, 0.0, 0.0, 0.0, 0.0, 0.0, 0.0, 0.0, 0.0, 0.00021445751, 0.0, 0.0032810569, 0.007496774, 0.012261391, 0.002775669, 0.012515783, 0.009900391, 0.0026765466, 0.0034060366, 0.01647377, 0.03299296, 0.0028825998, 0.0028725266, 0.0031610741, 0.0158844, 0.014345489, 0.030022934, 0.007920831, 0.010050297, 0.03780514, 0.042060763, 0.012745351, 0.0057709813, 0.008886367, 0.0100430995, 0.06149888, 0.042087197, 0.01943785, 0.004679382, 0.005114615, 0.021450281, 0.0023774803, 0.0009150505, 0.006323755, 0.025517464, 0.0011613369, 0.0136089325, 0.005622387, 0.002963543, 0.002258718, 0.00346905, 0.0019743443, 0.0011696815, 0.0, 0.0, 0.052126944, 0.036449313, 0.02650112, 0.016345024, 0.25636354, 0.1618576, 0.028929055, 0.04099095, 0.021404743, 0.008700728, 0.019521236, 0.028131843, 0.025017023, 0.025512695, 0.0008635521, 0.0051267147, 0.0, 0.0, 0.004407406, 0.0031080246, 0.0021390915, 0.0030288696, 0.0016231537, 0.0039470196, 4.529953e-05, 0.0, 0.00020813942, 0.00025069714, 0.0005993843, 0.0005803108, 0.0036060214, 0.0027462244, 0.0007123947, 0.0004916787, 0.0032556653, 0.0033459216, 0.010933757, 0.0028505474, 0.0048713684, 0.0050649643, 0.00086963177, 0.0007147789, 0.0080013275, 0.0035141706, 0.0031142235, 0.0035949945, 0.008564025, 0.010431394, 0.0011925548, 0.0028678179, 0.009767607, 0.012298285, 0.0038628578, 0.009379059, 0.0, 0.0, 7.3321164e-05, 0.0, 0.00056785345, 6.143004e-05, 6.962032e-05, 0.0003891026, 0.00089357514, 0.00043869077, 0.0025350004, 0.0034825206, 0.0018867375, 0.0028964616, 0.0011021849, 0.0016267063, 0.0016335119, 0.0014729779, 0.0012692586, 0.0016158894, 0.0001030229, 0.00014475244, 0.0, 0.0, 0.00015309628, 0.0, 0.02793789, 0.008552074, 0.0026243925, 0.002592206, 0.0, 0.0019729137, 0.0, 0.0, 0.0, 0.0050299168, 0.0, 2.0772219e-05, 0.0012116432, 0.0013065338, 0.0, 0.0, 0.0, 0.0, 0.0, 0.0, 0.0, 0.0, 2.4641654e-06, 1.4318386e-05, 0.0, 0.0, 4.8726797e-05, 0.0, 0.002615437, 9.377301e-05, 0.000119234435, 0.00022546062, 0.0004332699, 3.5207253e-05, 0.00055979204, 0.001448981, 1.6528647e-05, 1.346643e-05, 0.0, 0.0, 0.0, 1.2116507e-05, 0.0, 1.2489127e-06, 0.0, 0.0, 0.0, 0.0, 0.0, 0.0, 0.0, 0.0, 0.0, 0.0, 0.0, 0.0, 0.0, 0.0, 0.0, 0.0, 0.0, 0.0, 0.0, 0.0, 0.0, 0.0, 0.0, 0.0, 0.0, 0.0, 0.0, 0.0, 0.0, 0.0, 0.0, 0.0, 0.0, 0.0, 0.0, 0.0, 0.0, 0.0, 0.0, 0.0, 0.0, 0.0, 0.0, 0.0, 0.0, 0.0, 0.0, 0.0, 0.0, 0.0, 0.0, 0.0, 0.0, 0.0, 0.0, 0.0, 0.0, 0.0, 0.0, 0.0, 0.0, 0.0, 0.0, 0.0, 0.0, 0.0, 0.0, 0.0, 0.0, 0.0, 0.0, 0.0, 0.0, 0.0, 0.0, 0.0, 0.0, 0.0, 0.0, 0.0, 0.0, 0.0, 0.0, 0.0, 0.0, 0.0, 0.0, 0.0, 0.0, 0.0, 0.0, 0.0, 0.0, 0.0, 0.0, 0.0, 0.0, 0.0, 0.0, 0.0, 0.0, 0.0, 0.0, 0.0, 0.0, 0.0, 0.0, 0.0, 0.0, 0.0, 0.0, 0.0, 0.0, 0.0, 0.0, 0.0, 0.0, 0.0, 0.0, 0.0, 0.0, 0.0, 0.0, 0.0, 0.0, 0.0, 0.0, 0.0, 0.0, 0.0, 0.0, 0.0, 0.0, 0.0, 0.0, 0.0, 0.0, 0.0, 0.0, 0.0, 0.0, 0.0, 0.0, 0.0, 0.0, 0.0, 0.0, 0.0, 0.0, 0.0, 0.0, 0.0, 0.0, 0.0, 0.0, 0.0, 0.0, 0.0, 0.0, 0.0, 0.0, 0.0, 0.0, 0.0, 0.0, 0.0, 0.0, 0.0, 0.0, 0.0, 0.0, 0.0, 0.0, 0.0, 0.0, 0.0, 0.0, 0.0, 0.0, 0.0, 0.0, 0.0, 0.0, 0.0, 0.0, 0.0, 0.0, 0.0, 0.0, 0.0, 0.0, 0.0, 0.0, 0.0, 0.0, 0.0, 0.0, 0.0, 0.0, 0.0, 0.0, 0.0, 0.0, 0.0, 0.0, 0.0, 0.0, 0.0, 0.0, 0.0, 0.0, 0.0, 0.0, 0.0, 0.0, 0.0, 0.0, 0.0, 0.0, 0.0, 0.0, 0.0, 0.0, 0.0, 0.0, 0.0, 0.0, 0.0, 0.0, 0.0, 0.0, 0.0, 0.0, 0.0, 0.0, 0.0, 0.0, 0.0, 0.0, 0.0, 0.0, 0.0, 0.0, 0.0, 0.0, 0.0, 0.0, 0.0, 0.0, 0.0, 0.0, 0.0, 0.0, 0.0, 0.0, 0.0, 0.0, 0.0, 0.0, 0.0, 0.0, 0.0, 0.0, 0.0, 0.0, 0.0, 0.0, 0.0, 0.0, 0.0, 0.0, 0.0, 0.0, 0.0, 0.0, 0.0, 0.0, 0.0, 0.0, 0.0, 0.0, 0.0, 0.0, 0.0, 0.0, 0.0, 0.0, 0.0, 0.0, 0.0, 0.0, 0.0, 0.0, 0.0, 0.0, 0.0, 0.0, 0.0, 0.0, 0.0, 0.0, 0.0, 0.0, 0.0, 0.0, 0.0, 0.0, 0.0, 0.0, 0.0, 0.0, 0.0, 0.0, 0.0, 0.0, 0.0, 0.0, 0.0, 0.0, 0.0, 0.0, 0.0, 0.0, 0.0], "parents": [2147483647, 0, 0, 1, 1, 2, 2, 3, 3, 4, 4, 5, 5, 6, 6, 7, 7, 8, 8, 9, 9, 10, 10, 11, 11, 12, 12, 13, 13, 14, 14, 15, 15, 16, 16, 17, 17, 18, 18, 19, 19, 20, 20, 21, 21, 22, 22, 23, 23, 24, 24, 25, 25, 26, 26, 27, 27, 28, 28, 29, 29, 30, 30, 31, 31, 32, 32, 33, 33, 34, 34, 35, 35, 36, 36, 37, 37, 38, 38, 39, 39, 40, 40, 41, 41, 42, 42, 43, 43, 44, 44, 45, 45, 46, 46, 47, 47, 48, 48, 49, 49, 50, 50, 51, 51, 52, 52, 53, 53, 54, 54, 55, 55, 56, 56, 57, 57, 58, 58, 59, 59, 60, 60, 61, 61, 62, 62, 63, 63, 64, 64, 65, 65, 66, 66, 67, 67, 70, 70, 71, 71, 72, 72, 73, 73, 74, 74, 75, 75, 76, 76, 77, 77, 78, 78, 79, 79, 80, 80, 81, 81, 82, 82, 83, 83, 84, 84, 86, 86, 89, 89, 93, 93, 95, 95, 96, 96, 97, 97, 98, 98, 99, 99, 100, 100, 101, 101, 102, 102, 103, 103, 104, 104, 105, 105, 106, 106, 107, 107, 108, 108, 109, 109, 110, 110, 111, 111, 112, 112, 113, 113, 114, 114, 115, 115, 116, 116, 117, 117, 118, 118, 119, 119, 120, 120, 121, 121, 122, 122, 123, 123, 124, 124, 125, 125, 126, 126, 127, 127, 128, 128, 129, 129, 130, 130, 131, 131, 132, 132, 133, 133, 134, 134, 135, 135, 136, 136, 137, 137, 139, 139, 140, 140, 141, 141, 142, 142, 143, 143, 144, 144, 145, 145, 146, 146, 149, 149, 150, 150, 151, 151, 152, 152, 160, 160, 173, 173, 174, 174, 175, 175, 176, 176, 177, 177, 178, 178, 179, 179, 180, 180, 181, 181, 182, 182, 183, 183, 184, 184, 185, 185, 186, 186, 187, 187, 188, 188, 189, 189, 190, 190, 191, 191, 192, 192, 193, 193, 194, 194, 195, 195, 196, 196, 197, 197, 198, 198, 199, 199, 200, 200, 201, 201, 202, 202, 203, 203, 204, 204, 205, 205, 206, 206, 207, 207, 208, 208, 210, 210, 211, 211, 212, 212, 213, 213, 215, 215, 219, 219, 220, 220, 221, 221, 222, 222, 224, 224, 225, 225, 226, 226, 227, 227, 228, 228, 231, 231, 232, 232, 233, 233, 234, 234, 235, 235, 236, 236, 237, 237, 238, 238, 239, 239, 240, 240, 241, 241, 242, 242, 243, 243, 244, 244, 246, 246, 248, 248, 249, 249, 250, 250, 256, 256, 267, 267, 268, 268, 270, 270, 271, 271, 272, 272, 279, 279, 281, 281, 286, 286, 287, 287, 288, 288, 289, 289, 290, 290, 291, 291, 292, 292, 293, 293, 294, 294, 295, 295, 296, 296, 297, 297, 298, 298, 299, 299, 300, 300, 301, 301, 302, 302, 303, 303, 304, 304, 305, 305, 306, 306, 307, 307, 308, 308, 309, 309, 310, 310, 311, 311, 312, 312, 313, 313, 314, 314, 315, 315, 316, 316, 317, 317, 318, 318, 319, 319, 320, 320, 322, 322, 323, 323, 324, 324, 325, 325, 326, 326, 327, 327, 328, 328, 329, 329, 330, 330, 331, 331, 332, 332, 333, 333, 334, 334, 335, 335, 336, 336, 338, 338, 339, 339, 340, 340, 341, 341, 342, 342, 343, 343, 344, 344, 345, 345, 346, 346, 347, 347, 348, 348, 349, 349, 350, 350, 351, 351, 352, 352, 353, 353, 354, 354, 355, 355, 356, 356, 357, 357, 358, 358, 363, 363, 367, 367, 369, 369, 371, 371, 372, 372, 375, 375, 376, 376, 377, 377, 378, 378, 379, 379, 380, 380, 381, 381, 382, 382, 384, 384, 385, 385, 386, 386, 387, 387, 388, 388, 393, 393, 394, 394, 395, 395, 396, 396, 397, 397, 398, 398, 399, 399, 400, 400, 401, 401, 402, 402, 406, 406, 408, 408, 409, 409, 410, 410, 411, 411, 412, 412, 417, 417, 418, 418, 419, 419, 420, 420, 437, 437, 439, 439, 440, 440, 441, 441, 442, 442, 443, 443, 444, 444, 445, 445, 446, 446, 447, 447, 448, 448, 449, 449, 450, 450, 451, 451, 452, 452, 453, 453, 454, 454, 455, 455, 456, 456, 457, 457, 458, 458, 459, 459, 460, 460, 461, 461, 462, 462, 463, 463, 464, 464, 465, 465, 466, 466, 467, 467, 468, 468, 469, 469, 470, 470, 471, 471, 472, 472, 473, 473, 474, 474, 475, 475, 476, 476, 477, 477, 478, 478, 479, 479, 480, 480, 483, 483, 484, 484, 485, 485, 486, 486, 487, 487, 488, 488, 489, 489, 490, 490, 491, 491, 492, 492, 493, 493, 494, 494, 495, 495, 496, 496, 497, 497, 498, 498, 501, 501, 502, 502, 503, 503, 504, 504, 505, 505, 506, 506, 507, 507, 509, 509, 510, 510, 511, 511, 512, 512, 513, 513, 514, 514, 515, 515, 516, 516, 517, 517, 518, 518, 519, 519, 520, 520, 521, 521, 522, 522, 523, 523, 524, 524, 525, 525, 526, 526, 527, 527, 528, 528, 529, 529, 530, 530, 531, 531, 532, 532, 533, 533, 534, 534, 535, 535, 536, 536, 539, 539, 541, 541, 542, 542, 543, 543, 544, 544, 545, 545, 546, 546, 547, 547, 548, 548, 549, 549, 550, 550, 551, 551, 552, 552, 553, 553, 554, 554, 555, 555, 556, 556, 557, 557, 558, 558, 561, 561, 563, 563, 564, 564, 565, 565, 566, 566, 568, 568, 572, 572, 574, 574, 575, 575, 576, 576, 585, 585, 586, 586, 589, 589, 591, 591, 592, 592, 593, 593, 594, 594, 595, 595, 596, 596, 597, 597, 598, 598, 599, 599, 600, 600, 604, 604, 606, 606], "right_children": [2, 4, 6, 8, 10, 12, 14, 16, 18, 20, 22, 24, 26, 28, 30, 32, 34, 36, 38, 40, 42, 44, 46, 48, 50, 52, 54, 56, 58, 60, 62, 64, 66, 68, 70, 72, 74, 76, 78, 80, 82, 84, 86, 88, 90, 92, 94, 96, 98, 100, 102, 104, 106, 108, 110, 112, 114, 116, 118, 120, 122, 124, 126, 128, 130, 132, 134, 136, -1, -1, 138, 140, 142, 144, 146, 148, 150, 152, 154, 156, 158, 160, 162, 164, 166, -1, 168, -1, -1, 170, -1, -1, -1, 172, -1, 174, 176, 178, 180, 182, 184, 186, 188, 190, 192, 194, 196, 198, 200, 202, 204, 206, 208, 210, 212, 214, 216, 218, 220, 222, 224, 226, 228, 230, 232, 234, 236, 238, 240, 242, 244, 246, 248, 250, 252, 254, 256, 258, -1, 260, 262, 264, 266, 268, 270, 272, 274, -1, -1, 276, 278, 280, 282, -1, -1, -1, -1, -1, -1, -1, 284, -1, -1, -1, -1, -1, -1, -1, -1, -1, -1, -1, -1, 286, 288, 290, 292, 294, 296, 298, 300, 302, 304, 306, 308, 310, 312, 314, 316, 318, 320, 322, 324, 326, 328, 330, 332, 334, 336, 338, 340, 342, 344, 346, 348, 350, 352, 354, 356, -1, 358, 360, 362, 364, -1, 366, -1, -1, -1, 368, 370, 372, 374, -1, 376, 378, 380, 382, 384, -1, -1, 386, 388, 390, 392, 394, 396, 398, 400, 402, 404, 406, 408, 410, 412, -1, 414, -1, 416, 418, 420, -1, -1, -1, -1, -1, 422, -1, -1, -1, -1, -1, -1, -1, -1, -1, -1, 424, 426, -1, 428, 430, 432, -1, -1, -1, -1, -1, -1, 434, -1, 436, -1, -1, -1, -1, 438, 440, 442, 444, 446, 448, 450, 452, 454, 456, 458, 460, 462, 464, 466, 468, 470, 472, 474, 476, 478, 480, 482, 484, 486, 488, 490, 492, 494, 496, 498, 500, 502, 504, 506, -1, 508, 510, 512, 514, 516, 518, 520, 522, 524, 526, 528, 530, 532, 534, 536, -1, 538, 540, 542, 544, 546, 548, 550, 552, 554, 556, 558, 560, 562, 564, 566, 568, 570, 572, 574, 576, 578, -1, -1, -1, -1, 580, -1, -1, -1, 582, -1, 584, -1, 586, 588, -1, -1, 590, 592, 594, 596, 598, 600, 602, 604, -1, 606, 608, 610, 612, 614, -1, -1, -1, -1, 616, 618, 620, 622, 624, 626, 628, 630, 632, 634, -1, -1, -1, 636, -1, 638, 640, 642, 644, 646, -1, -1, -1, -1, 648, 650, 652, 654, -1, -1, -1, -1, -1, -1, -1, -1, -1, -1, -1, -1, -1, -1, -1, -1, 656, -1, 658, 660, 662, 664, 666, 668, 670, 672, 674, 676, 678, 680, 682, 684, 686, 688, 690, 692, 694, 696, 698, 700, 702, 704, 706, 708, 710, 712, 714, 716, 718, 720, 722, 724, 726, 728, 730, 732, 734, 736, 738, 740, -1, -1, 742, 744, 746, 748, 750, 752, 754, 756, 758, 760, 762, 764, 766, 768, 770, 772, -1, -1, 774, 776, 778, 780, 782, 784, 786, -1, 788, 790, 792, 794, 796, 798, 800, 802, 804, 806, 808, 810, 812, 814, 816, 818, 820, 822, 824, 826, 828, 830, 832, 834, 836, 838, 840, 842, -1, -1, 844, -1, 846, 848, 850, 852, 854, 856, 858, 860, 862, 864, 866, 868, 870, 872, 874, 876, 878, 880, -1, -1, 882, -1, 884, 886, 888, 890, -1, 892, -1, -1, -1, 894, -1, 896, 898, 900, -1, -1, -1, -1, -1, -1, -1, -1, 902, 904, -1, -1, 906, -1, 908, 910, 912, 914, 916, 918, 920, 922, 924, 926, -1, -1, -1, 928, -1, 930, -1, -1, -1, -1, -1, -1, -1, -1, -1, -1, -1, -1, -1, -1, -1, -1, -1, -1, -1, -1, -1, -1, -1, -1, -1, -1, -1, -1, -1, -1, -1, -1, -1, -1, -1, -1, -1, -1, -1, -1, -1, -1, -1, -1, -1, -1, -1, -1, -1, -1, -1, -1, -1, -1, -1, -1, -1, -1, -1, -1, -1, -1, -1, -1, -1, -1, -1, -1, -1, -1, -1, -1, -1, -1, -1, -1, -1, -1, -1, -1, -1, -1, -1, -1, -1, -1, -1, -1, -1, -1, -1, -1, -1, -1, -1, -1, -1, -1, -1, -1, -1, -1, -1, -1, -1, -1, -1, -1, -1, -1, -1, -1, -1, -1, -1, -1, -1, -1, -1, -1, -1, -1, -1, -1, -1, -1, -1, -1, -1, -1, -1, -1, -1, -1, -1, -1, -1, -1, -1, -1, -1, -1, -1, -1, -1, -1, -1, -1, -1, -1, -1, -1, -1, -1, -1, -1, -1, -1, -1, -1, -1, -1, -1, -1, -1, -1, -1, -1, -1, -1, -1, -1, -1, -1, -1, -1, -1, -1, -1, -1, -1, -1, -1, -1, -1, -1, -1, -1, -1, -1, -1, -1, -1, -1, -1, -1, -1, -1, -1, -1, -1, -1, -1, -1, -1, -1, -1, -1, -1, -1, -1, -1, -1, -1, -1, -1, -1, -1, -1, -1, -1, -1, -1, -1, -1, -1, -1, -1, -1, -1, -1, -1, -1, -1, -1, -1, -1, -1, -1, -1, -1, -1, -1, -1, -1, -1, -1, -1, -1, -1, -1, -1, -1, -1, -1, -1, -1, -1, -1, -1, -1, -1, -1, -1, -1, -1, -1, -1, -1, -1, -1, -1, -1, -1, -1, -1, -1, -1, -1, -1, -1, -1, -1, -1, -1, -1, -1, -1, -1, -1, -1, -1, -1, -1, -1, -1, -1, -1, -1, -1, -1, -1, -1, -1, -1, -1, -1, -1, -1, -1, -1, -1, -1, -1, -1, -1, -1, -1, -1, -1, -1, -1, -1, -1], "split_conditions": [4922.799, 333.1902, 1956.555, 223.51845, 468.90042, 25052.79, 25052.79, 243.2857, 286.26782, 379.70547, 552.6873, 272.72617, 1432.1565, 1921.5015, 3201.1108, 132.00273, 205.1426, 3843.52, 3753.9949, 3843.52, 4030.848, 3753.9949, 3843.52, 583.7008, 7302.0894, 397.585, 1971.389, 1663.8427, 3309.2527, 38062.04, 38062.04, 115.17131, 3843.52, 4278.8467, 3753.9949, 257.5936, 263.35336, 305.78726, 4278.8467, 357.8206, 4278.8467, 417.88483, 599.1326, 510.44003, 4278.8467, 602.4327, 931.2782, 111.887344, 7780.44, 605.01074, 868.1945, 43442.855, 37304.69, 51704.16, 37304.69, 2353.1296, 20485.273, 2104.7817, 2256.3171, 1111.3816, 2434.6135, 3517.9775, 42235.73, 3882.6963, 3753.9949, 145.1315, 228.62627, 186.35393, 0.0035468426, 0.009315605, 4278.8467, 238.01839, 3600.8655, 4278.8467, 4278.8467, 3487.9453, 3600.8655, 309.67084, 311.25235, 3600.8655, 3600.8655, 349.40033, 524.4069, 3678.9246, 3678.9246, 0.018361067, 4278.8467, 0.03226608, 0.03563556, 506.42245, 0.024511643, 0.039234202, 0.044405483, 4278.8467, 0.03954005, 101.55455, 8574.502, 338.52463, 9043.94, 468.4625, 757.1215, 9690.143, 1696.4487, 409.66043, 274.23578, 482.10385, 529.7622, 1654.1387, 868.1945, 980.66565, 42839.75, 1111.3816, 1362.3798, 17934.896, 22487.389, 20688.781, 20485.273, 17934.896, 20485.273, 1064.7828, 3028.1565, 42839.75, 51704.16, 1362.3798, 30477.252, 2005.502, 2005.502, 3678.9246, 4278.8467, 122.191154, 4278.8467, 3600.8655, 3600.8655, 4278.8467, 4030.848, 3600.8655, 3753.9949, 212.08434, 0.005371363, 3600.8655, 3648.4307, 272.72617, 271.17786, 248.19116, 0.6389317, 272.72617, 0.6389317, 0.01709169, 0.015732048, 320.77774, 320.77774, 3985.0808, 3985.0808, 0.010807614, 0.0126422765, 0.021086287, 0.01931406, 0.02320678, 0.021092473, 0.017070265, 3985.0808, 0.014341639, 0.015996838, 0.024721624, 0.021921147, 0.028511388, 0.025591642, 0.022822881, 0.01984963, 0.028272195, 0.031210357, 0.035423912, 0.030797144, 78.08128, 7780.44, 188.21693, 15880.78, 172.78061, 5829.5015, 205.1426, 12254.402, 6673.5, 354.97342, 6673.5, 850.7496, 379.70547, 644.35895, 20485.273, 1362.3798, 272.9384, 31792.31, 182.31021, 53333.54, 30777.582, 29098.91, 50731.95, 49058.668, 39201.945, 37304.69, 58323.953, 1014.6802, 823.17535, 30477.252, 1186.954, 51704.16, 17934.896, 21637.588, 17934.896, 19623.58, 0.022969585, 1834.9015, 1750.386, 1750.386, 19623.58, 0.018390141, 2256.3171, 0.02128202, 0.0283373, 0.021682223, 3.67622, 22487.389, 28680.537, 30271.13, 0.0026784062, 1326.8917, 1362.3798, 59057.88, 3361.226, 58323.953, 0.004660148, 0.007201711, 1921.5015, 2961.637, 1834.9015, 2104.7817, 44895.098, 45555.992, 318.42078, 111.887344, 108.36217, 108.36217, 3487.9453, 3487.9453, 125.389885, 122.191154, 0.003222592, 210.1001, 0.0043740775, 150.97351, 141.95798, 214.7077, 0.0032145274, 0.00250212, 0.005926249, 0.0046346392, 0.007959215, 193.71194, 0.007021665, 0.007826984, 0.011247647, 0.010107131, 0.01265742, 0.011321997, 0.014202222, 0.015537324, 0.012719942, 0.013959181, 239.25237, 3985.0808, 0.0063336, 239.25237, 3985.0808, 3985.0808, 0.007951495, 0.009868208, 0.018314257, 0.01958396, 0.016929649, 0.018017942, 298.4656, 0.0132463975, 320.77774, 0.014943481, 0.01912154, 0.018035864, -0.007855334, 3010.0, 90.83329, 10944.586, 141.95798, 7096.1846, 243.2857, 206.57985, 6394.71, 6596.11, 234.22331, 6753.12, 170.1907, 235.54597, 213.25317, 17168.566, 425.20425, 300.3879, 5829.5015, 5829.5015, 662.4016, 443.44797, 6673.5, 5829.5015, 313.05087, 456.61157, 17446.293, 19623.58, 1014.6802, 1014.6802, 19909.574, 21086.793, 214.7077, 34502.363, 330.84116, 333.1902, -0.007990477, 54824.703, 342.3416, 320.77774, 27694.273, 33466.098, 547.61084, 611.1336, 477.69638, 60368.01, 668.5607, 727.33344, 644.35895, 791.1639, 758.7491, 916.36847, -0.0045378627, 712.0364, 60368.01, 59057.88, 696.8189, 29856.562, 1157.7568, 1744.4299, 1095.1709, 40008.42, 1172.3773, 2230.9182, 1032.7305, 997.6735, 1478.8307, 1478.8307, 1278.2325, 22487.389, 1478.8307, 21310.598, 1750.386, 19623.58, 0.015506475, 0.017243614, 0.01294335, 0.014615571, 2005.502, 0.021293752, 0.02478796, 0.027027516, 6804.241, 0.035727147, 5737.384, 0.024651933, 758.7491, 35566.656, 0.0028971322, 0.00033634977, 4.7887764, 2194.3096, 40797.61, 1478.8307, 1410.8925, 2848.9197, 49058.668, 43154.945, 0.001466091, 61276.69, 1750.386, 2104.7817, 32702.025, 32702.025, 0.0042447555, 0.0058412943, 0.006702869, 0.0077135656, 1834.9015, 50731.95, 2104.7817, 47909.332, 104.211624, 3487.9453, 104.211624, 3753.9949, 161.97913, 3985.0808, -0.0020909095, -0.0012582229, 0.0016125542, 118.84459, 0.0023397447, 125.389885, 118.84459, 3943.4094, 161.97913, 2.1924758, 0.002256383, 0.0027122987, 0.00319728, 0.0038636022, 135.20233, 4030.848, 2.728561, 0.6389317, 0.005453064, 0.0063090376, 0.008776094, 0.009586943, 0.010926349, 0.010139903, 0.006804649, 0.008250006, 0.01188057, 0.011061035, 0.012740919, 0.011910458, 0.013833737, 0.014750896, 0.015642324, 0.016523166, 7466.86, -0.0075261705, 6394.71, 5829.5015, 90.83329, 14133.707, 6955.27, 6184.71, 224.89174, 214.50107, 128.67549, 11573.3, 172.78061, 19909.574, 5829.5015, 138.53127, 5324.552, 205.1426, 216.99847, 253.57953, 244.35059, 244.35059, 138.53127, 188.21693, 8418.99, 8574.502, 167.49828, 10141.996, 180.09772, 19909.574, 294.44543, 5829.5015, 6955.27, 6881.9585, 300.3879, 6753.12, 551.16364, 386.37936, 5324.552, 5324.552, 305.78726, 482.10385, 5829.5015, 506.42245, 0.02336882, 0.019921824, 8418.99, 8205.939, 8574.502, 8418.99, 352.52396, 447.6721, 775.0457, 742.9003, 18547.4, 1126.1044, 22219.77, 1142.3156, 1049.2063, 1142.3156, 1478.8307, 22487.389, -0.0077031692, -0.007241056, 214.50107, 244.35059, 280.29694, 28175.816, 35566.656, 36630.074, 234.22331, -0.007512377, 314.8879, 47588.855, 60368.01, 63109.695, 447.6721, 443.44797, 439.1323, 434.89456, 514.2289, 594.9175, 31792.31, 979.44464, 41816.87, 42407.938, 452.1835, 452.1835, 41816.87, 727.33344, 58323.953, 59057.88, 529.7622, 27225.727, 682.24963, 1304.5378, 655.83813, 29675.732, 837.79584, 1537.1287, -0.00579792, -0.005164296, 965.4276, -0.0042433925, 1095.1709, 1142.3156, 682.24963, 28680.537, 868.1945, 899.5584, 1080.0978, 1239.7968, 32702.025, 32702.025, 1032.7305, 40458.31, 1258.1943, 1278.2325, 1095.1709, 1258.1943, 1696.4487, 58323.953, 0.008936731, 0.010551902, 807.38074, 0.0052871043, 19623.58, 20104.023, 1362.3798, 1567.0133, 0.013327192, 16716.111, 0.0094332155, 0.005985675, 0.016858615, 17446.293, 0.014704146, 1567.0133, 19623.58, 19623.58, 0.020554792, 0.019318301, 0.021967791, 0.02318998, 0.03868704, 0.043925192, 0.029089766, 0.03408602, 4.853764, 25800.725, 0.00016046886, -0.00024189183, 25.785877, 0.0033044964, 31421.54, 30477.252, 1300.3726, 1300.3726, 40458.31, 3351.7197, 44895.098, 54021.754, 1567.0133, 63109.695, 0.0033804656, 0.002411247, 0.004575392, 2594.4773, 0.00032903175, 66407.27, 0.007997855, 0.009912997, 0.011644171, 0.013416501, 0.008652843, 0.0069991928, 0.010427493, 0.008724315, 0.0031925587, 0.004674374, 0.0034133673, 0.0012994474, 0.0054356, 0.0063329595, 0.005067024, 0.004150074, -6.545758e-05, 0.00034439063, 0.0011122003, 0.00063999655, -0.0005731714, -8.8547684e-05, 0.00044683798, 0.00014642291, -0.001252414, -0.00078566396, -0.00015276935, -0.0004776578, 0.0008679522, 0.0012461618, 0.0014852056, 0.0019027357, 0.0002056043, 0.0005711764, 0.0012518385, 0.0008240278, -0.000264786, -0.0010609796, -0.0003588972, 7.4891694e-05, 0.0014093841, 0.0018127122, 0.002434171, 0.0019391343, 0.0004310262, 0.00097106106, 0.00017645332, 0.0015048216, -0.006273004, -0.0068997475, -0.0043621594, -0.005406964, -0.00301419, -0.004309444, -0.006123646, -0.0054263547, -0.0063766777, -0.007107828, -0.002714841, -0.0037460509, 7.519865e-05, -0.0020535954, 0.0008064539, 0.0020561095, -0.0009120839, 0.00018784765, -0.004944754, -0.0043161684, -0.0028936737, -0.0038213439, -0.0064993086, -0.0057092626, -0.004847941, -0.0057183034, 0.000493579, -0.00077250117, -0.0037496008, -0.0018158455, 0.0024674041, 0.0011908552, -0.0007042588, 0.00040224873, 0.0028734412, 0.0040443917, 0.005131147, 0.006251953, 0.0020332416, 0.003343988, 0.00072128716, 0.0019362638, -0.0046909293, -0.0031659866, -0.0022344359, -0.0016411812, -0.00058353523, -0.0011560192, 0.0005647193, -0.00011647546, -0.0041781543, -0.0029288395, -0.0010957211, -0.0019606457, -0.0058507607, -0.0035310078, -0.004655528, -0.0054827332, 0.0045280852, 0.0054233507, 0.007416546, 0.0056974655, 0.0038898615, 0.0032814497, 0.0052364706, 0.004622625, 0.007872802, 0.009480219, 0.0069038575, 0.0051654074, 0.010679614, 0.012294404, 0.008237969, 0.009752505, 0.014142509, 0.011627228, 0.016177222, 0.014280944, 0.003921815, 0.00908494, 0.011093894, 0.0131763, 0.019117206, 0.017140549, 0.010746155, 0.014879706, 0.0023271572, 0.00093859335, 0.0043844217, 0.0028075043, 0.006996937, 0.004957187, 0.010392468, 0.008157872, -0.0006400252, 0.0016277109, -0.0037087298, -0.001166233, 0.0033829866, 0.005167608, 0.0008442483, 0.0022739456, 0.0075211395, 0.005496067, 0.007921737, 0.009606318, 0.0047087166, 0.0034280065, 0.005395541, 0.0070676715, 0.008603864, 0.010395287, 0.006825454, 0.008305136, 0.01288307, 0.014223718, 0.011222981, 0.009318543, -0.0066671856, -0.006216858, -0.0070181834, -0.0065716845, -0.0060369307, -0.005499936, -0.0045236223, -0.0050057727, -0.0059407116, -0.006324943, -0.0054832413, -0.005942474, -0.007392269, -0.0071706655, -0.006888406, -0.0066852155, -0.00627204, -0.006533943, -0.007131168, -0.0073597305, -0.0069183824, -0.007107311, -0.0039673196, -0.0034576564, -0.0044082743, -0.003992978, -0.004795572, -0.0044085705, -0.005111787, -0.0048220335, -0.0031654157, -0.0028012749, -0.002407802, -0.0017697625, -0.0034963987, -0.004093577, -0.0027536778, -0.00197321, -0.0053511546, -0.0057756053, -0.004908707, -0.005391959, -0.0063695153, -0.0060166228, -0.0068142884, -0.0064923074, -0.004273278, -0.0048184735, -0.003924426, -0.0032752282, -0.0052883965, -0.005699789, -0.00425872, -0.0048092157, -0.0035390926, -0.0024835153, 0.00026116893, -0.0014731582, -0.0042503267, -0.0035185504, -0.002742241, -0.0021716477, -0.0021967033, -0.0013412383, 0.000775264, -0.000282281, -0.003203489, -0.0023735738, -0.0016475758, -0.0008709734, -0.0037696052, -0.0034646438, -0.0031159695, -0.0026226244, -0.0035965682, -0.003035592, -0.002037262, -0.001271469, -0.0003053377, -0.0008984957, 0.0005992745, 0.0013052459, -0.00015040649, 0.00053735665, 0.0019699074, 0.0026570032, 0.0034604643, 0.004350867, 0.0015014177, 0.0007012722, 0.0026862, 0.0016538366, -0.0013181586, -0.0007155363, 0.000106408275, -0.00041620823, 0.00070437347, 0.0012951036, 0.00019173772, 0.000759389, -0.0017116207, -0.0010909002, -0.00059960585, -0.00013707408, -0.0025523154, -0.0021221628, -0.00085153757, -0.0015923051, 0.00062626397, 0.003240999, 0.012693999, 0.0107947765, 0.015614392, 0.013928641, 0.008231672, 0.009698502, 0.010693478, 0.011833678, 0.01532011, 0.01417515, 0.019444495, 0.017249195, 0.010308052, 0.0120533025, 0.017954567, 0.016688598, 0.01926847, 0.018034227, -0.00040694672, 9.6864074e-05, 0.0022350037, 0.0013630446, 0.00397358, 0.0013761371, 0.0053071403, 0.0032855584, 0.007945633, 0.0059437077, 0.00092058204, 0.001392103, 0.00041292392, 0.00086683774, 0.0019944198, 0.0014300098, 0.0019116204, 0.0029688985, 0.00042308428, -0.00010798188, 0.0013859089, 0.00025835316, -0.001584472, -0.0011653897, -0.00051332504, -0.0009492434, 0.0033989784, 0.004050556, -0.00012993976, -0.00039892943], "split_indices": [1, 6, 7, 6, 6, 1, 1, 7, 6, 6, 6, 6, 8, 6, 8, 6, 6, 1, 1, 1, 1, 1, 1, 10, 1, 6, 8, 6, 7, 1, 1, 6, 1, 1, 1, 6, 6, 6, 1, 6, 1, 6, 7, 6, 1, 6, 7, 6, 1, 7, 6, 1, 1, 1, 1, 7, 1, 6, 6, 6, 7, 8, 1, 1, 1, 6, 7, 6, 0, 0, 1, 6, 1, 1, 1, 1, 1, 6, 6, 1, 1, 6, 7, 1, 1, 0, 1, 0, 0, 6, 0, 0, 0, 1, 0, 7, 1, 7, 1, 7, 7, 1, 7, 7, 6, 6, 6, 8, 6, 6, 1, 6, 6, 1, 1, 1, 1, 1, 1, 6, 9, 1, 1, 6, 1, 6, 6, 1, 1, 6, 1, 1, 1, 1, 1, 1, 1, 6, 0, 1, 1, 6, 6, 6, 2, 6, 2, 0, 0, 6, 6, 1, 1, 0, 0, 0, 0, 0, 0, 0, 1, 0, 0, 0, 0, 0, 0, 0, 0, 0, 0, 0, 0, 7, 1, 6, 1, 6, 1, 6, 1, 1, 6, 1, 7, 6, 6, 1, 6, 7, 1, 6, 1, 1, 1, 1, 1, 1, 1, 1, 6, 6, 1, 6, 1, 1, 1, 1, 1, 0, 6, 6, 6, 1, 0, 6, 0, 0, 0, 2, 1, 1, 1, 0, 6, 6, 1, 9, 1, 0, 0, 6, 7, 6, 6, 1, 1, 10, 6, 6, 6, 1, 1, 6, 6, 0, 7, 0, 6, 6, 7, 0, 0, 0, 0, 0, 6, 0, 0, 0, 0, 0, 0, 0, 0, 0, 0, 6, 1, 0, 6, 1, 1, 0, 0, 0, 0, 0, 0, 6, 0, 6, 0, 0, 0, 0, 4, 6, 1, 6, 1, 7, 6, 1, 1, 6, 1, 6, 6, 6, 1, 7, 6, 1, 1, 7, 6, 1, 1, 6, 6, 1, 1, 6, 6, 1, 1, 7, 1, 6, 6, 0, 1, 6, 6, 1, 1, 6, 6, 6, 1, 6, 6, 6, 6, 6, 6, 0, 6, 1, 1, 6, 1, 6, 7, 6, 1, 6, 8, 6, 6, 6, 6, 6, 1, 6, 1, 6, 1, 0, 0, 0, 0, 6, 0, 0, 0, 10, 0, 9, 0, 6, 1, 0, 0, 2, 7, 1, 6, 6, 9, 1, 1, 0, 1, 6, 6, 1, 1, 0, 0, 0, 0, 6, 1, 6, 1, 6, 1, 6, 1, 7, 1, 0, 0, 0, 6, 0, 6, 6, 1, 7, 0, 0, 0, 0, 0, 6, 1, 0, 2, 0, 0, 0, 0, 0, 0, 0, 0, 0, 0, 0, 0, 0, 0, 0, 0, 1, 0, 1, 1, 6, 1, 1, 1, 6, 6, 6, 1, 6, 1, 1, 6, 1, 6, 6, 6, 6, 6, 6, 6, 1, 1, 6, 1, 6, 1, 6, 1, 1, 1, 6, 1, 7, 6, 1, 1, 6, 6, 1, 6, 0, 0, 1, 1, 1, 1, 6, 6, 6, 6, 1, 6, 1, 6, 6, 6, 6, 1, 0, 0, 6, 6, 6, 1, 1, 1, 6, 0, 6, 1, 1, 1, 6, 6, 6, 6, 6, 6, 1, 7, 1, 1, 6, 6, 1, 6, 1, 1, 6, 1, 6, 7, 6, 1, 6, 7, 0, 0, 6, 0, 6, 6, 6, 1, 6, 6, 6, 6, 1, 1, 6, 1, 6, 6, 6, 6, 7, 1, 0, 0, 6, 0, 1, 1, 6, 6, 0, 1, 0, 0, 0, 1, 0, 6, 1, 1, 0, 0, 0, 0, 0, 0, 0, 0, 0, 1, 0, 0, 0, 0, 1, 1, 6, 6, 1, 10, 1, 1, 6, 1, 0, 0, 0, 7, 0, 1, 0, 0, 0, 0, 0, 0, 0, 0, 0, 0, 0, 0, 0, 0, 0, 0, 0, 0, 0, 0, 0, 0, 0, 0, 0, 0, 0, 0, 0, 0, 0, 0, 0, 0, 0, 0, 0, 0, 0, 0, 0, 0, 0, 0, 0, 0, 0, 0, 0, 0, 0, 0, 0, 0, 0, 0, 0, 0, 0, 0, 0, 0, 0, 0, 0, 0, 0, 0, 0, 0, 0, 0, 0, 0, 0, 0, 0, 0, 0, 0, 0, 0, 0, 0, 0, 0, 0, 0, 0, 0, 0, 0, 0, 0, 0, 0, 0, 0, 0, 0, 0, 0, 0, 0, 0, 0, 0, 0, 0, 0, 0, 0, 0, 0, 0, 0, 0, 0, 0, 0, 0, 0, 0, 0, 0, 0, 0, 0, 0, 0, 0, 0, 0, 0, 0, 0, 0, 0, 0, 0, 0, 0, 0, 0, 0, 0, 0, 0, 0, 0, 0, 0, 0, 0, 0, 0, 0, 0, 0, 0, 0, 0, 0, 0, 0, 0, 0, 0, 0, 0, 0, 0, 0, 0, 0, 0, 0, 0, 0, 0, 0, 0, 0, 0, 0, 0, 0, 0, 0, 0, 0, 0, 0, 0, 0, 0, 0, 0, 0, 0, 0, 0, 0, 0, 0, 0, 0, 0, 0, 0, 0, 0, 0, 0, 0, 0, 0, 0, 0, 0, 0, 0, 0, 0, 0, 0, 0, 0, 0, 0, 0, 0, 0, 0, 0, 0, 0, 0, 0, 0, 0, 0, 0, 0, 0, 0, 0, 0, 0, 0, 0, 0, 0, 0, 0, 0, 0, 0, 0, 0, 0, 0, 0, 0, 0, 0, 0, 0, 0, 0, 0, 0, 0, 0, 0, 0, 0, 0, 0, 0, 0, 0, 0, 0, 0, 0, 0, 0, 0, 0, 0, 0, 0, 0, 0, 0, 0, 0, 0, 0, 0, 0, 0, 0, 0, 0, 0, 0, 0, 0, 0, 0, 0, 0, 0, 0, 0, 0, 0, 0, 0, 0, 0, 0], "split_type": [0, 0, 0, 0, 0, 0, 0, 0, 0, 0, 0, 0, 0, 0, 0, 0, 0, 0, 0, 0, 0, 0, 0, 0, 0, 0, 0, 0, 0, 0, 0, 0, 0, 0, 0, 0, 0, 0, 0, 0, 0, 0, 0, 0, 0, 0, 0, 0, 0, 0, 0, 0, 0, 0, 0, 0, 0, 0, 0, 0, 0, 0, 0, 0, 0, 0, 0, 0, 0, 0, 0, 0, 0, 0, 0, 0, 0, 0, 0, 0, 0, 0, 0, 0, 0, 0, 0, 0, 0, 0, 0, 0, 0, 0, 0, 0, 0, 0, 0, 0, 0, 0, 0, 0, 0, 0, 0, 0, 0, 0, 0, 0, 0, 0, 0, 0, 0, 0, 0, 0, 0, 0, 0, 0, 0, 0, 0, 0, 0, 0, 0, 0, 0, 0, 0, 0, 0, 0, 0, 0, 0, 0, 0, 0, 0, 0, 0, 0, 0, 0, 0, 0, 0, 0, 0, 0, 0, 0, 0, 0, 0, 0, 0, 0, 0, 0, 0, 0, 0, 0, 0, 0, 0, 0, 0, 0, 0, 0, 0, 0, 0, 0, 0, 0, 0, 0, 0, 0, 0, 0, 0, 0, 0, 0, 0, 0, 0, 0, 0, 0, 0, 0, 0, 0, 0, 0, 0, 0, 0, 0, 0, 0, 0, 0, 0, 0, 0, 0, 0, 0, 0, 0, 0, 0, 0, 0, 0, 0, 0, 0, 0, 0, 0, 0, 0, 0, 0, 0, 0, 0, 0, 0, 0, 0, 0, 0, 0, 0, 0, 0, 0, 0, 0, 0, 0, 0, 0, 0, 0, 0, 0, 0, 0, 0, 0, 0, 0, 0, 0, 0, 0, 0, 0, 0, 0, 0, 0, 0, 0, 0, 0, 0, 0, 0, 0, 0, 0, 0, 0, 0, 0, 0, 0, 0, 0, 0, 0, 0, 0, 0, 0, 0, 0, 0, 0, 0, 0, 0, 0, 0, 0, 0, 0, 0, 0, 0, 0, 0, 0, 0, 0, 0, 0, 0, 0, 0, 0, 0, 0, 0, 0, 0, 0, 0, 0, 0, 0, 0, 0, 0, 0, 0, 0, 0, 0, 0, 0, 0, 0, 0, 0, 0, 0, 0, 0, 0, 0, 0, 0, 0, 0, 0, 0, 0, 0, 0, 0, 0, 0, 0, 0, 0, 0, 0, 0, 0, 0, 0, 0, 0, 0, 0, 0, 0, 0, 0, 0, 0, 0, 0, 0, 0, 0, 0, 0, 0, 0, 0, 0, 0, 0, 0, 0, 0, 0, 0, 0, 0, 0, 0, 0, 0, 0, 0, 0, 0, 0, 0, 0, 0, 0, 0, 0, 0, 0, 0, 0, 0, 0, 0, 0, 0, 0, 0, 0, 0, 0, 0, 0, 0, 0, 0, 0, 0, 0, 0, 0, 0, 0, 0, 0, 0, 0, 0, 0, 0, 0, 0, 0, 0, 0, 0, 0, 0, 0, 0, 0, 0, 0, 0, 0, 0, 0, 0, 0, 0, 0, 0, 0, 0, 0, 0, 0, 0, 0, 0, 0, 0, 0, 0, 0, 0, 0, 0, 0, 0, 0, 0, 0, 0, 0, 0, 0, 0, 0, 0, 0, 0, 0, 0, 0, 0, 0, 0, 0, 0, 0, 0, 0, 0, 0, 0, 0, 0, 0, 0, 0, 0, 0, 0, 0, 0, 0, 0, 0, 0, 0, 0, 0, 0, 0, 0, 0, 0, 0, 0, 0, 0, 0, 0, 0, 0, 0, 0, 0, 0, 0, 0, 0, 0, 0, 0, 0, 0, 0, 0, 0, 0, 0, 0, 0, 0, 0, 0, 0, 0, 0, 0, 0, 0, 0, 0, 0, 0, 0, 0, 0, 0, 0, 0, 0, 0, 0, 0, 0, 0, 0, 0, 0, 0, 0, 0, 0, 0, 0, 0, 0, 0, 0, 0, 0, 0, 0, 0, 0, 0, 0, 0, 0, 0, 0, 0, 0, 0, 0, 0, 0, 0, 0, 0, 0, 0, 0, 0, 0, 0, 0, 0, 0, 0, 0, 0, 0, 0, 0, 0, 0, 0, 0, 0, 0, 0, 0, 0, 0, 0, 0, 0, 0, 0, 0, 0, 0, 0, 0, 0, 0, 0, 0, 0, 0, 0, 0, 0, 0, 0, 0, 0, 0, 0, 0, 0, 0, 0, 0, 0, 0, 0, 0, 0, 0, 0, 0, 0, 0, 0, 0, 0, 0, 0, 0, 0, 0, 0, 0, 0, 0, 0, 0, 0, 0, 0, 0, 0, 0, 0, 0, 0, 0, 0, 0, 0, 0, 0, 0, 0, 0, 0, 0, 0, 0, 0, 0, 0, 0, 0, 0, 0, 0, 0, 0, 0, 0, 0, 0, 0, 0, 0, 0, 0, 0, 0, 0, 0, 0, 0, 0, 0, 0, 0, 0, 0, 0, 0, 0, 0, 0, 0, 0, 0, 0, 0, 0, 0, 0, 0, 0, 0, 0, 0, 0, 0, 0, 0, 0, 0, 0, 0, 0, 0, 0, 0, 0, 0, 0, 0, 0, 0, 0, 0, 0, 0, 0, 0, 0, 0, 0, 0, 0, 0, 0, 0, 0, 0, 0, 0, 0, 0, 0, 0, 0, 0, 0, 0, 0, 0, 0, 0, 0, 0, 0, 0, 0, 0, 0, 0, 0, 0, 0, 0, 0, 0, 0, 0, 0, 0, 0, 0, 0, 0, 0, 0, 0, 0, 0, 0, 0, 0, 0, 0, 0, 0, 0, 0, 0, 0, 0, 0, 0, 0, 0, 0, 0, 0, 0, 0, 0, 0, 0, 0, 0, 0, 0, 0, 0, 0, 0, 0, 0, 0, 0, 0, 0, 0, 0, 0, 0, 0, 0, 0, 0, 0, 0, 0, 0, 0, 0, 0, 0, 0, 0, 0, 0, 0, 0, 0, 0, 0, 0, 0, 0, 0, 0, 0, 0, 0, 0, 0, 0, 0, 0], "sum_hessian": [599758.0, 35308.0, 564450.0, 23697.0, 11611.0, 531612.0, 32838.0, 4303.0, 19394.0, 9428.0, 2183.0, 291496.0, 240116.0, 26604.0, 6234.0, 2655.0, 1648.0, 10024.0, 9370.0, 6769.0, 2659.0, 1046.0, 1137.0, 183474.0, 108022.0, 187621.0, 52495.0, 19073.0, 7531.0, 3931.0, 2303.0, 1503.0, 1152.0, 474.0, 1174.0, 3798.0, 6226.0, 3933.0, 5437.0, 3838.0, 2931.0, 2120.0, 539.0, 424.0, 622.0, 657.0, 480.0, 71149.0, 112325.0, 27290.0, 80732.0, 87031.0, 100590.0, 33280.0, 19215.0, 12987.0, 6086.0, 5513.0, 2018.0, 903.0, 3028.0, 821.0, 1482.0, 612.0, 891.0, 644.0, 508.0, 430.0, 44.0, 339.0, 835.0, 1209.0, 2589.0, 2984.0, 3242.0, 1706.0, 2227.0, 4886.0, 551.0, 2258.0, 1580.0, 2328.0, 603.0, 1575.0, 545.0, 276.0, 263.0, 238.0, 186.0, 572.0, 50.0, 318.0, 339.0, 358.0, 122.0, 20788.0, 50361.0, 40360.0, 71965.0, 23585.0, 3705.0, 58031.0, 22701.0, 42691.0, 44340.0, 43610.0, 56980.0, 29439.0, 3841.0, 7650.0, 11565.0, 8705.0, 4282.0, 3926.0, 2160.0, 3328.0, 2185.0, 479.0, 1539.0, 121.0, 782.0, 2709.0, 319.0, 195.0, 626.0, 760.0, 722.0, 195.0, 417.0, 363.0, 528.0, 318.0, 326.0, 423.0, 85.0, 96.0, 334.0, 764.0, 71.0, 479.0, 730.0, 1058.0, 1531.0, 2642.0, 342.0, 2902.0, 340.0, 546.0, 1160.0, 1122.0, 1105.0, 2667.0, 2219.0, 249.0, 302.0, 1030.0, 1228.0, 744.0, 836.0, 966.0, 1362.0, 338.0, 265.0, 842.0, 733.0, 192.0, 353.0, 181.0, 82.0, 271.0, 301.0, 273.0, 85.0, 4508.0, 16280.0, 10501.0, 39860.0, 16754.0, 23606.0, 27308.0, 44657.0, 13210.0, 10375.0, 2301.0, 1404.0, 19127.0, 38904.0, 13728.0, 8973.0, 20433.0, 22258.0, 14176.0, 30164.0, 17172.0, 26438.0, 29583.0, 27397.0, 11901.0, 17538.0, 841.0, 3000.0, 1704.0, 5946.0, 7154.0, 4411.0, 1289.0, 7416.0, 2171.0, 2111.0, 371.0, 3555.0, 1440.0, 720.0, 2910.0, 418.0, 1850.0, 335.0, 455.0, 24.0, 1074.0, 465.0, 61.0, 60.0, 94.0, 688.0, 1356.0, 1353.0, 294.0, 25.0, 91.0, 104.0, 375.0, 251.0, 317.0, 443.0, 234.0, 488.0, 102.0, 93.0, 371.0, 46.0, 162.0, 201.0, 481.0, 47.0, 132.0, 186.0, 169.0, 157.0, 332.0, 91.0, 58.0, 27.0, 24.0, 72.0, 45.0, 289.0, 302.0, 462.0, 229.0, 250.0, 410.0, 320.0, 440.0, 618.0, 591.0, 940.0, 1265.0, 1377.0, 116.0, 226.0, 1100.0, 1802.0, 77.0, 263.0, 707.0, 415.0, 647.0, 458.0, 1806.0, 861.0, 1441.0, 778.0, 828.0, 534.0, 2293.0, 2215.0, 4279.0, 12001.0, 8469.0, 2032.0, 34403.0, 5457.0, 3489.0, 13265.0, 5350.0, 18256.0, 8682.0, 18626.0, 38607.0, 6050.0, 9624.0, 3586.0, 6314.0, 4061.0, 1571.0, 730.0, 983.0, 421.0, 15429.0, 3698.0, 27600.0, 11304.0, 3846.0, 9882.0, 7531.0, 1442.0, 4843.0, 15590.0, 8386.0, 13872.0, 4210.0, 9966.0, 10063.0, 20101.0, 11525.0, 5647.0, 13163.0, 13275.0, 21416.0, 8167.0, 15307.0, 12090.0, 6921.0, 4980.0, 8990.0, 8548.0, 156.0, 685.0, 1586.0, 1414.0, 635.0, 1069.0, 3672.0, 2274.0, 3436.0, 3718.0, 3981.0, 430.0, 1249.0, 40.0, 5607.0, 1809.0, 2092.0, 79.0, 1399.0, 712.0, 2244.0, 1311.0, 570.0, 870.0, 350.0, 370.0, 1814.0, 1096.0, 1347.0, 503.0, 783.0, 291.0, 267.0, 198.0, 51.0, 10.0, 58.0, 2.0, 284.0, 404.0, 766.0, 590.0, 1212.0, 141.0, 84.0, 210.0, 13.0, 12.0, 139.0, 236.0, 102.0, 149.0, 64.0, 253.0, 208.0, 235.0, 177.0, 57.0, 301.0, 187.0, 19.0, 83.0, 57.0, 36.0, 152.0, 219.0, 22.0, 24.0, 61.0, 101.0, 64.0, 137.0, 311.0, 170.0, 14.0, 33.0, 63.0, 123.0, 81.0, 76.0, 187.0, 145.0, 51.0, 40.0, 68.0, 221.0, 657.0, 608.0, 748.0, 629.0, 42.0, 184.0, 596.0, 504.0, 1008.0, 794.0, 1031.0, 775.0, 732.0, 709.0, 1953.0, 262.0, 1845.0, 2434.0, 9638.0, 2363.0, 4368.0, 4101.0, 702.0, 1330.0, 18036.0, 16367.0, 2170.0, 3287.0, 724.0, 2765.0, 4398.0, 8867.0, 2330.0, 3020.0, 7992.0, 10264.0, 2455.0, 6227.0, 10062.0, 8564.0, 18247.0, 20360.0, 3363.0, 2687.0, 3767.0, 5857.0, 2452.0, 1134.0, 1105.0, 5209.0, 382.0, 3679.0, 608.0, 963.0, 306.0, 424.0, 823.0, 160.0, 74.0, 347.0, 9901.0, 5528.0, 2360.0, 1338.0, 18535.0, 9065.0, 3302.0, 8002.0, 2335.0, 1511.0, 4851.0, 5031.0, 2925.0, 4606.0, 632.0, 810.0, 2539.0, 2304.0, 9046.0, 6544.0, 3261.0, 5125.0, 5705.0, 8167.0, 4734.0, 5232.0, 6338.0, 3725.0, 8635.0, 11466.0, 5310.0, 6215.0, 2321.0, 3326.0, 9122.0, 4041.0, 11380.0, 1895.0, 12176.0, 9240.0, 3744.0, 4423.0, 11905.0, 3402.0, 7455.0, 4635.0, 4143.0, 2778.0, 1276.0, 3704.0, 5003.0, 3987.0, 2078.0, 6470.0, 491.0, 194.0, 848.0, 738.0, 1058.0, 356.0, 72.0, 563.0, 736.0, 333.0, 1977.0, 1695.0, 1131.0, 1143.0, 1286.0, 2150.0, 1762.0, 1956.0, 1259.0, 2722.0, 317.0, 113.0, 423.0, 826.0, 16.0, 24.0, 4216.0, 1391.0, 696.0, 1113.0, 858.0, 1234.0, 43.0, 36.0, 589.0, 810.0, 546.0, 166.0, 1019.0, 1225.0, 735.0, 576.0, 930.0, 884.0, 188.0, 595.0, 74.0, 193.0, 2.0, 49.0, 4.0, 6.0, 223.0, 61.0, 348.0, 56.0, 362.0, 404.0, 525.0, 65.0, 713.0, 499.0, 101.0, 40.0, 64.0, 20.0, 63.0, 147.0, 3.0, 9.0, 32.0, 107.0, 141.0, 95.0, 47.0, 55.0, 40.0, 109.0, 20.0, 157.0, 52.0, 5.0, 126.0, 175.0, 145.0, 42.0, 9.0, 10.0, 21.0, 62.0, 7.0, 50.0, 14.0, 22.0, 57.0, 95.0, 107.0, 112.0, 44.0, 57.0, 66.0, 71.0, 112.0, 199.0, 85.0, 85.0, 1.0, 13.0, 23.0, 10.0, 65.0, 122.0, 107.0, 38.0, 31.0, 20.0, 1.0, 39.0, 185.0, 1768.0, 368.0, 1477.0, 524.0, 1910.0, 3979.0, 5659.0, 1494.0, 869.0, 2507.0, 1861.0, 207.0, 3894.0, 472.0, 230.0, 990.0, 340.0, 5450.0, 12586.0, 11395.0, 4972.0, 694.0, 1476.0, 2858.0, 429.0, 416.0, 308.0, 459.0, 2306.0, 1038.0, 3360.0, 4131.0, 4736.0, 812.0, 1518.0, 1686.0, 1334.0, 3665.0, 4327.0, 5230.0, 5034.0, 695.0, 1760.0, 2446.0, 3781.0, 5892.0, 4170.0, 5569.0, 2995.0, 4832.0, 13415.0, 9482.0, 10878.0, 367.0, 2996.0, 1577.0, 1110.0, 3016.0, 751.0, 764.0, 5093.0, 1178.0, 1274.0, 526.0, 608.0, 384.0, 721.0, 4264.0, 945.0, 153.0, 229.0, 2982.0, 697.0, 131.0, 477.0, 159.0, 804.0, 10.0, 296.0, 233.0, 191.0, 151.0, 672.0, 20.0, 140.0, 5588.0, 4313.0, 2195.0, 3333.0, 1320.0, 1040.0, 841.0, 497.0, 10922.0, 7613.0, 4197.0, 4868.0, 1749.0, 1553.0, 2753.0, 5249.0, 671.0, 1664.0, 1098.0, 413.0, 1622.0, 3229.0, 3825.0, 1206.0, 1545.0, 1380.0, 1712.0, 2894.0, 417.0, 215.0, 205.0, 605.0, 3552.0, 5494.0, 3364.0, 3180.0, 1293.0, 1968.0, 2330.0, 2795.0, 1848.0, 3857.0, 2808.0, 5359.0, 2020.0, 2714.0, 3449.0, 2889.0, 1747.0, 1978.0, 5375.0, 3260.0, 5218.0, 6248.0, 3016.0, 2294.0, 2755.0, 3460.0, 1310.0, 1011.0, 1838.0, 1488.0, 4359.0, 4763.0, 3043.0, 998.0, 6418.0, 4962.0, 1233.0, 662.0, 3788.0, 8388.0, 3126.0, 6114.0, 1857.0, 1887.0, 2701.0, 1722.0, 3559.0, 8346.0, 1208.0, 2194.0, 4212.0, 3243.0, 1994.0, 2641.0, 888.0, 3255.0, 358.0, 2420.0, 292.0, 984.0, 2501.0, 1203.0, 2021.0, 2982.0, 1820.0, 2167.0, 945.0, 1133.0, 4415.0, 2055.0, 385.0, 463.0, 673.0, 385.0, 287.0, 69.0, 49.0, 23.0, 434.0, 129.0, 244.0, 492.0, 175.0, 158.0, 1009.0, 968.0, 980.0, 715.0, 429.0, 702.0, 363.0, 780.0, 398.0, 888.0, 1139.0, 1011.0, 1055.0, 707.0, 1368.0, 588.0, 496.0, 763.0, 1400.0, 1322.0, 147.0, 170.0, 42.0, 71.0, 3.0, 13.0, 3262.0, 954.0, 716.0, 675.0, 216.0, 480.0, 610.0, 503.0, 507.0, 727.0, 575.0, 235.0, 97.0, 69.0, 498.0, 521.0, 636.0, 589.0, 1.0, 1.0, 4.0, 45.0, 221.0, 2.0, 266.0, 82.0, 20.0, 36.0, 68.0, 294.0, 183.0, 221.0, 268.0, 257.0, 11.0, 54.0, 352.0, 361.0, 354.0, 145.0, 73.0, 28.0, 29.0, 11.0, 62.0, 85.0, 7.0, 2.0], "tree_param": {"num_deleted": "0", "num_feature": "11", "num_nodes": "931", "size_leaf_vector": "1"}}]}, "name": "gbtree"}, "learner_model_param": {"base_score": "2.906751E-2", "boost_from_average": "1", "num_class": "0", "num_feature": "11", "num_target": "1"}, "objective": {"name": "reg:squarederror", "reg_loss_param": {"scale_pos_weight": "1"}}}, "version": [2, 0, 3]}