{"model_type": "xgboost", "opt_type": 0, "learner": {"attributes": {}, "feature_names": [], "feature_types": [], "gradient_booster": {"model": {"gbtree_model_param": {"num_parallel_tree": "1", "num_trees": "1"}, "iteration_indptr": [0, 1], "tree_info": [0], "trees": [{"base_weights": [1.5854064e-10, -0.002829821, 0.05285487, 0.018856805, -0.009658077, 0.048225682, 0.10842403, 0.0047036572, 0.034680676, -0.01271038, 0.00984262, 0.021996096, 0.05392479, 0.080916144, 0.126504, -0.004516831, 0.010048102, 0.006703172, 0.043348566, -0.015448356, -0.0036661678, 0.0039716396, 0.016208608, 0.0054368433, 0.031096388, 0.04367874, 0.06805926, 0.06283558, 0.090178, 0.093714625, 0.13417424, -0.013075203, -0.0024019827, -0.00048819222, 0.016999125, 0.0035424219, 0.017962223, 0.032635473, 0.06410667, -0.017948955, -0.007666792, -0.006838001, 0.009170052, -0.0026580736, 0.0065400084, 0.00065496925, 0.018513199, 0.003999158, 0.014488478, 0.018872844, 0.03808228, 0.038631994, 0.052969817, 0.07167041, 0.05121453, 0.021592736, 0.01652884, 0.02338393, 0.02827356, 0.0087863915, 0.098182574, 0.14374769, 0.03495973, -0.01629981, -0.009651208, -0.008678649, 0.0005517042, -0.0043034786, 0.0017289402, 0.021542784, 0.0053559314, -0.004191413, 0.0065255747, 0.0114472415, 0.02681432, 0.04134574, 0.020043038, 0.058119092, 0.10874639, -0.015706306, -0.019661281, -0.0030555837, -0.011260213, -0.014771335, -0.0043108347, 0.00605711, 0.021400211, -0.007575974, -0.0018835239, 0.010588124, -0.002701364, -0.0007377527, 0.0017256615, 0.016959064, 0.036718052, -0.0035966751, 0.0044731037, 0.010084674, 0.008478531, 0.0140895555, 0.021106958, 0.034934916, 0.0653827, 0.018314792, 0.041398074, 0.04594627, 0.054893803, 0.06551698, 0.0801133, 0.043021612, 0.07326389, 0.025150536, 0.1131415, 0.039109927, 0.044085138, -0.021147095, -0.015566693, -0.006003663, -0.01592731, -0.014244529, -0.006535365, 0.0035695266, -0.007298243, -0.009855765, -0.0030555674, 0.00034456514, 0.0036982636, 0.00962191, 0.026128024, 0.008559178, 0.0013831304, -0.006537068, -0.0012147019, 0.0035900709, 0.009931807, 0.0036908826, 0.014549357, 0.024122104, 0.036606163, 0.029192083, 0.046202585, 0.016750198, 0.024612848, 0.06561021, 0.03525339, 0.12137781, 0.064604744, -0.01639008, -0.0045250743, -0.022486484, -0.015628943, -0.008480469, 0.0034438248, -0.010280215, -0.016964784, -0.01890336, -0.011834564, -0.006713695, -0.0017933325, 0.002049409, 0.007893809, 0.017172795, 0.028754052, -0.0033318277, -0.008137492, -0.0032683476, 0.00027601095, 0.0091651445, 0.03138802, -0.0016196236, -0.008207021, -0.0018144922, 0.00066135835, -0.003471301, 0.0024749856, 0.0072741327, 0.019261539, 0.04293455, 0.031308513, -0.0006329391, -0.0049038446, 0.0023747531, 0.0056021777, 0.004546361, 0.012080066, 0.0016959031, 0.015035387, 0.019460896, 0.022961775, 0.037019286, 0.017043954, 0.04516767, 0.021402929, 0.0064611016, 0.028487729, 0.0432879, 0.01388677, 0.036500353, 0.04832096, 0.05853468, 0.049518522, 0.06294211, 0.021195773, 0.022562122, 0.08375133, 0.035039395, 0.06180251, 0.065691814, 0.09418563, 0.034682024, 0.02226501, -0.006543756, -0.0055615376, -0.006722622, -0.01586022, -0.010592919, -0.002974242, -0.017447287, -0.012070557, -0.01762712, -0.012853544, -0.009529076, -0.0052473145, -0.0010129448, 0.0065115825, -0.008820274, -0.0047782185, -0.011816519, -0.0076684193, -0.0046511455, -0.0013947804, -0.0008456609, 0.0029421803, 0.002865081, 0.007405361, 0.015751574, 0.0059230346, 0.040840376, 0.022569058, 0.0041118106, 0.011216065, 0.0038995978, -0.0052968604, -0.008046479, -0.0055107633, -0.0017664968, 0.0025742939, 0.002002892, 0.007964498, 0.0077820555, 0.013917942, -0.00030034888, 0.010025796, 0.010440151, 0.017711904, 0.021921685, 0.027722988, 0.032807045, 0.011851082, 0.04371667, 0.024528062, 0.04884692, 0.033075888, 0.014650587, 0.018649364, 0.023226991, 0.027430331, 0.06305433, 0.08265996, 0.026503993, 0.05107097, 0.10380264, 0.13225941, 0.041378528, 0.066562295, -0.022839382, -0.01566815, -0.021439482, -0.0037077107, -0.025589852, -0.022063736, -0.0142026, -0.018714143, -0.0098183695, -0.0033972387, -0.0043830243, 0.006660326, -0.0128084365, -0.0077143046, -0.014449009, -0.020107543, -0.02038851, -0.017622594, -0.013468418, -0.010757081, -0.009697477, -0.005297178, -0.0044814427, -0.00012287083, 0.008627918, 0.0009839853, 0.0047825985, 0.010070737, 0.012395396, 0.021033637, 0.022675212, 0.031397384, -0.00020852406, -0.0034984015, -0.010517993, -0.007294524, -0.0064154966, -0.0025911233, 0.0010023554, -0.0018557055, 0.0022958578, 0.011652024, 0.023042962, 0.035099883, -0.0040850877, 0.0013676274, -0.012389635, -0.0063250535, 0.0015168594, -0.002108851, -0.00038043404, 0.0013005327, 0.0034367167, -0.0038503292, 0.0050168373, 0.0013023551, 0.0016066493, 0.023879481, 0.016721899, 0.02569655, 0.03209166, 0.044448398, 0.016746067, 0.033204187, 0.001243657, -0.0013437433, -0.0015591172, -0.0009135869, 0.0009177462, 0.0038338832, 0.0027121708, 0.0067835394, 0.00063747395, 0.0055014635, -0.0006794218, 0.012636166, -8.93943e-05, 0.0018607397, 0.0060339244, 0.015734786, 0.021313928, 0.018480051, 0.0053955703, 0.024096195, 0.036305424, 0.019943465, 0.0077294842, 0.021749578, 0.016675863, 0.028907493, 0.003139348, 0.015000589, 0.01899214, 0.03337705, 0.038075875, 0.047469206, 0.011036326, 0.019049156, 0.019974444, 0.037144147, 0.045757223, 0.015513132, 0.05420602, 0.0634175, 0.05174435, 0.041630145, 0.060597856, 0.06535012, 0.024565184, 0.02669735, 0.020526025, 0.03898891, 0.07680867, 0.014897952, 0.05090738, 0.019919848, 0.08604206, 0.034243837, -0.011449925, -0.00040721192, -0.01667861, -0.014524443, 0.000102759106, -0.0112883095, 0.00029995677, -0.006821731, -0.016371192, -0.01964869, -0.003430674, -0.0041603823, -0.0057712216, -0.016181441, -0.014309627, -0.01156096, -0.014139513, -0.008623204, -0.0069317743, -0.0038699917, -0.003194307, 0.001325538, 0.008456836, -0.00085709017, -0.007867005, -0.010579122, 0.002198671, -0.006749754, -0.0037531666, -0.003335463, -0.002690887, -0.0064739767, -0.006078853, -0.003987199, 0.00012729375, -0.0024127532, 0.0013477358, -0.002412175, 0.0014592424, 0.0039841994, 0.0055571385, 0.0009132618, 0.005984013, 0.008446513, 0.009051837, 0.036470897, 0.0026064152, 0.0081028715, 0.035988495, 0.04418425, 0.006371684, 0.024786344, 0.005795948, -0.004186881, 0.0101353405, 0.012709555, 0.006010008, 0.0008315416, -0.006319488, -0.0037059174, -0.009490703, -0.0075610466, -0.0060413587, -0.0042409045, -0.0025073846, -0.0006998666, 0.0020915123, 0.0032305492, 0.002909752, 0.0009151263, 0.009613065, 0.0058563105, 0.0068463353, 0.011435255, 0.012031895, 0.017805286, -0.002027964, 0.001098044, 0.00850127, 0.0051855706, 0.005600826, 0.012084035, 0.016916307, 0.02967527, 0.026191259, 0.019325329, 0.026638327, 0.030905832, 0.033966165, 0.0074360594, 0.02111526, 0.045380544, 0.020710977, 0.04073773, 0.0427344, 0.054890037, 0.01696426, 0.03706614, 0.015199284, 0.0082840165, 0.018956989, 0.012057077, 0.0058349986, 0.023497703, 0.0066297255, 0.027730016, 0.06612706, 0.04848386, 0.089278705, 0.06937486, 0.014269038, 0.029527502, 0.045341246, 0.057560414, 0.10948703, 0.08355688, 0.13769561, 0.11616542, 0.0073893345, 0.014000704, 0.0673337, 0.0075159543, -0.007883667, -0.021747641, -0.018942045, -0.014861166, -0.007263038, -0.014522679, -0.0017733125, -0.009026372, -0.026118448, -0.024444642, -0.021612417, -0.02396342, -0.01740994, -0.011742685, -0.017666375, -0.02189944, -0.0117016835, -0.0080488855, -0.006638473, 0.008301462, -0.0073952004, -0.0009999105, 0.0052256775, 0.017253026, -0.01498395, -0.011673467, -0.008577086, -0.0010990696, -0.0153244175, -0.010620731, -0.00654308, -0.018887304, -0.022244407, -0.01966696, -0.018884385, -0.016899863, -0.014060277, -0.010071565, -0.013819248, -0.00958777, -0.0057066516, -0.010297482, -0.0059470297, -0.0004313539, -0.00093591644, -0.0053534317, -0.00071250263, 0.0074099475, 0.0053312294, 0.013216787, -0.0017623663, 0.0028831288, 0.0056635896, 0.0008057324, 0.009604061, 0.01955457, 0.005855312, 0.011360208, 0.019862674, 0.032872584, 0.020400828, 0.02744643, 0.02582228, 0.033499967, -0.0013354191, 0.0006344322, -0.004268894, -0.0030954904, -0.011187827, -0.0027666797, -0.0083083995, -0.0065101916, -0.007392699, -0.0051118997, -0.0037768998, -0.001792626, -0.0004008799, 0.003875172, -0.003391485, -0.0011792134, -0.0009814035, 0.01485647, 0.010040757, 0.019326799, 0.0019900554, 0.025340762, 0.0306716, 0.011915626, -0.004907117, -0.001143705, -0.00015729177, 0.0030807348, -0.010564248, -0.004848358, -0.005933105, -0.0035673666, -0.00042252982, 0.0010903664, -0.0025953462, -0.0011715109, -0.0012162206, 9.444784e-05, 0.0009175041, 0.0017051385, 0.00025514484, 0.0015810245, -0.005586796, -0.0023329796, 0.0018630141, 0.006506766, 0.00037402316, 0.003149074, 0.007601426, 0.001127022, 0.007119932, 0.025728857, 0.017514227, 0.00499935, 0.020210925, 0.030945323, 0.0006918873, 0.009701102, 0.04187084, 0.0141993705, 0.011910072, 0.009503147, 0.031819426, 0.040815525, -0.00011375581, -0.0021053758, 0.0003285834, 0.001419142, 0.0022608477, 0.0012625046, 0.00038387635, 0.005503053, 0.0048345937, 0.009981661, -0.0010663079, 0.0015058585, 0.00056497456, 0.0016730583, -0.00039892943, 5.921852e-05, 0.0025168397, 0.0038811471, -0.00010870826, 0.0019641581, 0.0029077407, 0.002618734, 0.016055832, 0.0030059959, 0.018167349, 0.007355177, 0.005003347, 0.006289707, 0.026876105, 0.02224788, 0.038441, 0.02666297, 0.005501912, 0.003806755, 0.005454564, 0.006911876, 0.0045983414, 0.014045854, 0.002760256, 0.009578302, 0.009927897, 0.011934298, 0.016586939, 0.009307859, 0.033548094, 0.00039813053, 0.033474173, 0.04022035, 0.0480633, 0.009410158, 0.007206974, 0.012503433, 0.0048448923, 0.02233149, 0.002163476, 0.0066791135, 0.043990213, 0.034038078, 0.012462445, 0.0140961185, 0.014723301, 0.055643033, 0.018223438, 0.019925846, 0.05109753, 0.019812949, 0.035536997, 0.012984267, 0.016913472, 0.061566345, 0.017991124, 0.01982322, 0.017063132, 0.019444305, 0.036449946, 0.061064973, 0.020042276, 0.0258351, 0.017721003, 0.004381652, 0.028768046, 0.041308947, -0.0006422163, -0.004037752, 1.7475033e-05, -0.0023651188, -0.00530669, -0.0047193407, -0.0046208245, -0.00404262, -0.00035115547, 0.00051720475, -0.0038002103, -0.0028157157, 0.00064048835, -0.00020893593, -0.00286329, -0.0017301326, -0.005043898, -0.004112228, -0.006017856, -0.0037040699, -0.0052621234, -0.004538868, -0.0044864453, -0.0039570797, -0.0037999705, -0.0027889563, -0.004778388, -0.0036926437, -0.0024139513, -0.0031585954, -0.0026590633, -0.001850972, -0.0006756916, -0.0015758995, 0.000923139, -0.0011997633, -0.00019162106, 0.00092785904, 0.0012344361, 0.004104916, -0.0012097382, 0.00036441005, -0.0028080833, -0.0019922508, -0.0036018277, -0.0023007065, 0.00017609938, 0.00096448197, -0.0012683038, -0.0027037153, -0.0021399572, -0.0017277481, -0.0020516668, -0.0014312826, -0.0013656043, -0.0008438195, -0.00021295917, 0.00057039195, -0.0012165193, -0.00029158057, -0.00020089926, 0.0010953579, -0.0009262589, -0.0002373023, 0.0007920779, 0.00015328203, 0.00082776876, 0.0014496659, 0.0009703643, 0.0023584468, 6.189419e-05, 0.0007816019, 0.0014573175, 0.0020751208, 0.0022066645, 0.0028937734, 0.0021784625, 0.0036378289, 0.009379499, 0.011817598, -3.0380577e-05, 0.001114799, 0.0018875478, 0.0031899377, 0.009967971, 0.011579289, 0.012009872, 0.013815216, 0.0013278539, 0.0026455754, 0.010698351, 0.0059862114, 0.0011638849, 0.0019988278, -0.0021528623, -6.492807e-05, 0.002570923, 0.0031598385, 0.0029040212, 0.0039443877, 0.0011296647, 0.0025073737, -2.239931e-05, 0.0034013223, -0.0022917115, -0.0016616109, -0.0013258917, -0.00076890504, -0.0030588282, -0.0026072545, -0.0023306697, -0.0020045892, -0.0018843045, -0.0016066693, -0.00076564896, -0.0013478003, -0.0011225415, -0.0006565286, -0.0004978332, -7.030951e-05, 0.00069073564, 0.0001806193, 0.00044653492, 0.0010495041, 0.0004354558, 0.0014776993, -0.0003459467, 0.00069760374, 0.0024740426, 0.003436496, 0.0012701851, 0.0025004146, 0.0029379919, 0.0012568132, 0.0029143204, 0.0037146795, 0.0043798382, 0.0029938137, 0.0047830204, 0.006813254, -0.0009180555, -0.00054020254, 0.00013755284, 0.0010358578, 0.00235066, 0.0032992223, 0.0007737716, 0.0017378241, 0.0030504125, 0.004415382, 0.003925453, 0.0055901553, 0.0014839526, 0.009031596, 0.006716748, 0.008715694, 0.005014062, 0.006601836, 0.009089672, 0.0074101994, 0.007779287, 0.009890734, 0.007151135, 0.010407008, 0.012412648, 0.0055355867, 0.014425469, 0.01113094, 0.013745006, 0.005515434, 0.0074655535, 0.013544829, 0.008826118, 0.013505812, 0.017492896, 0.014847049, 0.0042194203, 0.0055880854, 0.0069148345, 0.012197967, 0.0038215225, 0.0047859675, 0.004059038, 0.0014455994, 0.0048358254, 0.0059045074, 0.0046882965, 0.00050677644, 0.0070633637, 0.001477929, 0.007956658, 0.008620133, 0.01737038, 0.021647992, 0.01037679, 0.017951397, 0.018974956, 0.029458351, 0.018474106, 0.027399119, 0.0055076056, 0.0016766966, 0.009419357, 0.006152916, 0.013996894, 0.009361431, 0.016875168, 0.018743563, 0.028621422, 0.034518056, 0.018996136, 0.027448354, 0.038203113, 0.043419704, 0.030640623, 0.037095886, 0.019341415, 0.02174753, -0.00678364, -0.005908291, -0.0072526154, -0.005379412, -0.0039104964, -0.0051042186, -0.0048735, -0.0038470945, -0.0010365717, 0.0013225033, -0.0027991007, 0.0023501492, -0.007898354, -0.007535418, -0.0071148765, -0.0077209515, -0.006714165, -0.005460792, -0.0074442155, -0.007029032, -0.0055545275, -0.004655857, -0.0036552574, 0.00064267736, -0.00562857, -0.004922806, -0.006381926, -0.006798242, -0.0037922156, -0.0030354634, -0.0029159603, -0.0021032556, -0.0009655238, -0.003257491, 0.0010978788, 0.0048355474, -0.0032553833, -0.0019673617, -0.001121396, 0.00032316454, 0.0010486306, 0.0025412834, 0.004362526, 0.007331337, -0.005151151, -0.0043279463, -0.0037318529, -0.00326964, -0.002781589, -0.0020093091, -0.0010574947, 0.0003155288, -0.0049330737, -0.0043799677, -0.003377725, -0.002687143, -0.005798472, -0.004976604, -0.007222284, -0.006419411, -0.005992191, -0.005081377, -0.0057986695, -0.0051541342, -0.0051297033, -0.0041177673, -0.0038743888, -0.0044642924, -0.0037513117, -0.0025228001, -0.0029402606, -0.004274114, -0.0025639934, -0.0033131493, -0.0022848996, -0.0013972562, -0.0035230082, -0.0028005973, -0.0011451659, -0.00273352, -0.00046806142, 0.001025458, -0.00073907844, 0.00032141892, -0.0021098154, -0.0010867818, 0.00037871546, -0.0012945024, 0.0015454228, 0.0028450792, 0.001312196, 0.002203023, 0.0031307654, 0.0041369665, -0.00094348035, -0.00012613325, 0.0005567908, 0.0013226961, 0.0019037777, 0.0012047014, -0.00010051637, 0.0037926605, 0.0031248864, 0.0014461995, 0.005128611, 0.0074243066, 0.0026968792, 0.003994053, 0.0069459, 0.004278046, 0.01019782, 0.0059408466, 0.008015988, 0.0058105434, 0.0095948875, 0.0076917396, 0.007986825, 0.0052947607, 0.009815235, 0.011738912, -0.00047022264, -2.6320575e-05, -0.0016276219, -0.001121382, -0.00095306797, -0.00017143828, -0.002897331, -0.0035287228, -0.0021116484, -0.0026811059, -0.0017862419, -0.002475243, -0.0026736173, -0.0020935538, -0.0019231724, -0.0013873747, -0.0013843845, -0.0009647262, -0.00020516806, -0.0010151975, -0.00038399137, 0.00019542858, 0.0008988712, 0.0015586287, -0.0014080389, -0.0005884985, -0.00046087062, -2.7971988e-05, 0.0033254412, -0.0006398764, 0.0012981863, 0.0049845986, 0.0018390544, 0.0038482244, 0.004027109, 0.0061281123, 0.00033328135, 0.0013135955, 0.0069276635, 0.0080608055, 0.00855339, 0.00968688, -0.0017775199, -0.001215897, -0.0014169512, -0.00027279372, -0.00031330812, 0.00094787515, 0.0011790136, -8.610025e-05, -0.0035636707, -0.0028267435, -0.0010188553, -0.0019578615, -0.00030269928, -2.7146514e-05, -0.0003387359, -0.000890601, -0.00046411832, -7.5736905e-05, -0.00067495956, -0.00028361112, 0.00012433414, -0.00018231302, 0.00030751585, 3.2034684e-05, 0.00054261676, 0.0002854276, -0.0017716582, -0.0014196505, -0.00092667626, -0.0002789943, -0.00015034428, 0.0008340711, 0.0016441706, 0.002277724, -4.531795e-05, 0.0007094084, 0.000805938, 0.0011272774, 0.006848451, 0.000235818, 6.847838e-05, 0.0068162484, 0.007877849, -0.00041989176, 0.0041493736, 0.0059844046, -0.00048083972, 0.0018488559, 0.003813817, 0.00872622, 0.009718522, 0.0024551528, 0.011229414, 0.013054911, 0.0019632198, 0.0051751407, 0.009599368, 0.0061860573, 0.009946379, 0.013026358, 0.00041043985, -0.00017852374, -0.0009013725, -0.0002491814, 0.00020928422, -0.00019628178, 0.0004733511, 8.205545e-05, 0.0003129538, 0.0007490817, 0.0006002807, -0.00014570987, 0.0011927836, 0.0022311867, 0.0016465357, 0.0010329753, 0.0026631344, 0.010012284, -5.1193874e-05, -0.00041713304, -0.00016764966, 0.0006543447, 0.00047453702, 0.0008734077, 0.00014999296, 0.0012569504, 0.0041900543, 0.0052184993, 0.0055826367, 0.003347282, 0.006575567, 0.008797999, 0.0061508226, 0.0076463646, 0.0109353755, 0.01288386, 0.012912597, 0.007023464, 0.0004889339, 0.0019827117, 0.00040720575, 0.001081483, 0.0015669488, 0.0033559753, 0.0021906334, 0.005217032, 0.00065519795, 0.005409582, 0.009442479, 0.010594127, 0.008928733, 0.010498177, 0.012101882, 0.0068212254, 0.012692586, 0.014756293, 0.00239776, 1.3409145e-05, 0.0037652617, 0.00024600886, 0.0072749117, 0.005676833, 0.0023508114, 0.013536393, 0.0134322, 0.009509012, 0.01673187, 0.01094244, 0.014553764, 0.016357627, 0.010809015, 0.0052594, 0.018852474, 0.017660402, 0.004691583, 0.00643165, 0.009159274, 0.012727079, 0.018611107, 0.008855066, 0.005669132, 0.018486334], "categories": [], "categories_nodes": [], "categories_segments": [], "categories_sizes": [], "default_left": [0, 0, 0, 0, 0, 0, 0, 0, 0, 0, 0, 0, 0, 0, 0, 0, 0, 0, 0, 0, 0, 0, 0, 0, 0, 0, 0, 0, 0, 0, 0, 0, 0, 0, 0, 0, 0, 0, 0, 0, 0, 0, 0, 0, 0, 0, 0, 0, 0, 0, 0, 0, 0, 0, 0, 0, 0, 0, 0, 0, 0, 0, 0, 0, 0, 0, 0, 0, 0, 0, 0, 0, 0, 0, 0, 0, 0, 0, 0, 0, 0, 0, 0, 0, 0, 0, 0, 0, 0, 0, 0, 0, 0, 0, 0, 0, 0, 0, 0, 0, 0, 0, 0, 0, 0, 0, 0, 0, 0, 0, 0, 0, 0, 0, 0, 0, 0, 0, 0, 0, 0, 0, 0, 0, 0, 0, 0, 0, 0, 0, 0, 0, 0, 0, 0, 0, 0, 0, 0, 0, 0, 0, 0, 0, 0, 0, 0, 0, 0, 0, 0, 0, 0, 0, 0, 0, 0, 0, 0, 0, 0, 0, 0, 0, 0, 0, 0, 0, 0, 0, 0, 0, 0, 0, 0, 0, 0, 0, 0, 0, 0, 0, 0, 0, 0, 0, 0, 0, 0, 0, 0, 0, 0, 0, 0, 0, 0, 0, 0, 0, 0, 0, 0, 0, 0, 0, 0, 0, 0, 0, 0, 0, 0, 0, 0, 0, 0, 0, 0, 0, 0, 0, 0, 0, 0, 0, 0, 0, 0, 0, 0, 0, 0, 0, 0, 0, 0, 0, 0, 0, 0, 0, 0, 0, 0, 0, 0, 0, 0, 0, 0, 0, 0, 0, 0, 0, 0, 0, 0, 0, 0, 0, 0, 0, 0, 0, 0, 0, 0, 0, 0, 0, 0, 0, 0, 0, 0, 0, 0, 0, 0, 0, 0, 0, 0, 0, 0, 0, 0, 0, 0, 0, 0, 0, 0, 0, 0, 0, 0, 0, 0, 0, 0, 0, 0, 0, 0, 0, 0, 0, 0, 0, 0, 0, 0, 0, 0, 0, 0, 0, 0, 0, 0, 0, 0, 0, 0, 0, 0, 0, 0, 0, 0, 0, 0, 0, 0, 0, 0, 0, 0, 0, 0, 0, 0, 0, 0, 0, 0, 0, 0, 0, 0, 0, 0, 0, 0, 0, 0, 0, 0, 0, 0, 0, 0, 0, 0, 0, 0, 0, 0, 0, 0, 0, 0, 0, 0, 0, 0, 0, 0, 0, 0, 0, 0, 0, 0, 0, 0, 0, 0, 0, 0, 0, 0, 0, 0, 0, 0, 0, 0, 0, 0, 0, 0, 0, 0, 0, 0, 0, 0, 0, 0, 0, 0, 0, 0, 0, 0, 0, 0, 0, 0, 0, 0, 0, 0, 0, 0, 0, 0, 0, 0, 0, 0, 0, 0, 0, 0, 0, 0, 0, 0, 0, 0, 0, 0, 0, 0, 0, 0, 0, 0, 0, 0, 0, 0, 0, 0, 0, 0, 0, 0, 0, 0, 0, 0, 0, 0, 0, 0, 0, 0, 0, 0, 0, 0, 0, 0, 0, 0, 0, 0, 0, 0, 0, 0, 0, 0, 0, 0, 0, 0, 0, 0, 0, 0, 0, 0, 0, 0, 0, 0, 0, 0, 0, 0, 0, 0, 0, 0, 0, 0, 0, 0, 0, 0, 0, 0, 0, 0, 0, 0, 0, 0, 0, 0, 0, 0, 0, 0, 0, 0, 0, 0, 0, 0, 0, 0, 0, 0, 0, 0, 0, 0, 0, 0, 0, 0, 0, 0, 0, 0, 0, 0, 0, 0, 0, 0, 0, 0, 0, 0, 0, 0, 0, 0, 0, 0, 0, 0, 0, 0, 0, 0, 0, 0, 0, 0, 0, 0, 0, 0, 0, 0, 0, 0, 0, 0, 0, 0, 0, 0, 0, 0, 0, 0, 0, 0, 0, 0, 0, 0, 0, 0, 0, 0, 0, 0, 0, 0, 0, 0, 0, 0, 0, 0, 0, 0, 0, 0, 0, 0, 0, 0, 0, 0, 0, 0, 0, 0, 0, 0, 0, 0, 0, 0, 0, 0, 0, 0, 0, 0, 0, 0, 0, 0, 0, 0, 0, 0, 0, 0, 0, 0, 0, 0, 0, 0, 0, 0, 0, 0, 0, 0, 0, 0, 0, 0, 0, 0, 0, 0, 0, 0, 0, 0, 0, 0, 0, 0, 0, 0, 0, 0, 0, 0, 0, 0, 0, 0, 0, 0, 0, 0, 0, 0, 0, 0, 0, 0, 0, 0, 0, 0, 0, 0, 0, 0, 0, 0, 0, 0, 0, 0, 0, 0, 0, 0, 0, 0, 0, 0, 0, 0, 0, 0, 0, 0, 0, 0, 0, 0, 0, 0, 0, 0, 0, 0, 0, 0, 0, 0, 0, 0, 0, 0, 0, 0, 0, 0, 0, 0, 0, 0, 0, 0, 0, 0, 0, 0, 0, 0, 0, 0, 0, 0, 0, 0, 0, 0, 0, 0, 0, 0, 0, 0, 0, 0, 0, 0, 0, 0, 0, 0, 0, 0, 0, 0, 0, 0, 0, 0, 0, 0, 0, 0, 0, 0, 0, 0, 0, 0, 0, 0, 0, 0, 0, 0, 0, 0, 0, 0, 0, 0, 0, 0, 0, 0, 0, 0, 0, 0, 0, 0, 0, 0, 0, 0, 0, 0, 0, 0, 0, 0, 0, 0, 0, 0, 0, 0, 0, 0, 0, 0, 0, 0, 0, 0, 0, 0, 0, 0, 0, 0, 0, 0, 0, 0, 0, 0, 0, 0, 0, 0, 0, 0, 0, 0, 0, 0, 0, 0, 0, 0, 0, 0, 0, 0, 0, 0, 0, 0, 0, 0, 0, 0, 0, 0, 0, 0, 0, 0, 0, 0, 0, 0, 0, 0, 0, 0, 0, 0, 0, 0, 0, 0, 0, 0, 0, 0, 0, 0, 0, 0, 0, 0, 0, 0, 0, 0, 0, 0, 0, 0, 0, 0, 0, 0, 0, 0, 0, 0, 0, 0, 0, 0, 0, 0, 0, 0, 0, 0, 0, 0, 0, 0, 0, 0, 0, 0, 0, 0, 0, 0, 0, 0, 0, 0, 0, 0, 0, 0, 0, 0, 0, 0, 0, 0, 0, 0, 0, 0, 0, 0, 0, 0, 0, 0, 0, 0, 0, 0, 0, 0, 0, 0, 0, 0, 0, 0, 0, 0, 0, 0, 0, 0, 0, 0, 0, 0, 0, 0, 0, 0, 0, 0, 0, 0, 0, 0, 0, 0, 0, 0, 0, 0, 0, 0, 0, 0, 0, 0, 0, 0, 0, 0, 0, 0, 0, 0, 0, 0, 0, 0, 0, 0, 0, 0, 0, 0, 0, 0, 0, 0, 0, 0, 0, 0, 0, 0, 0, 0, 0, 0, 0, 0, 0, 0, 0, 0, 0, 0, 0, 0, 0, 0, 0, 0, 0, 0, 0, 0, 0, 0, 0, 0, 0, 0, 0, 0, 0, 0, 0, 0, 0, 0, 0, 0, 0, 0, 0, 0, 0, 0, 0, 0, 0, 0, 0, 0, 0, 0, 0, 0, 0, 0, 0, 0, 0, 0, 0, 0, 0, 0, 0, 0, 0, 0, 0, 0, 0, 0, 0, 0, 0, 0, 0, 0, 0, 0, 0, 0, 0, 0, 0, 0, 0, 0, 0, 0, 0, 0, 0, 0, 0, 0, 0, 0, 0, 0, 0, 0, 0, 0, 0, 0, 0, 0, 0, 0, 0, 0, 0, 0, 0, 0, 0, 0, 0, 0, 0, 0, 0, 0, 0, 0, 0, 0, 0, 0, 0, 0, 0, 0, 0, 0, 0, 0, 0, 0, 0, 0, 0, 0, 0, 0, 0, 0, 0, 0, 0, 0, 0, 0, 0, 0, 0, 0, 0, 0, 0, 0, 0, 0, 0, 0, 0, 0, 0, 0, 0, 0, 0, 0, 0, 0, 0, 0, 0, 0, 0, 0, 0, 0, 0, 0, 0, 0, 0, 0, 0, 0, 0, 0, 0, 0], "id": 0, "left_children": [1, 3, 5, 7, 9, 11, 13, 15, 17, 19, 21, 23, 25, 27, 29, 31, 33, 35, 37, 39, 41, 43, 45, 47, 49, 51, 53, 55, 57, 59, 61, 63, 65, 67, 69, 71, 73, 75, 77, 79, 81, 83, 85, 87, 89, 91, 93, 95, 97, 99, 101, 103, 105, 107, 109, -1, -1, -1, -1, -1, 111, 113, -1, 115, 117, 119, 121, 123, 125, 127, 129, 131, 133, 135, 137, 139, 141, 143, 145, 147, 149, 151, 153, 155, 157, 159, 161, 163, 165, 167, 169, 171, 173, 175, 177, 179, 181, -1, 183, 185, 187, 189, 191, 193, 195, 197, 199, 201, 203, 205, 207, -1, 209, -1, -1, 211, 213, 215, 217, 219, 221, 223, 225, 227, 229, 231, 233, 235, 237, 239, 241, 243, 245, 247, 249, 251, 253, 255, 257, 259, 261, 263, 265, 267, 269, 271, 273, 275, 277, 279, 281, 283, 285, 287, 289, 291, 293, 295, 297, 299, 301, 303, 305, 307, 309, 311, 313, 315, 317, 319, 321, 323, 325, 327, 329, 331, 333, 335, 337, 339, 341, 343, 345, 347, 349, 351, 353, 355, 357, 359, 361, 363, -1, 365, 367, 369, 371, 373, 375, 377, 379, 381, -1, -1, 383, 385, 387, 389, 391, -1, -1, -1, -1, 393, 395, 397, 399, 401, 403, 405, 407, 409, 411, 413, 415, 417, 419, 421, 423, 425, 427, 429, 431, 433, 435, 437, 439, 441, 443, 445, 447, 449, 451, 453, 455, 457, 459, 461, 463, 465, 467, 469, 471, 473, 475, 477, 479, 481, -1, 483, 485, 487, 489, 491, 493, 495, 497, 499, 501, 503, 505, 507, 509, 511, 513, 515, 517, 519, 521, 523, 525, 527, 529, 531, 533, 535, 537, 539, 541, 543, 545, 547, 549, 551, 553, 555, 557, 559, 561, 563, 565, 567, 569, 571, 573, 575, 577, 579, 581, 583, 585, 587, 589, 591, 593, 595, 597, 599, 601, 603, 605, 607, 609, 611, 613, 615, 617, 619, 621, 623, 625, 627, 629, 631, 633, 635, 637, 639, 641, -1, 643, -1, -1, 645, 647, 649, 651, 653, 655, 657, 659, -1, 661, 663, 665, 667, 669, -1, 671, 673, -1, 675, 677, -1, 679, 681, 683, 685, 687, 689, 691, 693, 695, 697, 699, 701, -1, 703, 705, 707, 709, 711, 713, -1, -1, 715, 717, 719, -1, 721, -1, 723, -1, 725, 727, 729, 731, 733, 735, 737, 739, 741, 743, -1, -1, -1, 745, 747, 749, 751, 753, 755, 757, 759, 761, 763, 765, 767, 769, 771, 773, -1, -1, -1, 775, 777, 779, 781, 783, 785, 787, 789, 791, 793, 795, 797, 799, 801, 803, 805, 807, 809, 811, 813, 815, 817, 819, 821, 823, 825, 827, 829, 831, 833, 835, 837, 839, 841, 843, 845, 847, 849, 851, 853, 855, 857, 859, 861, 863, 865, 867, 869, -1, 871, 873, 875, 877, 879, 881, 883, 885, 887, -1, 889, 891, 893, 895, 897, 899, 901, 903, 905, 907, 909, 911, -1, 913, -1, 915, 917, 919, 921, 923, 925, 927, 929, 931, 933, 935, 937, 939, -1, -1, 941, -1, -1, 943, 945, 947, -1, 949, 951, 953, 955, 957, 959, 961, 963, 965, 967, 969, 971, 973, 975, 977, 979, 981, 983, 985, 987, 989, 991, 993, 995, 997, -1, 999, 1001, 1003, 1005, 1007, 1009, 1011, 1013, 1015, 1017, 1019, 1021, 1023, 1025, 1027, 1029, 1031, 1033, 1035, 1037, 1039, 1041, 1043, 1045, 1047, -1, 1049, 1051, 1053, 1055, 1057, 1059, 1061, 1063, -1, 1065, 1067, 1069, -1, 1071, 1073, 1075, 1077, 1079, 1081, 1083, 1085, 1087, 1089, 1091, 1093, 1095, 1097, 1099, 1101, 1103, -1, 1105, 1107, 1109, 1111, 1113, -1, 1115, -1, 1117, -1, 1119, 1121, 1123, 1125, 1127, 1129, -1, -1, 1131, 1133, 1135, 1137, 1139, 1141, -1, 1143, 1145, 1147, 1149, 1151, 1153, 1155, -1, -1, 1157, -1, 1159, -1, 1161, 1163, 1165, 1167, 1169, 1171, 1173, -1, 1175, 1177, 1179, 1181, 1183, 1185, -1, -1, -1, -1, -1, -1, -1, 1187, 1189, -1, 1191, -1, 1193, -1, -1, -1, 1195, 1197, 1199, 1201, 1203, -1, -1, -1, -1, -1, 1205, 1207, -1, 1209, 1211, -1, 1213, -1, 1215, 1217, 1219, -1, 1221, 1223, -1, 1225, -1, -1, 1227, 1229, -1, -1, -1, 1231, -1, -1, 1233, -1, 1235, -1, -1, 1237, -1, -1, -1, 1239, 1241, 1243, -1, -1, -1, -1, -1, 1245, -1, -1, -1, -1, -1, -1, -1, -1, -1, -1, -1, -1, -1, -1, -1, -1, -1, -1, -1, -1, -1, -1, -1, -1, -1, -1, -1, -1, -1, -1, -1, -1, -1, -1, -1, -1, -1, -1, -1, -1, -1, -1, -1, -1, -1, -1, -1, -1, -1, -1, -1, -1, -1, -1, -1, -1, -1, -1, -1, -1, -1, -1, -1, -1, -1, -1, -1, -1, -1, -1, -1, -1, -1, -1, -1, -1, -1, -1, -1, -1, -1, -1, -1, -1, -1, -1, -1, -1, -1, -1, -1, -1, -1, -1, -1, -1, -1, -1, -1, -1, -1, -1, -1, -1, -1, -1, -1, -1, -1, -1, -1, -1, -1, -1, -1, -1, -1, -1, -1, -1, -1, -1, -1, -1, -1, -1, -1, -1, -1, -1, -1, -1, -1, -1, -1, -1, -1, -1, -1, -1, -1, -1, -1, -1, -1, -1, -1, -1, -1, -1, -1, -1, -1, -1, -1, -1, -1, -1, -1, -1, -1, -1, -1, -1, -1, -1, -1, -1, -1, -1, -1, -1, -1, -1, -1, -1, -1, -1, -1, -1, -1, -1, -1, -1, -1, -1, -1, -1, -1, -1, -1, -1, -1, -1, -1, -1, -1, -1, -1, -1, -1, -1, -1, -1, -1, -1, -1, -1, -1, -1, -1, -1, -1, -1, -1, -1, -1, -1, -1, -1, -1, -1, -1, -1, -1, -1, -1, -1, -1, -1, -1, -1, -1, -1, -1, -1, -1, -1, -1, -1, -1, -1, -1, -1, -1, -1, -1, -1, -1, -1, -1, -1, -1, -1, -1, -1, -1, -1, -1, -1, -1, -1, -1, -1, -1, -1, -1, -1, -1, -1, -1, -1, -1, -1, -1, -1, -1, -1, -1, -1, -1, -1, -1, -1, -1, -1, -1, -1, -1, -1, -1, -1, -1, -1, -1, -1, -1, -1, -1, -1, -1, -1, -1, -1, -1, -1, -1, -1, -1, -1, -1, -1, -1, -1, -1, -1, -1, -1, -1, -1, -1, -1, -1, -1, -1, -1, -1, -1, -1, -1, -1, -1, -1, -1, -1, -1, -1, -1, -1, -1, -1, -1, -1, -1, -1, -1, -1, -1, -1, -1, -1, -1, -1, -1, -1, -1, -1, -1, -1, -1, -1, -1, -1, -1, -1, -1, -1, -1, -1, -1, -1, -1, -1, -1, -1, -1, -1, -1, -1, -1, -1, -1, -1, -1, -1, -1, -1, -1, -1, -1, -1, -1, -1, -1, -1, -1, -1, -1, -1, -1, -1, -1, -1, -1, -1, -1, -1, -1, -1, -1, -1, -1, -1, -1, -1, -1, -1, -1, -1, -1, -1, -1, -1, -1, -1, -1, -1, -1, -1, -1, -1, -1, -1, -1, -1, -1, -1, -1, -1, -1, -1, -1, -1, -1, -1, -1, -1, -1, -1, -1, -1, -1, -1, -1, -1, -1, -1, -1, -1, -1, -1, -1, -1, -1, -1, -1, -1, -1, -1, -1, -1, -1, -1, -1, -1, -1, -1, -1, -1, -1, -1, -1, -1, -1, -1, -1, -1, -1, -1, -1, -1, -1, -1, -1, -1, -1, -1, -1, -1, -1, -1, -1, -1, -1, -1, -1, -1, -1, -1, -1, -1, -1, -1, -1, -1, -1, -1, -1, -1, -1, -1, -1], "loss_changes": [89.706, 84.300354, 7.83519, 30.530186, 25.770794, 4.2048874, 1.155035, 3.5461676, 15.607872, 9.270256, 2.1899743, 0.7569177, 3.344452, 0.1504054, 0.34254646, 0.4779082, 3.3364396, 0.5417491, 10.925392, 5.5916367, 3.5420885, 0.5191022, 1.0076914, 0.023144957, 0.27612305, 0.62641716, 0.587101, 0.018600583, 0.023199558, 0.075133085, 0.17612457, 0.05760944, 0.3925746, 0.15319139, 1.4519582, 0.27432102, 0.19214201, 3.5543442, 4.4642715, 0.8348465, 1.1580272, 1.3985445, 0.6561514, 0.032413088, 0.82204187, 0.0054127527, 0.6921272, 0.0055601113, 0.027763486, 0.01232326, 0.17489195, 0.48755455, 0.06119156, 0.41011047, 0.30720282, 0.0, 0.0, 0.0, 0.0, 0.0, 0.04481435, 0.012386322, 0.0, 0.0092407465, 0.05805099, 0.08073962, 0.34115842, 0.046087705, 0.031225562, 1.0789013, 0.09805365, 0.023103591, 0.085755825, 0.046239913, 0.03639245, 1.1295738, 0.19904375, 2.524208, 1.0944786, 0.71984863, 1.404499, 1.0793285, 0.21941376, 0.20428419, 0.32003945, 0.10113782, 0.1082201, 0.0027325973, 0.021999571, 0.45196724, 0.03985411, 0.0023784223, 0.00799951, 0.5029545, 0.06339073, 0.00034943968, 0.0034220256, 0.0, 0.002593344, 0.0044172555, 0.0020048022, 0.068395376, 0.022321463, 0.125588, 0.39697742, 0.021116257, 0.06943607, 0.056776047, 0.053783417, 0.18597555, 0.06732011, 0.0, 0.0030310154, 0.0, 0.0, 0.00020490587, 0.0059757233, 0.02232417, 0.0052587986, 0.008633196, 0.018821508, 0.14024518, 0.015296236, 0.005146064, 0.014398448, 0.020800687, 0.014582105, 0.12429005, 0.74563885, 0.050361574, 0.057863794, 0.0028230771, 0.0030570403, 0.031991273, 0.03391999, 0.0139345545, 0.017670989, 0.008203149, 0.002039373, 0.36968517, 0.47347832, 0.03045845, 0.02102971, 0.47888565, 0.5026789, 0.28002548, 0.017341971, 0.41279602, 0.07496382, 0.094566345, 0.2233181, 0.113438845, 0.35064238, 0.21737146, 0.04522693, 0.012955904, 0.017202616, 0.114362, 0.116026506, 0.030269958, 0.06377274, 0.04074198, 0.019775271, 7.054617e-05, 0.0019741133, 0.009535983, 0.0044533964, 0.24431264, 0.029485404, 0.0412199, 0.008572459, 0.0008779052, 0.00045795907, 0.0006913808, 0.005340757, 0.4079308, 0.29744673, 0.013231635, 0.02796042, 0.000104070496, 1.8505496e-05, 0.0010785963, 0.0031977259, 0.00033623131, 0.00069685467, 9.757088e-06, 0.0021211207, 0.0003912896, 0.0016667545, 0.032432556, 0.008378815, 0.0070329085, 0.0, 0.0136537235, 0.025411636, 0.15412235, 0.007044308, 0.0014816523, 0.004689932, 0.043019295, 0.024165392, 0.013500214, 0.0, 0.0, 0.011538506, 0.049813867, 0.06415188, 0.00021898746, 0.009847045, 0.0, 0.0, 0.0, 0.0, 0.0022941616, 0.0022360086, 0.004753843, 0.012221566, 0.0012584031, 0.00014613941, 0.0009597689, 0.0023528188, 0.0060216486, 0.007917009, 0.02075542, 0.09081274, 0.004094988, 0.02075766, 0.0001720488, 0.0008433759, 0.0026034042, 0.0041295374, 0.015856897, 0.0032608435, 0.020287454, 0.0012324788, 0.28618205, 0.0247261, 0.043447495, 0.41224527, 0.022344163, 0.0041806996, 0.016182147, 0.0015091617, 0.00045194104, 0.0007189065, 0.0010058181, 5.217339e-05, 0.003335488, 0.004208125, 0.00874795, 0.009976834, 0.00082121167, 0.0022103675, 0.004705496, 0.006874472, 0.007198155, 0.0006197691, 0.00043167174, 0.0, 0.049020052, 0.25562286, 0.41838837, 0.14710832, 0.0126770735, 0.007970452, 0.003352642, 0.0023013353, 0.4295082, 0.12086582, 0.08639991, 0.04557872, 0.058981895, 0.06668091, 0.0021287575, 0.011313319, 0.032965183, 0.21056747, 0.0044393986, 0.053267665, 0.0046195984, 0.054203033, 0.27395773, 0.053212643, 0.04392147, 0.1319347, 0.041335605, 0.14991745, 0.04151392, 0.09496361, 0.010564804, 0.0049009323, 0.0038945675, 0.003115058, 0.0077232122, 0.021147132, 0.020804644, 0.05804664, 0.030611694, 0.070790894, 0.009036638, 0.019402327, 0.013592839, 0.024344862, 0.007121712, 0.016370773, 0.0036721826, 0.009520769, 2.3769013e-05, 2.714293e-05, 0.00012682378, 0.0005486831, 0.0009723939, 0.0034870636, 0.008648558, 0.0007554679, 0.1565628, 0.12966251, 0.014655694, 0.012587965, 0.0074076764, 0.0066123437, 0.0021700189, 0.0015875027, 0.00030134927, 0.00037088897, 0.000104102626, 6.445515e-05, 6.1899045e-05, 0.0006351336, 0.0026474968, 0.0021057806, 0.03677024, 0.034004033, 0.121326685, 0.14783025, 0.00075119734, 0.0038216114, 0.0083597265, 0.0083242655, 0.0, 2.411726e-05, 0.0, 0.0, 7.515705e-05, 0.00014010351, 0.0017848364, 0.0041153636, 2.9716932e-05, 9.411946e-06, 3.1136474e-06, 1.0337681e-05, 0.0, 6.689377e-06, 0.00020211074, 0.00043723732, 0.0009959638, 0.00094944984, 0.0, 0.0009435117, 0.032334328, 0.0, 0.00067040697, 0.0001748018, 0.0, 0.0046336316, 0.0008254554, 0.0070943907, 0.005071625, 0.001978308, 0.030133724, 0.036431313, 0.0017076731, 0.001295343, 0.0001316187, 0.0027555525, 0.0004900694, 0.0, 0.0059063435, 0.004205227, 0.0074002743, 0.0018314719, 0.002989769, 0.0019574165, 0.0, 0.0, 0.0064044967, 0.03661716, 0.009607136, 0.0, 0.005063627, 0.0, 0.03570032, 0.0, 0.0007941853, 0.000118780416, 0.0010609627, 0.0005931407, 8.459036e-05, 0.0014553741, 0.0009614055, 0.0012255479, 0.00030382723, 0.00039427727, 0.0, 0.0, 0.0, 0.00015488267, 0.0002541244, 0.0016698018, 0.0005897321, 0.0012690872, 0.0022103488, 0.0042076614, 0.010638142, 0.006820026, 0.113678485, 0.008715099, 0.002904065, 0.0035331696, 0.00054353115, 0.006672766, 0.0, 0.0, 0.0, 0.000103109516, 0.00084015727, 0.0012442563, 0.0015889517, 0.003774995, 0.008938616, 0.0029449277, 0.0009774973, 0.0012758169, 0.008660976, 0.002678974, 0.00035522878, 0.0005806796, 0.008503422, 0.0064326525, 0.0040833494, 0.009395748, 0.006918192, 0.010856152, 0.006549444, 0.5300484, 0.0021800883, 0.0032030717, 0.0008767396, 0.0013562441, 0.007773064, 0.009712042, 0.0005470123, 0.00029130187, 1.520291e-05, 5.1140785e-05, 9.4067305e-05, 0.00012841262, 0.00028789323, 0.00023367393, 3.3174e-05, 3.071566e-05, 0.0054165404, 0.0044944477, 0.0016343966, 0.0021399986, 0.01607307, 0.00073529035, 0.004802808, 0.0037662983, 3.0150695e-05, 0.00028154213, 0.00020962488, 0.0, 7.4365176e-05, 0.0021061525, 0.0045535117, 0.00035090744, 0.0021778345, 0.002684921, 0.001514256, 0.00017152727, 3.094971e-05, 0.0, 0.0042547435, 0.025905848, 0.19520938, 0.054056525, 0.17107677, 0.102809906, 0.001946032, 0.091798544, 0.006054938, 0.0052614305, 0.007622361, 0.006748097, 0.0, 0.0029044151, 0.0, 0.0013267994, 0.39178085, 0.26407242, 0.21680641, 0.07737517, 0.016475119, 0.031082034, 0.011427283, 0.00037670135, 0.025046349, 0.015730858, 0.032632828, 0.013108015, 0.0, 0.0, 0.0012023449, 0.0, 0.0, 0.011598587, 0.08301973, 0.25151634, 0.0, 8.22451e-06, 0.039513774, 0.007150553, 0.0005812645, 0.0019857883, 0.13469315, 0.004972458, 0.03121996, 0.12060213, 0.01634121, 0.0014117956, 0.009382546, 0.011749268, 0.039278008, 0.027336646, 0.0061390847, 0.010878197, 0.048793644, 0.022572458, 0.006803751, 0.0064516068, 0.019161344, 0.010026967, 0.0018705726, 0.00053525716, 0.0, 0.0011966825, 0.00087562203, 0.0016205311, 0.000700295, 0.0012848973, 0.0029378533, 0.002256479, 0.0026795864, 0.0064302385, 0.002250526, 0.010425627, 0.10912299, 0.009409134, 0.0060007693, 0.02307579, 0.105165504, 0.005369857, 0.0006458834, 0.00025611743, 0.0028205873, 0.0034383088, 0.0035468414, 0.009523773, 0.020483077, 0.0028845966, 0.0, 0.003918126, 0.020316094, 0.0009226203, 0.0012307912, 0.00018844008, 0.001146093, 0.0015392303, 1.5991827e-06, 0.0, 5.510403e-06, 1.647073e-05, 3.5854056e-05, 0.0, 0.00019806623, 0.0003689956, 0.00022161752, 0.0001874268, 0.00068276003, 0.0038917135, 0.0013347922, 0.00080136955, 0.00040592952, 0.00019720441, 0.0419432, 0.014502823, 0.094522, 0.01155287, 6.023115e-05, 0.00032128394, 0.00029927492, 0.0, 0.0020592064, 0.00055867445, 0.003945976, 0.003410549, 0.00023631006, 0.0, 0.0010491442, 0.0, 7.5032294e-06, 0.0, 0.00029168418, 9.6942036e-05, 2.4469526e-05, 3.799979e-05, 1.9159968e-05, 1.43621e-05, 0.0, 0.0, 3.1073578e-06, 0.00013818505, 0.00039822183, 0.00038619898, 0.0008564315, 0.00010560546, 0.0, 0.023437727, 0.011929116, 0.014331281, 0.10947466, 0.006377939, 0.16762161, 0.086619616, 0.0, 0.0, 0.0014466047, 0.0, 0.0025521778, 0.0, 0.0008931756, 0.0012951642, 8.660089e-06, 1.5844758e-05, 4.3618198e-05, 2.4657493e-05, 1.2056786e-05, 0.0, 0.00021330136, 0.00033965334, 0.00036046468, 0.0062149744, 1.7949369e-06, 1.9344348e-05, 0.0, 0.0, 0.0, 0.0, 0.0, 0.0, 0.0, 4.449328e-06, 4.1122905e-05, 0.0, 0.0006158799, 0.0, 2.7542934e-05, 0.0, 0.0, 0.0, 0.00075430423, 0.0005291179, 0.010303259, 0.014809072, 0.00019500183, 0.0, 0.0, 0.0, 0.0, 0.0, 0.00038734637, 7.465226e-05, 0.0, 0.0028298758, 0.0033530183, 0.0, 0.00023192167, 0.0, 0.004712224, 0.0036091805, 0.022654533, 0.0, 0.0005116444, 0.000117179006, 0.0, 5.767867e-05, 0.0, 0.0, 0.0020591468, 0.0021502227, 0.0, 0.0, 0.0, 0.0002257824, 0.0, 0.0, 0.007270336, 0.0, 5.1930547e-05, 0.0, 0.0, 0.0006875992, 0.0, 0.0, 0.0, 0.0010841638, 0.020768285, 0.00031548738, 0.0, 0.0, 0.0, 0.0, 0.0, 0.0070297364, 0.0, 0.0, 0.0, 0.0, 0.0, 0.0, 0.0, 0.0, 0.0, 0.0, 0.0, 0.0, 0.0, 0.0, 0.0, 0.0, 0.0, 0.0, 0.0, 0.0, 0.0, 0.0, 0.0, 0.0, 0.0, 0.0, 0.0, 0.0, 0.0, 0.0, 0.0, 0.0, 0.0, 0.0, 0.0, 0.0, 0.0, 0.0, 0.0, 0.0, 0.0, 0.0, 0.0, 0.0, 0.0, 0.0, 0.0, 0.0, 0.0, 0.0, 0.0, 0.0, 0.0, 0.0, 0.0, 0.0, 0.0, 0.0, 0.0, 0.0, 0.0, 0.0, 0.0, 0.0, 0.0, 0.0, 0.0, 0.0, 0.0, 0.0, 0.0, 0.0, 0.0, 0.0, 0.0, 0.0, 0.0, 0.0, 0.0, 0.0, 0.0, 0.0, 0.0, 0.0, 0.0, 0.0, 0.0, 0.0, 0.0, 0.0, 0.0, 0.0, 0.0, 0.0, 0.0, 0.0, 0.0, 0.0, 0.0, 0.0, 0.0, 0.0, 0.0, 0.0, 0.0, 0.0, 0.0, 0.0, 0.0, 0.0, 0.0, 0.0, 0.0, 0.0, 0.0, 0.0, 0.0, 0.0, 0.0, 0.0, 0.0, 0.0, 0.0, 0.0, 0.0, 0.0, 0.0, 0.0, 0.0, 0.0, 0.0, 0.0, 0.0, 0.0, 0.0, 0.0, 0.0, 0.0, 0.0, 0.0, 0.0, 0.0, 0.0, 0.0, 0.0, 0.0, 0.0, 0.0, 0.0, 0.0, 0.0, 0.0, 0.0, 0.0, 0.0, 0.0, 0.0, 0.0, 0.0, 0.0, 0.0, 0.0, 0.0, 0.0, 0.0, 0.0, 0.0, 0.0, 0.0, 0.0, 0.0, 0.0, 0.0, 0.0, 0.0, 0.0, 0.0, 0.0, 0.0, 0.0, 0.0, 0.0, 0.0, 0.0, 0.0, 0.0, 0.0, 0.0, 0.0, 0.0, 0.0, 0.0, 0.0, 0.0, 0.0, 0.0, 0.0, 0.0, 0.0, 0.0, 0.0, 0.0, 0.0, 0.0, 0.0, 0.0, 0.0, 0.0, 0.0, 0.0, 0.0, 0.0, 0.0, 0.0, 0.0, 0.0, 0.0, 0.0, 0.0, 0.0, 0.0, 0.0, 0.0, 0.0, 0.0, 0.0, 0.0, 0.0, 0.0, 0.0, 0.0, 0.0, 0.0, 0.0, 0.0, 0.0, 0.0, 0.0, 0.0, 0.0, 0.0, 0.0, 0.0, 0.0, 0.0, 0.0, 0.0, 0.0, 0.0, 0.0, 0.0, 0.0, 0.0, 0.0, 0.0, 0.0, 0.0, 0.0, 0.0, 0.0, 0.0, 0.0, 0.0, 0.0, 0.0, 0.0, 0.0, 0.0, 0.0, 0.0, 0.0, 0.0, 0.0, 0.0, 0.0, 0.0, 0.0, 0.0, 0.0, 0.0, 0.0, 0.0, 0.0, 0.0, 0.0, 0.0, 0.0, 0.0, 0.0, 0.0, 0.0, 0.0, 0.0, 0.0, 0.0, 0.0, 0.0, 0.0, 0.0, 0.0, 0.0, 0.0, 0.0, 0.0, 0.0, 0.0, 0.0, 0.0, 0.0, 0.0, 0.0, 0.0, 0.0, 0.0, 0.0, 0.0, 0.0, 0.0, 0.0, 0.0, 0.0, 0.0, 0.0, 0.0, 0.0, 0.0, 0.0, 0.0, 0.0, 0.0, 0.0, 0.0, 0.0, 0.0, 0.0, 0.0, 0.0, 0.0, 0.0, 0.0, 0.0, 0.0, 0.0, 0.0, 0.0, 0.0, 0.0, 0.0, 0.0, 0.0, 0.0, 0.0, 0.0, 0.0, 0.0, 0.0, 0.0, 0.0, 0.0, 0.0, 0.0, 0.0, 0.0, 0.0, 0.0, 0.0, 0.0, 0.0, 0.0, 0.0, 0.0, 0.0, 0.0, 0.0, 0.0, 0.0, 0.0, 0.0, 0.0, 0.0, 0.0, 0.0, 0.0, 0.0, 0.0, 0.0, 0.0, 0.0, 0.0, 0.0, 0.0, 0.0, 0.0, 0.0, 0.0, 0.0, 0.0, 0.0, 0.0, 0.0, 0.0, 0.0, 0.0, 0.0, 0.0, 0.0, 0.0, 0.0, 0.0, 0.0, 0.0, 0.0, 0.0, 0.0, 0.0, 0.0, 0.0, 0.0, 0.0, 0.0, 0.0, 0.0, 0.0, 0.0, 0.0, 0.0, 0.0, 0.0, 0.0, 0.0, 0.0, 0.0, 0.0, 0.0, 0.0, 0.0, 0.0, 0.0, 0.0, 0.0, 0.0, 0.0, 0.0, 0.0, 0.0, 0.0, 0.0, 0.0, 0.0, 0.0, 0.0, 0.0, 0.0, 0.0, 0.0, 0.0, 0.0, 0.0, 0.0, 0.0, 0.0, 0.0, 0.0, 0.0, 0.0, 0.0, 0.0, 0.0, 0.0, 0.0, 0.0, 0.0, 0.0, 0.0, 0.0, 0.0, 0.0, 0.0, 0.0, 0.0, 0.0, 0.0, 0.0, 0.0, 0.0, 0.0, 0.0, 0.0, 0.0, 0.0, 0.0, 0.0, 0.0, 0.0, 0.0, 0.0, 0.0, 0.0, 0.0, 0.0, 0.0, 0.0, 0.0, 0.0, 0.0, 0.0, 0.0, 0.0, 0.0, 0.0, 0.0, 0.0, 0.0, 0.0, 0.0, 0.0, 0.0, 0.0, 0.0, 0.0, 0.0, 0.0], "parents": [2147483647, 0, 0, 1, 1, 2, 2, 3, 3, 4, 4, 5, 5, 6, 6, 7, 7, 8, 8, 9, 9, 10, 10, 11, 11, 12, 12, 13, 13, 14, 14, 15, 15, 16, 16, 17, 17, 18, 18, 19, 19, 20, 20, 21, 21, 22, 22, 23, 23, 24, 24, 25, 25, 26, 26, 27, 27, 28, 28, 29, 29, 30, 30, 31, 31, 32, 32, 33, 33, 34, 34, 35, 35, 36, 36, 37, 37, 38, 38, 39, 39, 40, 40, 41, 41, 42, 42, 43, 43, 44, 44, 45, 45, 46, 46, 47, 47, 48, 48, 49, 49, 50, 50, 51, 51, 52, 52, 53, 53, 54, 54, 60, 60, 61, 61, 63, 63, 64, 64, 65, 65, 66, 66, 67, 67, 68, 68, 69, 69, 70, 70, 71, 71, 72, 72, 73, 73, 74, 74, 75, 75, 76, 76, 77, 77, 78, 78, 79, 79, 80, 80, 81, 81, 82, 82, 83, 83, 84, 84, 85, 85, 86, 86, 87, 87, 88, 88, 89, 89, 90, 90, 91, 91, 92, 92, 93, 93, 94, 94, 95, 95, 96, 96, 98, 98, 99, 99, 100, 100, 101, 101, 102, 102, 103, 103, 104, 104, 105, 105, 106, 106, 107, 107, 108, 108, 109, 109, 110, 110, 112, 112, 115, 115, 116, 116, 117, 117, 118, 118, 119, 119, 120, 120, 121, 121, 122, 122, 123, 123, 124, 124, 125, 125, 126, 126, 127, 127, 128, 128, 129, 129, 130, 130, 131, 131, 132, 132, 133, 133, 134, 134, 135, 135, 136, 136, 137, 137, 138, 138, 139, 139, 140, 140, 141, 141, 142, 142, 143, 143, 144, 144, 145, 145, 146, 146, 147, 147, 148, 148, 149, 149, 150, 150, 151, 151, 152, 152, 153, 153, 154, 154, 155, 155, 156, 156, 157, 157, 158, 158, 159, 159, 160, 160, 161, 161, 162, 162, 163, 163, 164, 164, 165, 165, 166, 166, 167, 167, 168, 168, 169, 169, 170, 170, 171, 171, 172, 172, 173, 173, 174, 174, 175, 175, 176, 176, 177, 177, 178, 178, 179, 179, 180, 180, 181, 181, 182, 182, 183, 183, 184, 184, 185, 185, 186, 186, 187, 187, 188, 188, 189, 189, 190, 190, 191, 191, 193, 193, 194, 194, 195, 195, 196, 196, 197, 197, 198, 198, 199, 199, 200, 200, 201, 201, 204, 204, 205, 205, 206, 206, 207, 207, 208, 208, 213, 213, 214, 214, 215, 215, 216, 216, 217, 217, 218, 218, 219, 219, 220, 220, 221, 221, 222, 222, 223, 223, 224, 224, 225, 225, 226, 226, 227, 227, 228, 228, 229, 229, 230, 230, 231, 231, 232, 232, 233, 233, 234, 234, 235, 235, 236, 236, 237, 237, 238, 238, 239, 239, 240, 240, 241, 241, 242, 242, 243, 243, 244, 244, 245, 245, 246, 246, 247, 247, 248, 248, 249, 249, 250, 250, 251, 251, 252, 252, 253, 253, 254, 254, 255, 255, 256, 256, 257, 257, 259, 259, 260, 260, 261, 261, 262, 262, 263, 263, 264, 264, 265, 265, 266, 266, 267, 267, 268, 268, 269, 269, 270, 270, 271, 271, 272, 272, 273, 273, 274, 274, 275, 275, 276, 276, 277, 277, 278, 278, 279, 279, 280, 280, 281, 281, 282, 282, 283, 283, 284, 284, 285, 285, 286, 286, 287, 287, 288, 288, 289, 289, 290, 290, 291, 291, 292, 292, 293, 293, 294, 294, 295, 295, 296, 296, 297, 297, 298, 298, 299, 299, 300, 300, 301, 301, 302, 302, 303, 303, 304, 304, 305, 305, 306, 306, 307, 307, 308, 308, 309, 309, 310, 310, 311, 311, 312, 312, 313, 313, 314, 314, 315, 315, 316, 316, 317, 317, 318, 318, 319, 319, 320, 320, 321, 321, 322, 322, 323, 323, 324, 324, 325, 325, 326, 326, 327, 327, 328, 328, 329, 329, 330, 330, 331, 331, 332, 332, 333, 333, 334, 334, 335, 335, 336, 336, 337, 337, 338, 338, 340, 340, 343, 343, 344, 344, 345, 345, 346, 346, 347, 347, 348, 348, 349, 349, 350, 350, 352, 352, 353, 353, 354, 354, 355, 355, 356, 356, 358, 358, 359, 359, 361, 361, 362, 362, 364, 364, 365, 365, 366, 366, 367, 367, 368, 368, 369, 369, 370, 370, 371, 371, 372, 372, 373, 373, 374, 374, 375, 375, 377, 377, 378, 378, 379, 379, 380, 380, 381, 381, 382, 382, 385, 385, 386, 386, 387, 387, 389, 389, 391, 391, 393, 393, 394, 394, 395, 395, 396, 396, 397, 397, 398, 398, 399, 399, 400, 400, 401, 401, 402, 402, 406, 406, 407, 407, 408, 408, 409, 409, 410, 410, 411, 411, 412, 412, 413, 413, 414, 414, 415, 415, 416, 416, 417, 417, 418, 418, 419, 419, 420, 420, 424, 424, 425, 425, 426, 426, 427, 427, 428, 428, 429, 429, 430, 430, 431, 431, 432, 432, 433, 433, 434, 434, 435, 435, 436, 436, 437, 437, 438, 438, 439, 439, 440, 440, 441, 441, 442, 442, 443, 443, 444, 444, 445, 445, 446, 446, 447, 447, 448, 448, 449, 449, 450, 450, 451, 451, 452, 452, 453, 453, 454, 454, 455, 455, 456, 456, 457, 457, 458, 458, 459, 459, 460, 460, 461, 461, 462, 462, 463, 463, 464, 464, 465, 465, 466, 466, 467, 467, 468, 468, 469, 469, 470, 470, 471, 471, 473, 473, 474, 474, 475, 475, 476, 476, 477, 477, 478, 478, 479, 479, 480, 480, 481, 481, 483, 483, 484, 484, 485, 485, 486, 486, 487, 487, 488, 488, 489, 489, 490, 490, 491, 491, 492, 492, 493, 493, 494, 494, 496, 496, 498, 498, 499, 499, 500, 500, 501, 501, 502, 502, 503, 503, 504, 504, 505, 505, 506, 506, 507, 507, 508, 508, 509, 509, 510, 510, 513, 513, 516, 516, 517, 517, 518, 518, 520, 520, 521, 521, 522, 522, 523, 523, 524, 524, 525, 525, 526, 526, 527, 527, 528, 528, 529, 529, 530, 530, 531, 531, 532, 532, 533, 533, 534, 534, 535, 535, 536, 536, 537, 537, 538, 538, 539, 539, 540, 540, 541, 541, 542, 542, 543, 543, 544, 544, 546, 546, 547, 547, 548, 548, 549, 549, 550, 550, 551, 551, 552, 552, 553, 553, 554, 554, 555, 555, 556, 556, 557, 557, 558, 558, 559, 559, 560, 560, 561, 561, 562, 562, 563, 563, 564, 564, 565, 565, 566, 566, 567, 567, 568, 568, 569, 569, 570, 570, 572, 572, 573, 573, 574, 574, 575, 575, 576, 576, 577, 577, 578, 578, 579, 579, 581, 581, 582, 582, 583, 583, 585, 585, 586, 586, 587, 587, 588, 588, 589, 589, 590, 590, 591, 591, 592, 592, 593, 593, 594, 594, 595, 595, 596, 596, 597, 597, 598, 598, 599, 599, 600, 600, 601, 601, 603, 603, 604, 604, 605, 605, 606, 606, 607, 607, 609, 609, 611, 611, 613, 613, 614, 614, 615, 615, 616, 616, 617, 617, 618, 618, 621, 621, 622, 622, 623, 623, 624, 624, 625, 625, 626, 626, 628, 628, 629, 629, 630, 630, 631, 631, 632, 632, 633, 633, 634, 634, 637, 637, 639, 639, 641, 641, 642, 642, 643, 643, 644, 644, 645, 645, 646, 646, 647, 647, 649, 649, 650, 650, 651, 651, 652, 652, 653, 653, 654, 654, 662, 662, 663, 663, 665, 665, 667, 667, 671, 671, 672, 672, 673, 673, 674, 674, 675, 675, 681, 681, 682, 682, 684, 684, 685, 685, 687, 687, 689, 689, 690, 690, 691, 691, 693, 693, 694, 694, 696, 696, 699, 699, 700, 700, 704, 704, 707, 707, 709, 709, 712, 712, 716, 716, 717, 717, 718, 718, 724, 724], "right_children": [2, 4, 6, 8, 10, 12, 14, 16, 18, 20, 22, 24, 26, 28, 30, 32, 34, 36, 38, 40, 42, 44, 46, 48, 50, 52, 54, 56, 58, 60, 62, 64, 66, 68, 70, 72, 74, 76, 78, 80, 82, 84, 86, 88, 90, 92, 94, 96, 98, 100, 102, 104, 106, 108, 110, -1, -1, -1, -1, -1, 112, 114, -1, 116, 118, 120, 122, 124, 126, 128, 130, 132, 134, 136, 138, 140, 142, 144, 146, 148, 150, 152, 154, 156, 158, 160, 162, 164, 166, 168, 170, 172, 174, 176, 178, 180, 182, -1, 184, 186, 188, 190, 192, 194, 196, 198, 200, 202, 204, 206, 208, -1, 210, -1, -1, 212, 214, 216, 218, 220, 222, 224, 226, 228, 230, 232, 234, 236, 238, 240, 242, 244, 246, 248, 250, 252, 254, 256, 258, 260, 262, 264, 266, 268, 270, 272, 274, 276, 278, 280, 282, 284, 286, 288, 290, 292, 294, 296, 298, 300, 302, 304, 306, 308, 310, 312, 314, 316, 318, 320, 322, 324, 326, 328, 330, 332, 334, 336, 338, 340, 342, 344, 346, 348, 350, 352, 354, 356, 358, 360, 362, 364, -1, 366, 368, 370, 372, 374, 376, 378, 380, 382, -1, -1, 384, 386, 388, 390, 392, -1, -1, -1, -1, 394, 396, 398, 400, 402, 404, 406, 408, 410, 412, 414, 416, 418, 420, 422, 424, 426, 428, 430, 432, 434, 436, 438, 440, 442, 444, 446, 448, 450, 452, 454, 456, 458, 460, 462, 464, 466, 468, 470, 472, 474, 476, 478, 480, 482, -1, 484, 486, 488, 490, 492, 494, 496, 498, 500, 502, 504, 506, 508, 510, 512, 514, 516, 518, 520, 522, 524, 526, 528, 530, 532, 534, 536, 538, 540, 542, 544, 546, 548, 550, 552, 554, 556, 558, 560, 562, 564, 566, 568, 570, 572, 574, 576, 578, 580, 582, 584, 586, 588, 590, 592, 594, 596, 598, 600, 602, 604, 606, 608, 610, 612, 614, 616, 618, 620, 622, 624, 626, 628, 630, 632, 634, 636, 638, 640, 642, -1, 644, -1, -1, 646, 648, 650, 652, 654, 656, 658, 660, -1, 662, 664, 666, 668, 670, -1, 672, 674, -1, 676, 678, -1, 680, 682, 684, 686, 688, 690, 692, 694, 696, 698, 700, 702, -1, 704, 706, 708, 710, 712, 714, -1, -1, 716, 718, 720, -1, 722, -1, 724, -1, 726, 728, 730, 732, 734, 736, 738, 740, 742, 744, -1, -1, -1, 746, 748, 750, 752, 754, 756, 758, 760, 762, 764, 766, 768, 770, 772, 774, -1, -1, -1, 776, 778, 780, 782, 784, 786, 788, 790, 792, 794, 796, 798, 800, 802, 804, 806, 808, 810, 812, 814, 816, 818, 820, 822, 824, 826, 828, 830, 832, 834, 836, 838, 840, 842, 844, 846, 848, 850, 852, 854, 856, 858, 860, 862, 864, 866, 868, 870, -1, 872, 874, 876, 878, 880, 882, 884, 886, 888, -1, 890, 892, 894, 896, 898, 900, 902, 904, 906, 908, 910, 912, -1, 914, -1, 916, 918, 920, 922, 924, 926, 928, 930, 932, 934, 936, 938, 940, -1, -1, 942, -1, -1, 944, 946, 948, -1, 950, 952, 954, 956, 958, 960, 962, 964, 966, 968, 970, 972, 974, 976, 978, 980, 982, 984, 986, 988, 990, 992, 994, 996, 998, -1, 1000, 1002, 1004, 1006, 1008, 1010, 1012, 1014, 1016, 1018, 1020, 1022, 1024, 1026, 1028, 1030, 1032, 1034, 1036, 1038, 1040, 1042, 1044, 1046, 1048, -1, 1050, 1052, 1054, 1056, 1058, 1060, 1062, 1064, -1, 1066, 1068, 1070, -1, 1072, 1074, 1076, 1078, 1080, 1082, 1084, 1086, 1088, 1090, 1092, 1094, 1096, 1098, 1100, 1102, 1104, -1, 1106, 1108, 1110, 1112, 1114, -1, 1116, -1, 1118, -1, 1120, 1122, 1124, 1126, 1128, 1130, -1, -1, 1132, 1134, 1136, 1138, 1140, 1142, -1, 1144, 1146, 1148, 1150, 1152, 1154, 1156, -1, -1, 1158, -1, 1160, -1, 1162, 1164, 1166, 1168, 1170, 1172, 1174, -1, 1176, 1178, 1180, 1182, 1184, 1186, -1, -1, -1, -1, -1, -1, -1, 1188, 1190, -1, 1192, -1, 1194, -1, -1, -1, 1196, 1198, 1200, 1202, 1204, -1, -1, -1, -1, -1, 1206, 1208, -1, 1210, 1212, -1, 1214, -1, 1216, 1218, 1220, -1, 1222, 1224, -1, 1226, -1, -1, 1228, 1230, -1, -1, -1, 1232, -1, -1, 1234, -1, 1236, -1, -1, 1238, -1, -1, -1, 1240, 1242, 1244, -1, -1, -1, -1, -1, 1246, -1, -1, -1, -1, -1, -1, -1, -1, -1, -1, -1, -1, -1, -1, -1, -1, -1, -1, -1, -1, -1, -1, -1, -1, -1, -1, -1, -1, -1, -1, -1, -1, -1, -1, -1, -1, -1, -1, -1, -1, -1, -1, -1, -1, -1, -1, -1, -1, -1, -1, -1, -1, -1, -1, -1, -1, -1, -1, -1, -1, -1, -1, -1, -1, -1, -1, -1, -1, -1, -1, -1, -1, -1, -1, -1, -1, -1, -1, -1, -1, -1, -1, -1, -1, -1, -1, -1, -1, -1, -1, -1, -1, -1, -1, -1, -1, -1, -1, -1, -1, -1, -1, -1, -1, -1, -1, -1, -1, -1, -1, -1, -1, -1, -1, -1, -1, -1, -1, -1, -1, -1, -1, -1, -1, -1, -1, -1, -1, -1, -1, -1, -1, -1, -1, -1, -1, -1, -1, -1, -1, -1, -1, -1, -1, -1, -1, -1, -1, -1, -1, -1, -1, -1, -1, -1, -1, -1, -1, -1, -1, -1, -1, -1, -1, -1, -1, -1, -1, -1, -1, -1, -1, -1, -1, -1, -1, -1, -1, -1, -1, -1, -1, -1, -1, -1, -1, -1, -1, -1, -1, -1, -1, -1, -1, -1, -1, -1, -1, -1, -1, -1, -1, -1, -1, -1, -1, -1, -1, -1, -1, -1, -1, -1, -1, -1, -1, -1, -1, -1, -1, -1, -1, -1, -1, -1, -1, -1, -1, -1, -1, -1, -1, -1, -1, -1, -1, -1, -1, -1, -1, -1, -1, -1, -1, -1, -1, -1, -1, -1, -1, -1, -1, -1, -1, -1, -1, -1, -1, -1, -1, -1, -1, -1, -1, -1, -1, -1, -1, -1, -1, -1, -1, -1, -1, -1, -1, -1, -1, -1, -1, -1, -1, -1, -1, -1, -1, -1, -1, -1, -1, -1, -1, -1, -1, -1, -1, -1, -1, -1, -1, -1, -1, -1, -1, -1, -1, -1, -1, -1, -1, -1, -1, -1, -1, -1, -1, -1, -1, -1, -1, -1, -1, -1, -1, -1, -1, -1, -1, -1, -1, -1, -1, -1, -1, -1, -1, -1, -1, -1, -1, -1, -1, -1, -1, -1, -1, -1, -1, -1, -1, -1, -1, -1, -1, -1, -1, -1, -1, -1, -1, -1, -1, -1, -1, -1, -1, -1, -1, -1, -1, -1, -1, -1, -1, -1, -1, -1, -1, -1, -1, -1, -1, -1, -1, -1, -1, -1, -1, -1, -1, -1, -1, -1, -1, -1, -1, -1, -1, -1, -1, -1, -1, -1, -1, -1, -1, -1, -1, -1, -1, -1, -1, -1, -1, -1, -1, -1, -1, -1, -1, -1, -1, -1, -1, -1, -1, -1, -1, -1, -1, -1, -1, -1, -1, -1, -1, -1, -1, -1, -1, -1, -1, -1, -1, -1, -1, -1, -1, -1, -1, -1, -1, -1, -1, -1, -1, -1, -1, -1, -1, -1, -1, -1, -1, -1, -1, -1, -1, -1, -1, -1, -1, -1, -1, -1, -1, -1, -1, -1, -1, -1, -1, -1, -1, -1, -1, -1, -1, -1, -1, -1, -1, -1, -1, -1, -1, -1, -1, -1, -1, -1, -1, -1, -1, -1, -1, -1, -1, -1, -1, -1, -1, -1, -1, -1, -1, -1, -1, -1, -1, -1, -1], "split_conditions": [1996.288, 0.74596804, 4598.3276, 277.26205, 1759.8087, 2.8351607, 2256.3171, 214.50107, 0.5077499, 12.5, 2195.6536, 3790.458, 1750.386, 3309.2527, 2.989741, 118.84459, 0.5077499, 379.70547, 685.3653, 1665.5991, 405.55603, 2.7692568, 2.7692568, 3661.7751, 2.7692568, 1478.8307, 198.0, 3.5610795, 1921.5015, 41.204685, 3.67622, 0.5618596, 0.43069497, 0.34625423, 0.670217, 0.26030773, 0.34625423, 0.670217, 1083.6637, 2.008246, 4.355172, 250.45229, 366.89832, 2.313744, 4.355172, 1239.7968, 1362.3798, 2.1724136, 3233.9988, 2811.0745, 48.90869, 3.1360548, 3.0977051, 2005.502, 41.204685, 0.021592736, 0.01652884, 0.02338393, 0.02827356, 0.0087863915, 2.8225927, 6804.241, 0.03495973, 0.32906058, 0.670217, 170.1907, 0.67046326, 0.26030773, 248.19116, 0.5618596, 774.7248, 0.22278476, 0.34625423, 0.22278476, 473.3828, 717.5104, 326.49887, 0.670217, 0.670217, 198.0, 397.585, 2.9152799, 6.730591, 175.43532, 323.20233, 1.2720006, 675.7968, 1.9157155, 1669.815, 1186.954, 6.467859, 2.7550333, 2.4272332, 2.9152799, 2417.0886, 2.060742, 1362.3798, 0.010084674, 2906.2292, 2986.4893, 2104.7817, 2.8225927, 2104.7817, 3920.3547, 4.355172, 32.994457, 3.6835682, 1921.5015, 2104.7817, 3.1360548, 2256.3171, 0.025150536, 2.8587155, 0.039109927, 0.044085138, 0.26030773, 344.42792, 161.97913, 108.36217, 0.26030773, 0.32906058, 0.5618596, 191.91095, 0.22278476, 252.2315, 0.43069497, 0.43069497, 0.5178671, 0.59494376, 243.0479, 0.7409399, 328.5824, 349.40033, 330.84116, 309.67084, 502.4779, 417.88483, 818.9148, 951.5, 4.675775, 987.73315, 302.30502, 352.52396, 701.97516, 447.6721, 869.968, 0.6727225, 222.06656, 261.99533, 190.12924, 6.730591, 2.7692568, 945.5843, 525.664, 7.935123, 85.58069, 135.20233, 1.2720006, 1.2720006, 0.79347134, 437.18582, 1.2759819, 1.2720006, 1.369148, 1126.1044, 1014.6802, 2.6690526, 2.9152799, 2.8225927, 742.9003, 883.6685, 2.6690526, 1172.3773, 1.9157155, 2.6690526, 25.785877, 1828.9159, 2.8225927, 22.148626, 1.9157155, 2848.9197, 2.7550333, 2.313744, 2.7550333, 2.1724136, 10.680331, 2.313744, 2.6690526, 2.4371874, 5679.1206, 1834.9015, 2.7967153, 0.021402929, 3790.458, 23.736185, 1220.3445, 2353.1296, 13.784233, 1663.8427, 2353.1296, 3.7590454, 1834.9015, 0.021195773, 0.022562122, 2256.3171, 2.9152799, 3.7590454, 2.9152799, 2.957017, 0.034682024, 0.02226501, -0.006543756, -0.0055615376, 273.64014, 0.4940705, 0.59494376, 0.6353031, 0.7409399, 283.7611, 0.22278476, 150.97351, 0.26030773, 198.78682, 195.52744, 0.670217, 0.7409399, 530.13055, 257.5936, 246.86569, 230.1944, 0.3007384, 0.3839317, 226.27583, 0.3839317, 0.4940705, 0.5106423, 0.53636783, 253.57953, 0.6061519, 583.98486, 380.91434, 0.67046326, 369.04535, 302.30502, 357.8206, 318.57922, 5.768154, 0.3007384, 0.3007384, 0.43069497, 0.43069497, 417.88483, 611.1336, 0.26030773, 2396.2761, 0.3839317, 0.4940705, 726.8949, 0.011851082, 399.51004, 439.48343, 627.3423, 0.5618596, 727.72986, 908.607, 0.7019199, 0.7019199, 198.0, 0.6353031, 363.71454, 529.7622, 0.6353031, 0.6068891, 768.9971, 1826.5549, 78.08128, 3010.0, 195.29276, 763.051, 159.56335, 7.935123, 2.7692568, 7.935123, 1911.9375, 18.363918, 842.52264, 883.6685, 447.6721, 682.24963, 712.0364, 529.7622, 65.44608, 1.2720006, 1.6552924, 1.2720006, 0.79347134, 1.6552924, 0.79347134, 1.6552924, 313.05087, 302.30502, 1.4776367, 1.6552924, 0.79347134, 1.6104808, 1013.7078, 695.46027, 22.148626, 1487.9545, 2.1724136, 2.1724136, 2.7550333, 2.4371874, 2.5046487, 1126.1044, 22.860956, 20.386019, 17.31956, 1300.3726, 2892.143, 852.5781, 7.935123, 7.935123, 2.5046487, 1857.3917, 1142.3156, 1203.3489, 2348.471, 2.1724136, 2.5046487, 2.7550333, 2.7967153, 3084.9683, 4.355172, 3.1360548, 2925.1562, 1478.8307, 3.1360548, 1478.8307, 0.001243657, 1.9932791, -0.0015591172, -0.0009135869, 2047.1576, 1300.3726, 1750.386, 1478.8307, 1300.3726, 1326.8917, 30.35297, 2.2674148, -8.93943e-05, 2.1724136, 2594.4773, 4429.6064, 2.5046487, 2.7550333, 0.0053955703, 2.6690526, 198.0, 0.019943465, 4068.9583, 4762.7275, 0.016675863, 2.8174667, 2.9152799, 3296.1677, 3638.8008, 2266.1006, 1111.3816, 3.7590454, 1080.0978, 3303.5908, 2.9152799, 23.736185, 1567.0133, 0.015513132, 1567.0133, 4525.0586, 3.6950495, 1567.0133, 2.8587155, 2.8587155, 0.024565184, 0.02669735, 2.8587155, 34.769768, 2961.637, 0.014897952, 2.8587155, 0.019919848, 2.8587155, 0.034243837, 318.42078, 0.5178671, 99.63358, 99.63358, 108.36217, 155.31715, 0.59494376, 104.211624, 99.63358, 0.74549687, -0.003430674, -0.0041603823, -0.0057712216, 145.1315, 0.34625423, 0.34625423, 0.22278476, 0.3007384, 288.30383, 0.3839317, 449.61447, 0.5077499, 293.3229, 328.93512, 138.53127, 0.74549687, 205.1426, 0.6727225, -0.0037531666, -0.003335463, -0.002690887, 260.42053, 0.32906058, 0.32906058, 271.17786, 0.32906058, 0.35110605, 3.908636, 462.68665, 0.4940705, 0.35110605, 0.41438785, 260.42053, 261.8996, 245.62584, 250.85397, 238.01839, 246.86569, 235.54597, 0.5646404, 260.42053, 0.6353031, 0.7019199, 350.88513, 0.7019199, 0.7019199, 397.48645, 0.6727225, 507.2885, 397.48645, 286.26782, 4.082434, 3.7166326, 1.7838203, 296.53568, 3.1778986, 1110.6945, 360.75153, 0.28746742, 0.32906058, 363.71454, 0.32906058, 0.3839317, 286.26782, 0.3839317, 357.8206, 386.37936, 460.6691, 581.24054, 0.0051855706, 2.9041245, 1551.3059, 0.26030773, 2.8700387, 0.35110605, 6.456525, 0.3839317, 409.81055, 533.36835, 0.0074360594, 0.5883988, 0.6353031, 3010.0, 0.5618596, 0.5618596, 0.59494376, 821.5505, 827.4196, 0.7019199, 0.67046326, 0.7019199, 0.7182852, 0.0058349986, 1024.1332, 0.0066297255, 516.3403, 357.8206, 642.13666, 0.5618596, 0.6653303, 0.7184405, 1043.6992, 1463.167, 581.24054, 819.37225, 502.4779, 602.4327, 602.4327, 0.0073893345, 0.014000704, 904.1837, 0.0075159543, -0.007883667, 300.4855, 50.0, 457.05606, -0.007263038, 135.20233, 1.9298087, 1.9997336, 634.353, 6.730591, 852.2495, 322.4618, 1283.4395, 633.02124, 490.44318, 8.312699, 2.4195287, 2.313744, 2.8225927, 933.1555, 688.89496, 3.1360548, 775.0457, 997.6735, 373.2536, 494.5027, 602.4327, 807.38074, 581.24054, 823.17535, -0.00654308, 696.8189, 48.00982, 1.6552924, 161.97913, 1.6552924, 1.4776367, 115.17131, 0.79347134, 1.4776367, 186.35393, 195.52744, 1.4776367, 190.12924, 230.1944, 250.85397, 1.4776367, 227.61919, 286.26782, 337.41864, 1.0183488, 333.1902, 1.3672594, 1.6552924, 1.5138043, 316.69345, 0.005855312, 422.12292, 1.4776367, 5.813419, 0.79347134, 0.79347134, 1.4363025, 1377.3523, 21.479803, 0.0006344322, 1.8599594, 1278.2325, 1.9932791, -0.0027666797, 1.9932791, 2.2674148, 916.36847, 933.1555, 1563.3347, 2.6690526, 1744.4299, 1239.7968, 2.7550333, 1220.3445, 2.7967153, 2594.4707, 3.1360548, 1435.3926, 1258.1943, 1239.7968, 2.9794407, 0.011915626, 682.24963, 621.78467, 3125.1216, 6.1030684, 807.38074, -0.004848358, 6.730591, -0.0035673666, 2609.8691, 0.0010903664, 2.7452707, 2460.092, 1111.3816, 2656.869, 2382.2332, 2460.092, 0.00025514484, 0.0015810245, 1478.8307, 2656.869, 1300.3726, 1326.8917, 1326.8917, 1278.2325, 0.007601426, 3010.0, 2.8174667, 2.8587155, 3.1360548, 868.1945, 21.479803, 4.355172, 0.0006918873, 0.009701102, 2.957017, 0.0141993705, 2.989741, 0.009503147, 2767.2356, 2.8225927, 2547.9849, 3177.8328, 22.148626, 22.860956, 1258.1943, 0.0012625046, 2.2674148, 3496.4946, 3125.1216, 2.8174667, 1258.1943, 2.1724136, 0.00056497456, 0.0016730583, -0.00039892943, 5.921852e-05, 0.0025168397, 0.0038811471, -0.00010870826, 31.61356, 3064.7446, 0.002618734, 2.4371874, 0.0030059959, 41.204685, 0.007355177, 0.005003347, 0.006289707, 2.5046487, 2.7550333, 2194.3096, 2.7967153, 1300.3726, 0.003806755, 0.005454564, 0.006911876, 0.0045983414, 0.014045854, 3496.4946, 3420.0, 0.009927897, 2.989741, 2.9152799, 0.009307859, 2047.1576, 0.00039813053, 1032.7305, 3.7590454, 2194.3096, 0.009410158, 4.7887764, 5.232831, 0.0048448923, 4.68434, 0.002163476, 0.0066791135, 2.9152799, 2.8587155, 0.012462445, 0.0140961185, 0.014723301, 2906.2292, 0.018223438, 0.019925846, 1663.8427, 0.019812949, 4.68434, 0.012984267, 0.016913472, 3.6835682, 0.017991124, 0.01982322, 0.017063132, 4762.7275, 3.0283294, 3.1251101, 0.020042276, 0.0258351, 0.017721003, 0.004381652, 0.028768046, 2.9152799, -0.0006422163, -0.004037752, 1.7475033e-05, -0.0023651188, -0.00530669, -0.0047193407, -0.0046208245, -0.00404262, -0.00035115547, 0.00051720475, -0.0038002103, -0.0028157157, 0.00064048835, -0.00020893593, -0.00286329, -0.0017301326, -0.005043898, -0.004112228, -0.006017856, -0.0037040699, -0.0052621234, -0.004538868, -0.0044864453, -0.0039570797, -0.0037999705, -0.0027889563, -0.004778388, -0.0036926437, -0.0024139513, -0.0031585954, -0.0026590633, -0.001850972, -0.0006756916, -0.0015758995, 0.000923139, -0.0011997633, -0.00019162106, 0.00092785904, 0.0012344361, 0.004104916, -0.0012097382, 0.00036441005, -0.0028080833, -0.0019922508, -0.0036018277, -0.0023007065, 0.00017609938, 0.00096448197, -0.0012683038, -0.0027037153, -0.0021399572, -0.0017277481, -0.0020516668, -0.0014312826, -0.0013656043, -0.0008438195, -0.00021295917, 0.00057039195, -0.0012165193, -0.00029158057, -0.00020089926, 0.0010953579, -0.0009262589, -0.0002373023, 0.0007920779, 0.00015328203, 0.00082776876, 0.0014496659, 0.0009703643, 0.0023584468, 6.189419e-05, 0.0007816019, 0.0014573175, 0.0020751208, 0.0022066645, 0.0028937734, 0.0021784625, 0.0036378289, 0.009379499, 0.011817598, -3.0380577e-05, 0.001114799, 0.0018875478, 0.0031899377, 0.009967971, 0.011579289, 0.012009872, 0.013815216, 0.0013278539, 0.0026455754, 0.010698351, 0.0059862114, 0.0011638849, 0.0019988278, -0.0021528623, -6.492807e-05, 0.002570923, 0.0031598385, 0.0029040212, 0.0039443877, 0.0011296647, 0.0025073737, -2.239931e-05, 0.0034013223, -0.0022917115, -0.0016616109, -0.0013258917, -0.00076890504, -0.0030588282, -0.0026072545, -0.0023306697, -0.0020045892, -0.0018843045, -0.0016066693, -0.00076564896, -0.0013478003, -0.0011225415, -0.0006565286, -0.0004978332, -7.030951e-05, 0.00069073564, 0.0001806193, 0.00044653492, 0.0010495041, 0.0004354558, 0.0014776993, -0.0003459467, 0.00069760374, 0.0024740426, 0.003436496, 0.0012701851, 0.0025004146, 0.0029379919, 0.0012568132, 0.0029143204, 0.0037146795, 0.0043798382, 0.0029938137, 0.0047830204, 0.006813254, -0.0009180555, -0.00054020254, 0.00013755284, 0.0010358578, 0.00235066, 0.0032992223, 0.0007737716, 0.0017378241, 0.0030504125, 0.004415382, 0.003925453, 0.0055901553, 0.0014839526, 0.009031596, 0.006716748, 0.008715694, 0.005014062, 0.006601836, 0.009089672, 0.0074101994, 0.007779287, 0.009890734, 0.007151135, 0.010407008, 0.012412648, 0.0055355867, 0.014425469, 0.01113094, 0.013745006, 0.005515434, 0.0074655535, 0.013544829, 0.008826118, 0.013505812, 0.017492896, 0.014847049, 0.0042194203, 0.0055880854, 0.0069148345, 0.012197967, 0.0038215225, 0.0047859675, 0.004059038, 0.0014455994, 0.0048358254, 0.0059045074, 0.0046882965, 0.00050677644, 0.0070633637, 0.001477929, 0.007956658, 0.008620133, 0.01737038, 0.021647992, 0.01037679, 0.017951397, 0.018974956, 0.029458351, 0.018474106, 0.027399119, 0.0055076056, 0.0016766966, 0.009419357, 0.006152916, 0.013996894, 0.009361431, 0.016875168, 0.018743563, 0.028621422, 0.034518056, 0.018996136, 0.027448354, 0.038203113, 0.043419704, 0.030640623, 0.037095886, 0.019341415, 0.02174753, -0.00678364, -0.005908291, -0.0072526154, -0.005379412, -0.0039104964, -0.0051042186, -0.0048735, -0.0038470945, -0.0010365717, 0.0013225033, -0.0027991007, 0.0023501492, -0.007898354, -0.007535418, -0.0071148765, -0.0077209515, -0.006714165, -0.005460792, -0.0074442155, -0.007029032, -0.0055545275, -0.004655857, -0.0036552574, 0.00064267736, -0.00562857, -0.004922806, -0.006381926, -0.006798242, -0.0037922156, -0.0030354634, -0.0029159603, -0.0021032556, -0.0009655238, -0.003257491, 0.0010978788, 0.0048355474, -0.0032553833, -0.0019673617, -0.001121396, 0.00032316454, 0.0010486306, 0.0025412834, 0.004362526, 0.007331337, -0.005151151, -0.0043279463, -0.0037318529, -0.00326964, -0.002781589, -0.0020093091, -0.0010574947, 0.0003155288, -0.0049330737, -0.0043799677, -0.003377725, -0.002687143, -0.005798472, -0.004976604, -0.007222284, -0.006419411, -0.005992191, -0.005081377, -0.0057986695, -0.0051541342, -0.0051297033, -0.0041177673, -0.0038743888, -0.0044642924, -0.0037513117, -0.0025228001, -0.0029402606, -0.004274114, -0.0025639934, -0.0033131493, -0.0022848996, -0.0013972562, -0.0035230082, -0.0028005973, -0.0011451659, -0.00273352, -0.00046806142, 0.001025458, -0.00073907844, 0.00032141892, -0.0021098154, -0.0010867818, 0.00037871546, -0.0012945024, 0.0015454228, 0.0028450792, 0.001312196, 0.002203023, 0.0031307654, 0.0041369665, -0.00094348035, -0.00012613325, 0.0005567908, 0.0013226961, 0.0019037777, 0.0012047014, -0.00010051637, 0.0037926605, 0.0031248864, 0.0014461995, 0.005128611, 0.0074243066, 0.0026968792, 0.003994053, 0.0069459, 0.004278046, 0.01019782, 0.0059408466, 0.008015988, 0.0058105434, 0.0095948875, 0.0076917396, 0.007986825, 0.0052947607, 0.009815235, 0.011738912, -0.00047022264, -2.6320575e-05, -0.0016276219, -0.001121382, -0.00095306797, -0.00017143828, -0.002897331, -0.0035287228, -0.0021116484, -0.0026811059, -0.0017862419, -0.002475243, -0.0026736173, -0.0020935538, -0.0019231724, -0.0013873747, -0.0013843845, -0.0009647262, -0.00020516806, -0.0010151975, -0.00038399137, 0.00019542858, 0.0008988712, 0.0015586287, -0.0014080389, -0.0005884985, -0.00046087062, -2.7971988e-05, 0.0033254412, -0.0006398764, 0.0012981863, 0.0049845986, 0.0018390544, 0.0038482244, 0.004027109, 0.0061281123, 0.00033328135, 0.0013135955, 0.0069276635, 0.0080608055, 0.00855339, 0.00968688, -0.0017775199, -0.001215897, -0.0014169512, -0.00027279372, -0.00031330812, 0.00094787515, 0.0011790136, -8.610025e-05, -0.0035636707, -0.0028267435, -0.0010188553, -0.0019578615, -0.00030269928, -2.7146514e-05, -0.0003387359, -0.000890601, -0.00046411832, -7.5736905e-05, -0.00067495956, -0.00028361112, 0.00012433414, -0.00018231302, 0.00030751585, 3.2034684e-05, 0.00054261676, 0.0002854276, -0.0017716582, -0.0014196505, -0.00092667626, -0.0002789943, -0.00015034428, 0.0008340711, 0.0016441706, 0.002277724, -4.531795e-05, 0.0007094084, 0.000805938, 0.0011272774, 0.006848451, 0.000235818, 6.847838e-05, 0.0068162484, 0.007877849, -0.00041989176, 0.0041493736, 0.0059844046, -0.00048083972, 0.0018488559, 0.003813817, 0.00872622, 0.009718522, 0.0024551528, 0.011229414, 0.013054911, 0.0019632198, 0.0051751407, 0.009599368, 0.0061860573, 0.009946379, 0.013026358, 0.00041043985, -0.00017852374, -0.0009013725, -0.0002491814, 0.00020928422, -0.00019628178, 0.0004733511, 8.205545e-05, 0.0003129538, 0.0007490817, 0.0006002807, -0.00014570987, 0.0011927836, 0.0022311867, 0.0016465357, 0.0010329753, 0.0026631344, 0.010012284, -5.1193874e-05, -0.00041713304, -0.00016764966, 0.0006543447, 0.00047453702, 0.0008734077, 0.00014999296, 0.0012569504, 0.0041900543, 0.0052184993, 0.0055826367, 0.003347282, 0.006575567, 0.008797999, 0.0061508226, 0.0076463646, 0.0109353755, 0.01288386, 0.012912597, 0.007023464, 0.0004889339, 0.0019827117, 0.00040720575, 0.001081483, 0.0015669488, 0.0033559753, 0.0021906334, 0.005217032, 0.00065519795, 0.005409582, 0.009442479, 0.010594127, 0.008928733, 0.010498177, 0.012101882, 0.0068212254, 0.012692586, 0.014756293, 0.00239776, 1.3409145e-05, 0.0037652617, 0.00024600886, 0.0072749117, 0.005676833, 0.0023508114, 0.013536393, 0.0134322, 0.009509012, 0.01673187, 0.01094244, 0.014553764, 0.016357627, 0.010809015, 0.0052594, 0.018852474, 0.017660402, 0.004691583, 0.00643165, 0.009159274, 0.012727079, 0.018611107, 0.008855066, 0.005669132, 0.018486334], "split_indices": [6, 1, 7, 5, 7, 1, 5, 5, 1, 4, 7, 9, 5, 6, 1, 5, 1, 5, 7, 9, 6, 1, 1, 9, 1, 5, 2, 1, 5, 0, 1, 1, 1, 1, 1, 1, 1, 1, 7, 1, 1, 6, 5, 1, 1, 5, 5, 1, 8, 6, 0, 1, 1, 5, 0, 0, 0, 0, 0, 0, 1, 9, 0, 1, 1, 5, 1, 1, 5, 1, 9, 1, 1, 1, 5, 8, 5, 1, 1, 2, 5, 1, 1, 6, 6, 1, 6, 1, 6, 5, 1, 1, 1, 1, 7, 1, 5, 0, 7, 7, 5, 1, 5, 9, 1, 0, 1, 5, 5, 1, 5, 0, 1, 0, 0, 1, 9, 6, 5, 1, 1, 1, 5, 1, 5, 1, 1, 1, 1, 5, 1, 5, 5, 5, 5, 5, 5, 7, 7, 0, 9, 5, 5, 6, 5, 6, 1, 7, 6, 5, 1, 1, 6, 5, 1, 5, 5, 1, 1, 1, 6, 1, 1, 1, 5, 5, 1, 1, 1, 5, 5, 1, 5, 1, 1, 0, 6, 1, 0, 1, 8, 1, 1, 1, 1, 0, 1, 1, 1, 9, 5, 1, 0, 9, 0, 5, 6, 0, 5, 6, 1, 5, 0, 0, 5, 1, 1, 1, 1, 0, 0, 0, 0, 8, 1, 1, 1, 1, 8, 1, 5, 1, 5, 5, 1, 1, 8, 5, 5, 5, 1, 1, 5, 1, 1, 1, 1, 5, 1, 8, 6, 1, 6, 5, 5, 5, 0, 1, 1, 1, 1, 5, 5, 1, 9, 1, 1, 6, 0, 6, 6, 7, 1, 8, 9, 1, 1, 2, 1, 5, 5, 1, 1, 6, 9, 6, 3, 6, 7, 5, 1, 1, 1, 9, 0, 6, 5, 5, 5, 5, 5, 5, 1, 1, 1, 1, 1, 1, 1, 5, 5, 1, 1, 1, 1, 7, 6, 0, 6, 1, 1, 1, 1, 1, 5, 0, 0, 0, 5, 8, 5, 1, 1, 1, 6, 5, 5, 7, 1, 1, 1, 1, 9, 1, 1, 9, 5, 1, 5, 0, 1, 0, 0, 6, 5, 5, 5, 5, 5, 0, 1, 0, 1, 6, 9, 1, 1, 0, 1, 2, 0, 9, 8, 0, 1, 1, 8, 8, 6, 5, 1, 5, 7, 1, 0, 5, 0, 5, 9, 1, 5, 1, 1, 0, 0, 1, 0, 6, 0, 1, 0, 1, 0, 9, 1, 5, 5, 5, 6, 1, 5, 5, 1, 0, 0, 0, 5, 1, 1, 1, 1, 6, 1, 9, 1, 6, 6, 5, 1, 5, 1, 0, 0, 0, 5, 1, 1, 5, 1, 1, 0, 7, 1, 1, 1, 5, 5, 5, 5, 5, 5, 5, 1, 5, 1, 1, 6, 1, 1, 6, 1, 7, 6, 5, 0, 0, 0, 5, 0, 8, 5, 1, 1, 5, 1, 1, 5, 1, 5, 5, 5, 5, 0, 0, 9, 1, 0, 1, 0, 1, 5, 6, 0, 1, 1, 3, 1, 1, 1, 8, 8, 1, 1, 1, 1, 0, 9, 0, 6, 5, 6, 1, 1, 1, 8, 9, 5, 6, 5, 5, 5, 0, 0, 6, 0, 0, 9, 2, 7, 0, 5, 1, 1, 9, 1, 8, 5, 8, 5, 5, 1, 1, 1, 1, 5, 6, 1, 5, 5, 5, 5, 5, 5, 5, 5, 0, 5, 5, 1, 6, 1, 1, 5, 1, 1, 5, 5, 1, 5, 5, 5, 1, 5, 5, 5, 1, 5, 1, 1, 1, 5, 0, 5, 1, 0, 1, 1, 1, 8, 0, 0, 1, 5, 1, 0, 1, 1, 5, 5, 6, 1, 6, 5, 1, 5, 1, 9, 1, 6, 5, 5, 1, 0, 5, 5, 8, 1, 5, 0, 1, 0, 8, 0, 1, 7, 5, 8, 7, 7, 0, 0, 5, 8, 5, 5, 5, 5, 0, 3, 1, 1, 1, 5, 0, 1, 0, 0, 1, 0, 1, 0, 7, 1, 7, 8, 0, 0, 5, 0, 1, 9, 8, 1, 5, 1, 0, 0, 0, 0, 0, 0, 0, 0, 7, 0, 1, 0, 0, 0, 0, 0, 1, 1, 6, 1, 5, 0, 0, 0, 0, 0, 9, 3, 0, 1, 1, 0, 6, 0, 5, 1, 6, 0, 1, 1, 0, 1, 0, 0, 1, 1, 0, 0, 0, 7, 0, 0, 5, 0, 1, 0, 0, 1, 0, 0, 0, 8, 1, 1, 0, 0, 0, 0, 0, 1, 0, 0, 0, 0, 0, 0, 0, 0, 0, 0, 0, 0, 0, 0, 0, 0, 0, 0, 0, 0, 0, 0, 0, 0, 0, 0, 0, 0, 0, 0, 0, 0, 0, 0, 0, 0, 0, 0, 0, 0, 0, 0, 0, 0, 0, 0, 0, 0, 0, 0, 0, 0, 0, 0, 0, 0, 0, 0, 0, 0, 0, 0, 0, 0, 0, 0, 0, 0, 0, 0, 0, 0, 0, 0, 0, 0, 0, 0, 0, 0, 0, 0, 0, 0, 0, 0, 0, 0, 0, 0, 0, 0, 0, 0, 0, 0, 0, 0, 0, 0, 0, 0, 0, 0, 0, 0, 0, 0, 0, 0, 0, 0, 0, 0, 0, 0, 0, 0, 0, 0, 0, 0, 0, 0, 0, 0, 0, 0, 0, 0, 0, 0, 0, 0, 0, 0, 0, 0, 0, 0, 0, 0, 0, 0, 0, 0, 0, 0, 0, 0, 0, 0, 0, 0, 0, 0, 0, 0, 0, 0, 0, 0, 0, 0, 0, 0, 0, 0, 0, 0, 0, 0, 0, 0, 0, 0, 0, 0, 0, 0, 0, 0, 0, 0, 0, 0, 0, 0, 0, 0, 0, 0, 0, 0, 0, 0, 0, 0, 0, 0, 0, 0, 0, 0, 0, 0, 0, 0, 0, 0, 0, 0, 0, 0, 0, 0, 0, 0, 0, 0, 0, 0, 0, 0, 0, 0, 0, 0, 0, 0, 0, 0, 0, 0, 0, 0, 0, 0, 0, 0, 0, 0, 0, 0, 0, 0, 0, 0, 0, 0, 0, 0, 0, 0, 0, 0, 0, 0, 0, 0, 0, 0, 0, 0, 0, 0, 0, 0, 0, 0, 0, 0, 0, 0, 0, 0, 0, 0, 0, 0, 0, 0, 0, 0, 0, 0, 0, 0, 0, 0, 0, 0, 0, 0, 0, 0, 0, 0, 0, 0, 0, 0, 0, 0, 0, 0, 0, 0, 0, 0, 0, 0, 0, 0, 0, 0, 0, 0, 0, 0, 0, 0, 0, 0, 0, 0, 0, 0, 0, 0, 0, 0, 0, 0, 0, 0, 0, 0, 0, 0, 0, 0, 0, 0, 0, 0, 0, 0, 0, 0, 0, 0, 0, 0, 0, 0, 0, 0, 0, 0, 0, 0, 0, 0, 0, 0, 0, 0, 0, 0, 0, 0, 0, 0, 0, 0, 0, 0, 0, 0, 0, 0, 0, 0, 0, 0, 0, 0, 0, 0, 0, 0, 0, 0, 0, 0, 0, 0, 0, 0, 0, 0, 0, 0, 0, 0, 0, 0, 0, 0, 0, 0, 0, 0, 0, 0, 0, 0, 0, 0, 0, 0, 0, 0, 0, 0, 0, 0, 0, 0, 0, 0, 0, 0, 0, 0, 0, 0, 0, 0, 0, 0, 0, 0, 0, 0, 0, 0, 0, 0, 0, 0, 0, 0, 0, 0, 0, 0, 0, 0, 0, 0, 0, 0, 0, 0, 0, 0, 0, 0, 0, 0, 0, 0, 0, 0, 0, 0, 0, 0, 0, 0, 0, 0, 0, 0, 0, 0, 0, 0, 0, 0, 0, 0, 0, 0, 0, 0, 0, 0, 0, 0, 0, 0, 0, 0, 0, 0, 0, 0, 0, 0, 0, 0, 0, 0, 0, 0, 0, 0, 0, 0], "split_type": [0, 0, 0, 0, 0, 0, 0, 0, 0, 0, 0, 0, 0, 0, 0, 0, 0, 0, 0, 0, 0, 0, 0, 0, 0, 0, 0, 0, 0, 0, 0, 0, 0, 0, 0, 0, 0, 0, 0, 0, 0, 0, 0, 0, 0, 0, 0, 0, 0, 0, 0, 0, 0, 0, 0, 0, 0, 0, 0, 0, 0, 0, 0, 0, 0, 0, 0, 0, 0, 0, 0, 0, 0, 0, 0, 0, 0, 0, 0, 0, 0, 0, 0, 0, 0, 0, 0, 0, 0, 0, 0, 0, 0, 0, 0, 0, 0, 0, 0, 0, 0, 0, 0, 0, 0, 0, 0, 0, 0, 0, 0, 0, 0, 0, 0, 0, 0, 0, 0, 0, 0, 0, 0, 0, 0, 0, 0, 0, 0, 0, 0, 0, 0, 0, 0, 0, 0, 0, 0, 0, 0, 0, 0, 0, 0, 0, 0, 0, 0, 0, 0, 0, 0, 0, 0, 0, 0, 0, 0, 0, 0, 0, 0, 0, 0, 0, 0, 0, 0, 0, 0, 0, 0, 0, 0, 0, 0, 0, 0, 0, 0, 0, 0, 0, 0, 0, 0, 0, 0, 0, 0, 0, 0, 0, 0, 0, 0, 0, 0, 0, 0, 0, 0, 0, 0, 0, 0, 0, 0, 0, 0, 0, 0, 0, 0, 0, 0, 0, 0, 0, 0, 0, 0, 0, 0, 0, 0, 0, 0, 0, 0, 0, 0, 0, 0, 0, 0, 0, 0, 0, 0, 0, 0, 0, 0, 0, 0, 0, 0, 0, 0, 0, 0, 0, 0, 0, 0, 0, 0, 0, 0, 0, 0, 0, 0, 0, 0, 0, 0, 0, 0, 0, 0, 0, 0, 0, 0, 0, 0, 0, 0, 0, 0, 0, 0, 0, 0, 0, 0, 0, 0, 0, 0, 0, 0, 0, 0, 0, 0, 0, 0, 0, 0, 0, 0, 0, 0, 0, 0, 0, 0, 0, 0, 0, 0, 0, 0, 0, 0, 0, 0, 0, 0, 0, 0, 0, 0, 0, 0, 0, 0, 0, 0, 0, 0, 0, 0, 0, 0, 0, 0, 0, 0, 0, 0, 0, 0, 0, 0, 0, 0, 0, 0, 0, 0, 0, 0, 0, 0, 0, 0, 0, 0, 0, 0, 0, 0, 0, 0, 0, 0, 0, 0, 0, 0, 0, 0, 0, 0, 0, 0, 0, 0, 0, 0, 0, 0, 0, 0, 0, 0, 0, 0, 0, 0, 0, 0, 0, 0, 0, 0, 0, 0, 0, 0, 0, 0, 0, 0, 0, 0, 0, 0, 0, 0, 0, 0, 0, 0, 0, 0, 0, 0, 0, 0, 0, 0, 0, 0, 0, 0, 0, 0, 0, 0, 0, 0, 0, 0, 0, 0, 0, 0, 0, 0, 0, 0, 0, 0, 0, 0, 0, 0, 0, 0, 0, 0, 0, 0, 0, 0, 0, 0, 0, 0, 0, 0, 0, 0, 0, 0, 0, 0, 0, 0, 0, 0, 0, 0, 0, 0, 0, 0, 0, 0, 0, 0, 0, 0, 0, 0, 0, 0, 0, 0, 0, 0, 0, 0, 0, 0, 0, 0, 0, 0, 0, 0, 0, 0, 0, 0, 0, 0, 0, 0, 0, 0, 0, 0, 0, 0, 0, 0, 0, 0, 0, 0, 0, 0, 0, 0, 0, 0, 0, 0, 0, 0, 0, 0, 0, 0, 0, 0, 0, 0, 0, 0, 0, 0, 0, 0, 0, 0, 0, 0, 0, 0, 0, 0, 0, 0, 0, 0, 0, 0, 0, 0, 0, 0, 0, 0, 0, 0, 0, 0, 0, 0, 0, 0, 0, 0, 0, 0, 0, 0, 0, 0, 0, 0, 0, 0, 0, 0, 0, 0, 0, 0, 0, 0, 0, 0, 0, 0, 0, 0, 0, 0, 0, 0, 0, 0, 0, 0, 0, 0, 0, 0, 0, 0, 0, 0, 0, 0, 0, 0, 0, 0, 0, 0, 0, 0, 0, 0, 0, 0, 0, 0, 0, 0, 0, 0, 0, 0, 0, 0, 0, 0, 0, 0, 0, 0, 0, 0, 0, 0, 0, 0, 0, 0, 0, 0, 0, 0, 0, 0, 0, 0, 0, 0, 0, 0, 0, 0, 0, 0, 0, 0, 0, 0, 0, 0, 0, 0, 0, 0, 0, 0, 0, 0, 0, 0, 0, 0, 0, 0, 0, 0, 0, 0, 0, 0, 0, 0, 0, 0, 0, 0, 0, 0, 0, 0, 0, 0, 0, 0, 0, 0, 0, 0, 0, 0, 0, 0, 0, 0, 0, 0, 0, 0, 0, 0, 0, 0, 0, 0, 0, 0, 0, 0, 0, 0, 0, 0, 0, 0, 0, 0, 0, 0, 0, 0, 0, 0, 0, 0, 0, 0, 0, 0, 0, 0, 0, 0, 0, 0, 0, 0, 0, 0, 0, 0, 0, 0, 0, 0, 0, 0, 0, 0, 0, 0, 0, 0, 0, 0, 0, 0, 0, 0, 0, 0, 0, 0, 0, 0, 0, 0, 0, 0, 0, 0, 0, 0, 0, 0, 0, 0, 0, 0, 0, 0, 0, 0, 0, 0, 0, 0, 0, 0, 0, 0, 0, 0, 0, 0, 0, 0, 0, 0, 0, 0, 0, 0, 0, 0, 0, 0, 0, 0, 0, 0, 0, 0, 0, 0, 0, 0, 0, 0, 0, 0, 0, 0, 0, 0, 0, 0, 0, 0, 0, 0, 0, 0, 0, 0, 0, 0, 0, 0, 0, 0, 0, 0, 0, 0, 0, 0, 0, 0, 0, 0, 0, 0, 0, 0, 0, 0, 0, 0, 0, 0, 0, 0, 0, 0, 0, 0, 0, 0, 0, 0, 0, 0, 0, 0, 0, 0, 0, 0, 0, 0, 0, 0, 0, 0, 0, 0, 0, 0, 0, 0, 0, 0, 0, 0, 0, 0, 0, 0, 0, 0, 0, 0, 0, 0, 0, 0, 0, 0, 0, 0, 0, 0, 0, 0, 0, 0, 0, 0, 0, 0, 0, 0, 0, 0, 0, 0, 0, 0, 0, 0, 0, 0, 0, 0, 0, 0, 0, 0, 0, 0, 0, 0, 0, 0, 0, 0, 0, 0, 0, 0, 0, 0, 0, 0, 0, 0, 0, 0, 0, 0, 0, 0, 0, 0, 0, 0, 0, 0, 0, 0, 0, 0, 0, 0, 0, 0, 0, 0, 0, 0, 0, 0, 0, 0, 0, 0, 0, 0, 0, 0, 0, 0, 0, 0, 0, 0, 0, 0, 0, 0, 0, 0, 0, 0, 0, 0, 0, 0, 0, 0, 0, 0, 0, 0, 0, 0, 0, 0, 0, 0, 0, 0, 0, 0, 0, 0, 0, 0, 0, 0, 0, 0, 0, 0, 0, 0, 0, 0, 0, 0, 0, 0, 0, 0, 0, 0, 0, 0, 0, 0, 0, 0, 0, 0, 0, 0, 0, 0, 0, 0, 0, 0, 0, 0, 0, 0, 0, 0, 0, 0, 0, 0, 0, 0, 0, 0, 0, 0, 0, 0, 0, 0, 0, 0, 0, 0, 0, 0, 0, 0, 0, 0, 0, 0, 0, 0, 0, 0, 0, 0, 0, 0, 0, 0, 0, 0, 0, 0, 0, 0, 0, 0, 0, 0, 0, 0, 0, 0, 0, 0, 0, 0, 0, 0, 0, 0, 0, 0, 0, 0, 0, 0, 0, 0, 0, 0, 0, 0, 0, 0, 0, 0, 0, 0, 0, 0, 0, 0, 0, 0, 0, 0, 0, 0, 0, 0, 0, 0, 0, 0, 0, 0, 0, 0, 0, 0, 0, 0, 0, 0, 0, 0, 0, 0, 0, 0, 0, 0, 0, 0, 0, 0, 0, 0, 0, 0, 0, 0, 0, 0, 0, 0, 0, 0, 0, 0, 0, 0, 0, 0, 0, 0, 0, 0, 0, 0, 0, 0, 0, 0, 0, 0, 0, 0, 0, 0], "sum_hessian": [599758.0, 569280.0, 30478.0, 136321.0, 432959.0, 28136.0, 2342.0, 71960.0, 64361.0, 374363.0, 58596.0, 5023.0, 23113.0, 931.0, 1411.0, 26405.0, 45555.0, 15224.0, 49137.0, 287367.0, 86996.0, 30484.0, 28112.0, 1782.0, 3241.0, 13402.0, 9711.0, 318.0, 613.0, 270.0, 1141.0, 5231.0, 21174.0, 18108.0, 27447.0, 11888.0, 3336.0, 32412.0, 16725.0, 217479.0, 69888.0, 69759.0, 17237.0, 8512.0, 21972.0, 3628.0, 24484.0, 1539.0, 243.0, 1180.0, 2061.0, 8688.0, 4714.0, 7994.0, 1717.0, 142.0, 176.0, 158.0, 455.0, 18.0, 252.0, 735.0, 406.0, 2692.0, 2539.0, 6775.0, 14399.0, 6655.0, 11453.0, 19742.0, 7705.0, 3309.0, 8579.0, 1923.0, 1413.0, 19158.0, 13254.0, 14749.0, 1976.0, 94163.0, 123316.0, 30610.0, 39278.0, 16852.0, 52907.0, 13741.0, 3496.0, 1157.0, 7355.0, 15279.0, 6693.0, 1577.0, 2051.0, 22560.0, 1924.0, 90.0, 1449.0, 57.0, 186.0, 378.0, 802.0, 1850.0, 211.0, 1042.0, 7646.0, 1019.0, 3695.0, 4629.0, 3365.0, 1254.0, 463.0, 132.0, 120.0, 150.0, 585.0, 350.0, 2342.0, 1607.0, 932.0, 1882.0, 4893.0, 10401.0, 3998.0, 1220.0, 5435.0, 6726.0, 4727.0, 5485.0, 14257.0, 4265.0, 3440.0, 1850.0, 1459.0, 4609.0, 3970.0, 550.0, 1373.0, 1111.0, 302.0, 5472.0, 13686.0, 7706.0, 5548.0, 11108.0, 3641.0, 1535.0, 441.0, 88736.0, 5427.0, 72509.0, 50807.0, 16684.0, 13926.0, 33522.0, 5756.0, 6999.0, 9853.0, 27069.0, 25838.0, 4319.0, 9422.0, 2222.0, 1274.0, 136.0, 1021.0, 4481.0, 2874.0, 14302.0, 977.0, 5595.0, 1098.0, 891.0, 686.0, 258.0, 1793.0, 4334.0, 18226.0, 892.0, 1032.0, 28.0, 62.0, 508.0, 941.0, 90.0, 96.0, 27.0, 351.0, 431.0, 371.0, 1656.0, 194.0, 50.0, 161.0, 482.0, 560.0, 7154.0, 492.0, 208.0, 811.0, 2197.0, 1498.0, 3092.0, 1537.0, 1442.0, 1923.0, 882.0, 372.0, 343.0, 120.0, 111.0, 9.0, 273.0, 77.0, 76.0, 2266.0, 638.0, 969.0, 666.0, 266.0, 545.0, 1337.0, 1470.0, 3423.0, 4067.0, 6334.0, 2491.0, 1507.0, 641.0, 579.0, 2771.0, 2664.0, 4613.0, 2113.0, 3861.0, 866.0, 2063.0, 3422.0, 2775.0, 11482.0, 1596.0, 2669.0, 2499.0, 941.0, 746.0, 1104.0, 1274.0, 185.0, 3383.0, 1226.0, 2581.0, 1389.0, 338.0, 212.0, 599.0, 774.0, 694.0, 417.0, 136.0, 166.0, 1328.0, 4144.0, 11389.0, 2297.0, 3664.0, 4042.0, 3725.0, 1823.0, 9664.0, 1444.0, 2346.0, 1295.0, 591.0, 944.0, 36.0, 405.0, 8930.0, 79806.0, 249.0, 5178.0, 8686.0, 63823.0, 34748.0, 16059.0, 13207.0, 3477.0, 4056.0, 9870.0, 16883.0, 16639.0, 3200.0, 2556.0, 3234.0, 3765.0, 3911.0, 5942.0, 8712.0, 18357.0, 9902.0, 15936.0, 601.0, 3718.0, 3880.0, 5542.0, 995.0, 1227.0, 389.0, 885.0, 7.0, 129.0, 264.0, 757.0, 792.0, 3689.0, 2144.0, 730.0, 3802.0, 10500.0, 303.0, 674.0, 3065.0, 2530.0, 339.0, 759.0, 72.0, 819.0, 261.0, 425.0, 13.0, 245.0, 565.0, 1228.0, 3232.0, 1102.0, 13071.0, 5155.0, 112.0, 780.0, 120.0, 912.0, 3.0, 25.0, 52.0, 10.0, 255.0, 253.0, 274.0, 667.0, 18.0, 72.0, 4.0, 92.0, 2.0, 25.0, 26.0, 325.0, 142.0, 289.0, 72.0, 299.0, 1619.0, 37.0, 66.0, 128.0, 29.0, 21.0, 348.0, 134.0, 192.0, 368.0, 3189.0, 3965.0, 319.0, 173.0, 9.0, 199.0, 470.0, 341.0, 1171.0, 1026.0, 1164.0, 334.0, 1580.0, 1512.0, 1430.0, 493.0, 190.0, 692.0, 164.0, 208.0, 19.0, 324.0, 89.0, 31.0, 43.0, 33.0, 1398.0, 868.0, 39.0, 599.0, 524.0, 445.0, 453.0, 213.0, 202.0, 64.0, 252.0, 293.0, 624.0, 713.0, 239.0, 1231.0, 1538.0, 1885.0, 2104.0, 1963.0, 5011.0, 1323.0, 1619.0, 872.0, 332.0, 1175.0, 313.0, 328.0, 274.0, 305.0, 877.0, 1894.0, 1068.0, 1596.0, 1922.0, 2691.0, 873.0, 1240.0, 1622.0, 2239.0, 369.0, 497.0, 1560.0, 503.0, 1358.0, 2064.0, 1137.0, 1638.0, 1383.0, 10099.0, 1327.0, 269.0, 1553.0, 1116.0, 1480.0, 1019.0, 571.0, 370.0, 183.0, 563.0, 776.0, 328.0, 751.0, 523.0, 109.0, 76.0, 1844.0, 1539.0, 686.0, 540.0, 2057.0, 524.0, 938.0, 451.0, 151.0, 187.0, 177.0, 35.0, 153.0, 446.0, 728.0, 46.0, 259.0, 435.0, 318.0, 99.0, 116.0, 20.0, 92.0, 1236.0, 3356.0, 788.0, 5666.0, 5723.0, 457.0, 1840.0, 3372.0, 292.0, 3860.0, 182.0, 254.0, 3471.0, 101.0, 1722.0, 7978.0, 1686.0, 960.0, 484.0, 466.0, 1880.0, 692.0, 603.0, 458.0, 133.0, 700.0, 244.0, 10.0, 26.0, 397.0, 8.0, 2146.0, 6784.0, 15777.0, 64029.0, 176.0, 73.0, 3798.0, 1380.0, 5928.0, 2758.0, 51581.0, 12242.0, 15080.0, 19668.0, 12089.0, 3970.0, 6395.0, 6812.0, 2723.0, 754.0, 2145.0, 1911.0, 8694.0, 1176.0, 5784.0, 11099.0, 14719.0, 1920.0, 2602.0, 598.0, 1060.0, 1496.0, 897.0, 2337.0, 1362.0, 2403.0, 3328.0, 583.0, 1639.0, 4303.0, 1140.0, 7572.0, 16194.0, 2163.0, 1955.0, 7947.0, 14780.0, 1156.0, 351.0, 250.0, 1520.0, 2198.0, 3176.0, 704.0, 5284.0, 258.0, 124.0, 871.0, 1119.0, 108.0, 267.0, 122.0, 246.0, 639.0, 5.0, 2.0, 41.0, 88.0, 169.0, 95.0, 326.0, 431.0, 450.0, 342.0, 1483.0, 2206.0, 1441.0, 703.0, 222.0, 508.0, 3016.0, 786.0, 8680.0, 1820.0, 30.0, 273.0, 348.0, 326.0, 2395.0, 670.0, 1339.0, 1191.0, 231.0, 108.0, 711.0, 48.0, 38.0, 34.0, 538.0, 281.0, 94.0, 167.0, 220.0, 205.0, 6.0, 7.0, 113.0, 132.0, 182.0, 383.0, 818.0, 410.0, 63.0, 3169.0, 110.0, 992.0, 12243.0, 828.0, 2523.0, 2632.0, 1.0, 111.0, 420.0, 360.0, 92.0, 28.0, 776.0, 136.0, 10.0, 15.0, 118.0, 137.0, 50.0, 203.0, 150.0, 124.0, 416.0, 251.0, 6.0, 12.0, 2.0, 70.0, 2.0, 2.0, 8.0, 84.0, 1.0, 24.0, 13.0, 13.0, 306.0, 19.0, 75.0, 67.0, 172.0, 117.0, 114.0, 185.0, 1323.0, 296.0, 47.0, 19.0, 38.0, 90.0, 13.0, 8.0, 330.0, 18.0, 18.0, 116.0, 162.0, 30.0, 366.0, 2.0, 1019.0, 2170.0, 3822.0, 143.0, 90.0, 229.0, 95.0, 78.0, 2.0, 7.0, 58.0, 141.0, 114.0, 356.0, 264.0, 907.0, 554.0, 472.0, 1118.0, 46.0, 76.0, 258.0, 306.0, 1274.0, 190.0, 1322.0, 4.0, 186.0, 623.0, 69.0, 83.0, 81.0, 15.0, 4.0, 72.0, 17.0, 8.0, 35.0, 32.0, 1.0, 668.0, 730.0, 465.0, 403.0, 22.0, 17.0, 344.0, 255.0, 184.0, 340.0, 122.0, 323.0, 384.0, 69.0, 200.0, 13.0, 121.0, 172.0, 388.0, 236.0, 476.0, 237.0, 117.0, 122.0, 949.0, 282.0, 432.0, 1106.0, 870.0, 1015.0, 239.0, 1865.0, 930.0, 1033.0, 2738.0, 2273.0, 522.0, 801.0, 727.0, 892.0, 583.0, 289.0, 129.0, 203.0, 557.0, 618.0, 154.0, 151.0, 552.0, 325.0, 1277.0, 617.0, 726.0, 342.0, 745.0, 851.0, 1025.0, 897.0, 1899.0, 792.0, 388.0, 485.0, 509.0, 731.0, 809.0, 813.0, 1580.0, 659.0, 170.0, 199.0, 264.0, 233.0, 988.0, 572.0, 185.0, 318.0, 395.0, 963.0, 1205.0, 859.0, 559.0, 578.0, 515.0, 1123.0, 772.0, 611.0, 3105.0, 6994.0, 415.0, 912.0, 153.0, 116.0, 319.0, 1234.0, 144.0, 972.0, 758.0, 722.0, 939.0, 80.0, 209.0, 362.0, 226.0, 144.0, 91.0, 92.0, 449.0, 114.0, 569.0, 207.0, 44.0, 284.0, 152.0, 599.0, 170.0, 353.0, 95.0, 14.0, 11.0, 65.0, 1071.0, 773.0, 624.0, 915.0, 397.0, 289.0, 328.0, 212.0, 974.0, 1083.0, 190.0, 334.0, 414.0, 524.0, 330.0, 121.0, 25.0, 126.0, 148.0, 39.0, 143.0, 34.0, 10.0, 143.0, 261.0, 185.0, 228.0, 500.0, 1.0, 45.0, 115.0, 144.0, 224.0, 211.0, 105.0, 213.0, 33.0, 66.0, 10.0, 106.0, 9.0, 83.0, 928.0, 308.0, 283.0, 3073.0, 173.0, 615.0, 832.0, 4834.0, 3498.0, 2225.0, 170.0, 287.0, 377.0, 1463.0, 795.0, 2577.0, 115.0, 177.0, 790.0, 3070.0, 135.0, 47.0, 3462.0, 9.0, 794.0, 928.0, 3380.0, 4598.0, 760.0, 926.0, 247.0, 713.0, 360.0, 124.0, 316.0, 150.0, 1555.0, 325.0, 631.0, 61.0, 486.0, 117.0, 135.0, 323.0, 40.0, 93.0, 291.0, 409.0, 90.0, 154.0, 264.0, 133.0, 4767.0, 2017.0, 2550.0, 13227.0, 34647.0, 29382.0, 32.0, 41.0, 2986.0, 812.0, 1356.0, 24.0, 4881.0, 1047.0, 1776.0, 982.0, 42093.0, 9488.0, 4700.0, 7542.0, 9511.0, 5569.0, 19062.0, 606.0, 6452.0, 5637.0, 2194.0, 1776.0, 4010.0, 2385.0, 2607.0, 4205.0, 1505.0, 1218.0, 474.0, 280.0, 416.0, 1729.0, 824.0, 1087.0, 5672.0, 3022.0, 856.0, 320.0, 1169.0, 4615.0, 5573.0, 5526.0, 10743.0, 3976.0, 902.0, 1018.0, 1014.0, 1588.0, 428.0, 170.0, 1249.0, 247.0, 275.0, 622.0, 2095.0, 242.0, 1072.0, 290.0, 2257.0, 146.0, 1396.0, 1932.0, 234.0, 349.0, 160.0, 1479.0, 2513.0, 1790.0, 402.0, 738.0, 3021.0, 4551.0, 9681.0, 6513.0, 1673.0, 490.0, 1110.0, 845.0, 4032.0, 3915.0, 9547.0, 5233.0, 555.0, 601.0, 240.0, 111.0, 46.0, 204.0, 748.0, 772.0, 1315.0, 883.0, 2244.0, 932.0, 643.0, 61.0, 4516.0, 768.0, 178.0, 80.0, 396.0, 475.0, 703.0, 416.0, 98.0, 10.0, 34.0, 233.0, 30.0, 92.0, 222.0, 24.0, 567.0, 72.0, 4.0, 1.0, 10.0, 31.0, 85.0, 3.0, 51.0, 118.0, 112.0, 214.0, 330.0, 101.0, 92.0, 358.0, 90.0, 252.0, 592.0, 891.0, 1301.0, 905.0, 785.0, 656.0, 424.0, 279.0, 115.0, 107.0, 382.0, 126.0, 262.0, 2754.0, 113.0, 673.0, 3613.0, 5067.0, 288.0, 1532.0, 23.0, 7.0, 117.0, 156.0, 157.0, 191.0, 1090.0, 1305.0, 40.0, 630.0, 1057.0, 282.0, 951.0, 240.0, 103.0, 128.0, 136.0, 575.0, 13.0, 25.0, 110.0, 428.0, 199.0, 82.0, 18.0, 76.0, 115.0, 52.0, 194.0, 26.0, 179.0, 26.0, 78.0, 35.0, 85.0, 47.0, 51.0, 131.0, 200.0, 183.0, 648.0, 170.0, 236.0, 174.0, 48.0, 3121.0, 77.0, 33.0, 973.0, 19.0, 4874.0, 7369.0, 124.0, 704.0, 1369.0, 1154.0, 2474.0, 158.0, 120.0, 300.0, 47.0, 45.0, 762.0, 14.0, 38.0, 98.0, 2.0, 8.0, 8.0, 7.0, 86.0, 32.0, 120.0, 17.0, 9.0, 41.0, 52.0, 98.0, 71.0, 53.0, 281.0, 135.0, 241.0, 10.0, 2.0, 4.0, 3.0, 9.0, 19.0, 5.0, 5.0, 8.0, 124.0, 182.0, 69.0, 6.0, 41.0, 73.0, 125.0, 60.0, 924.0, 399.0, 47.0, 249.0, 11.0, 36.0, 125.0, 205.0, 6.0, 12.0, 64.0, 52.0, 15.0, 147.0, 177.0, 189.0, 302.0, 717.0, 2154.0, 16.0, 631.0, 3191.0, 81.0, 9.0, 228.0, 1.0, 46.0, 32.0, 2.0, 56.0, 22.0, 119.0, 899.0, 8.0, 646.0, 472.0, 73.0, 3.0, 850.0, 424.0, 67.0, 119.0, 316.0, 307.0, 66.0, 3.0, 9.0, 8.0], "tree_param": {"num_deleted": "0", "num_feature": "10", "num_nodes": "1247", "size_leaf_vector": "1"}}]}, "name": "gbtree"}, "learner_model_param": {"base_score": "2.906751E-2", "boost_from_average": "1", "num_class": "0", "num_feature": "10", "num_target": "1"}, "objective": {"name": "reg:squarederror", "reg_loss_param": {"scale_pos_weight": "1"}}}, "version": [2, 0, 3]}