{"model_type": "xgboost", "opt_type": 0, "learner": {"attributes": {}, "feature_names": [], "feature_types": [], "gradient_booster": {"model": {"gbtree_model_param": {"num_parallel_tree": "1", "num_trees": "1"}, "iteration_indptr": [0, 1], "tree_info": [0], "trees": [{"base_weights": [7.01254e-10, -0.006299365, 0.09452814, 0.039034687, -0.02080755, 0.086221926, 0.21902429, 0.01850578, 0.07736258, -0.026701272, 0.01616086, 0.047114406, 0.10182412, 0.1540679, 0.22741029, -0.0014020981, 0.032602545, 0.021069082, 0.09870859, -0.03314832, -0.0059214854, 0.00499019, 0.030320998, 0.010230794, 0.06080744, 0.082053505, 0.11994344, 0.017099006, 0.16074887, 0.23386547, 0.047212224, -0.0134620685, 0.007703186, 0.007599244, 0.0454477, 0.004077051, 0.029153213, 0.12321269, 0.04858789, -0.0379391, -0.016588937, -0.011493853, 0.021736033, 0.0125506725, -0.0044180052, 0.010754944, 0.036425713, 0.0013793749, 0.01826017, 0.049521178, 0.085575074, 0.09108049, 0.058630075, 0.12995592, 0.11151064, 0.043624893, 0.052882064, 0.2550857, 0.21963154, -0.02855205, -0.010382463, -0.0028089448, 0.0151769165, -0.00010340137, 0.01191666, 0.059312705, 0.018689802, 0.00021316354, 0.038362894, 0.02204407, 0.046772216, 0.11029478, 0.20989203, 0.040279776, 0.095816806, -0.038600337, -0.02259097, -0.012361679, -0.023565177, -0.02777786, -0.00691742, 0.014703447, 0.044147674, -0.008708782, 0.020177172, -0.0020620734, -0.02182687, 4.3304375e-05, 0.030122038, 0.024339924, 0.045724962, -0.008908905, 0.0037109873, 0.007774079, 0.054526214, 0.024464332, 0.055621095, 0.07286423, 0.13201554, 0.064872876, 0.096990354, 0.06363183, 0.038721588, 0.13653725, 0.076760225, 0.10209539, 0.118484244, 0.07003839, 0.080556676, 0.058199998, 0.22540088, -0.032395564, -0.025059007, -0.019958392, -0.0063433237, -0.011617616, -0.00058612355, 0.024018876, 0.00059118774, -0.011886882, 0.0028059771, -0.0030626894, 0.0133914575, 0.04501318, 0.07303943, 0.0140691, 0.024682816, -0.0045760125, 0.0070027844, 0.031530626, 0.047129806, 0.01538569, 0.030628935, 0.038901147, 0.06073612, 0.09530238, 0.12492641, 0.18063006, 0.25479573, 0.03644754, 0.05269609, 0.08357163, 0.11139847, -0.040092707, -0.032909617, -0.012542197, -0.03791479, -0.021969128, 0.0009718262, -0.020785067, -0.03426117, -0.03660712, -0.02089018, -0.013633033, -0.003342611, 0.005627204, 0.01870559, 0.031132739, 0.052803185, -0.020775083, -0.006971022, 0.014590195, 0.032484844, -0.008715012, 0.00097256916, -0.017693331, -0.031753194, 0.009858166, -0.00057335006, -0.0037579963, 0.04514258, 0.030667886, 0.013273915, 0.07019145, 0.04012742, -0.011385305, -0.004117296, 0.001840829, 0.007036887, 0.014475548, 0.0062872884, 0.05878584, -0.00028107516, 0.014553762, 0.031744868, 0.036653657, 0.060050316, 0.0278625, 0.08005116, 0.009490892, 0.04002145, 0.07943396, 0.030994033, 0.105134286, 0.08749181, 0.058131218, 0.06975474, 0.040076934, 0.01203048, 0.12796898, 0.14651747, 0.085375346, 0.05361727, 0.103944056, 0.028694175, 0.10025726, 0.121975705, 0.22305655, 0.08314856, -0.03123248, -0.011684433, -0.021194922, -0.027953533, -0.02710354, -0.01546871, -0.0010709587, -0.019786837, -0.025442712, -0.009973385, -0.009699121, 0.00077580655, 0.008613346, 0.034201283, 0.004565244, -0.008685854, -0.017078647, -0.007135353, 0.000117851625, 0.008837459, -0.00626748, 0.010959636, 0.011821053, 0.024243522, 0.058202837, 0.029761897, 0.07803587, 0.041778326, 0.015963348, 0.0058457977, 0.021422476, 0.026650544, -0.0076964837, 0.004444258, 0.003115655, 0.017901829, 0.025700286, 0.043766163, 0.040681396, 0.018605946, 0.011115946, 0.020935243, 0.024826836, 0.038192157, 0.033549313, 0.048671566, 0.05826756, 0.07742351, 0.10082573, 0.07123265, 0.13068447, 0.095429935, 0.1981339, 0.14997678, 0.2639772, 0.20754832, 0.032414775, 0.04057795, 0.050520815, 0.06379575, 0.078884214, 0.027826844, 0.10610985, 0.03819637, -0.035677344, -0.044910334, -0.030361522, -0.04313032, -0.045092642, -0.011268927, -0.034424555, -0.039350502, -0.028856268, -0.016816229, 0.009767658, -0.013491988, -0.025440834, -0.018651156, -0.02985104, -0.039746474, -0.03929526, -0.03362413, -0.02206622, -0.008949754, -0.018424043, -0.007813454, -0.007442025, 0.0043916856, 0.016087675, 0.0023442646, 0.014657707, 0.028634569, 0.04986089, 0.025415188, 0.047937077, 0.06899133, -0.022262067, -0.015300606, -0.0097327875, -0.0051090633, 0.0075647025, 0.027844466, 0.018205754, 0.05270163, -0.011607687, -0.006165335, 0.0015749447, -0.009235511, -0.022150565, -0.015486464, -0.032360096, -0.0070781843, -0.00092209695, 0.013748929, -0.016215451, 0.0022462686, 0.0053707175, 0.046411406, 0.028615464, 0.045639783, 0.0096569285, 0.018890118, 0.072320074, 0.045502283, 0.034184378, 0.057428114, -0.0038111343, -0.008849316, -0.006117307, -0.0003800335, -0.00037796996, 0.0028694025, 0.010534931, 0.0067947772, 0.0033437056, 0.00986649, 0.015188966, 0.020253679, -0.0015281484, 0.0013316612, -0.0006193602, 0.016290633, 0.028098201, 0.036256447, 0.024586702, 0.0739491, 0.06294511, 0.052303676, 0.006770962, 0.03955235, 0.07107652, 0.091905795, 0.06872485, 0.08578848, 0.0086716665, 0.010449378, 0.09701211, 0.11407614, 0.078433506, 0.09399024, 0.01642123, 0.060626477, 0.07279473, 0.0633968, 0.01072219, 0.012849188, 0.0058751353, 0.0015109864, 0.03358413, 0.12892303, 0.04303309, 0.04632891, 0.07892575, 0.0282954, 0.016381707, 0.007588045, 0.10268872, 0.03785994, 0.0842924, 0.11971282, 0.11905751, 0.138254, 0.22700152, 0.061999425, -0.012761126, -0.030969879, -0.017152306, -0.008700194, -0.026194412, -0.00914201, -0.03421646, -0.024148872, -0.024308989, -0.014197841, -0.0087223975, 0.0036643983, -0.024854256, -0.016893636, -0.00779984, -0.0057542236, -0.01452803, -0.0053593935, -0.011914079, -0.0010143424, -0.000543387, 0.0069515286, 0.019756181, 0.0067884596, 0.064725466, 0.028548874, 0.010011721, 0.0025742329, -0.01239566, 0.00617127, -0.018178683, -0.010305421, -0.009358497, -0.0005032907, -0.0051947413, 0.0019632764, 0.011705016, 0.0043914327, 0.00036321764, -0.00824892, 0.0063632764, 0.012479225, 0.008764011, 0.018139703, 0.019386781, 0.029252576, 0.07103689, 0.047273166, 0.01614906, 0.038209558, 0.050216906, 0.081800096, 0.09321032, 0.035155825, 0.0121258125, 0.018263174, -0.005280286, 0.016335912, 0.022462606, 0.01728431, 0.033753507, 0.02582373, -0.010964544, -0.0052338243, 0.0018244006, 0.009958825, 0.00040333203, 0.0065678786, 0.014455792, 0.02401573, 0.017558541, 0.02742702, 0.011625185, 0.015347827, 0.0077516125, 0.012429184, 0.008542964, 0.014139143, 0.022984767, 0.017786806, 0.014436153, 0.026358418, 0.042229373, 0.033765543, 0.028800273, 0.03677301, 0.04727274, 0.07639006, 0.057047363, 0.024793785, 0.018036649, 0.08655413, 0.08836897, 0.10988808, 0.036941014, 0.080589496, 0.13635673, 0.101707175, 0.07526361, 0.127736, 0.14769185, 0.20872368, 0.14126883, 0.056765974, 0.07562774, 0.08449342, 0.050209675, 0.2170363, 0.029060535, 0.034698408, 0.04144855, 0.01822874, 0.05281499, 0.039056942, 0.0656971, 0.044436272, 0.073899515, 0.0829678, 0.10825511, 0.0847544, -0.048621252, -0.03445743, -0.047179177, -0.038496178, -0.037654195, -0.028358145, -0.03749424, -0.04427823, -0.015076, -0.009905528, -0.0071585258, -0.02211998, -0.03726976, -0.031578816, -0.041397788, -0.03500829, -0.031561006, -0.02445375, -0.020163545, -0.012376224, -0.002551336, 0.018756779, -0.017092299, -0.0072331196, -0.028773226, -0.023955736, -0.020106453, -0.013958466, -0.031535212, -0.02209031, -0.012690187, -0.037113026, -0.03978564, -0.009900014, -0.037591986, -0.03149309, -0.028457882, -0.02053221, -0.0137772225, -0.0070897755, -0.007459207, -0.019754622, 0.0031593028, -0.010463764, -0.008816216, 0.0056815674, 0.0028437849, 0.02033214, 0.013300896, 0.026691161, -0.003578601, 0.0068482365, 0.010596454, 0.018405687, 0.026590398, 0.052498724, 0.04130907, 0.062051743, 0.020711282, 0.036985528, 0.04577624, 0.07282608, 0.07387221, 0.062001746, -0.014727526, -0.022850405, -0.0047056805, -0.0032805745, -0.015397146, -0.009226179, -0.006209734, -0.0022263187, 0.003935852, 0.022893962, 0.015129482, 0.032580703, 0.028323108, 0.013298625, 0.056465756, 0.029497253, -0.013869659, -0.010371959, -0.0020370036, -0.006648818, -0.00082701794, 0.005259179, -0.0102504995, -0.0051027737, -0.008115297, -0.020724818, -0.016236885, -0.011593936, -0.010222261, -0.009256842, 0.010622519, -0.0012736558, -0.0047223577, -0.016858904, 0.0013493339, 0.0036870118, -0.0030477848, 0.012656862, 0.0468765, -0.0015820162, 0.030963479, 0.019932194, 0.0017916278, 0.046121035, 0.009913181, -0.008478657, 0.019425543, -0.00604253, 0.08194491, 0.06279025, 0.014537332, 0.012397761, 0.020945169, 0.04827249, 0.055480625, 0.08166305, -0.0028103492, -0.004502445, -0.0033887734, -0.004971117, 0.00037946505, -0.002929738, 0.0024569482, -0.00057920703, -0.00013288067, 0.0036366512, 0.005403404, 0.008493548, 0.00077123556, 0.0048613944, 0.0073080338, 0.012342229, -0.0006661223, -0.00015560644, 0.00045713934, 9.340943e-05, -0.0064059747, 0.0049425913, 0.012666078, 0.0196257, 0.030559374, 0.0074497587, 0.010297218, 0.012248404, 0.020775922, 0.03465749, 0.09615306, 0.04841942, 0.055794016, 0.06549755, 0.039943352, 0.06485284, 0.0056560175, 0.003590585, 0.031955425, 0.013173152, 0.019241517, 0.0758591, 0.066615336, 0.09412561, 0.04367127, 0.072292216, 0.024503507, 0.026585612, 0.09147919, 0.10041146, 0.108654186, 0.035391793, 0.07422048, 0.08335016, 0.034305133, 0.092025526, 0.019404408, 0.01758536, 0.020726483, 0.023307553, 0.019443173, 0.016185522, 0.038073327, 0.039685067, 0.025060588, 0.019238701, 0.012149198, 0.10292271, 0.028667638, 0.07624224, 0.033583216, 0.13999036, 0.12336206, 0.10778905, 0.16084397, 0.03714745, 0.06571436, 0.07891472, -0.009167448, -0.010261202, -0.0069871703, -0.0037302007, -0.008276019, -0.006491663, -0.011117133, -0.00924708, -0.009034708, -0.0067975735, -0.008810277, -0.005891507, -0.004763094, -0.0029929003, -0.006177868, -0.001498252, 0.004721949, -0.00024276179, -0.008309577, -0.0070918216, -0.0052472986, -0.00079009926, -0.005444525, -0.0037001288, -0.0021630458, 0.0010933051, -0.00519886, -0.0031053342, -0.000763784, 0.0019164603, -0.0008348636, 0.0010347159, 0.0031354723, 0.0014944634, 0.0102790035, 0.0015060148, 0.00081591745, 0.0031752402, 0.01777873, 0.021418104, 0.011175238, 0.0030150248, 0.0017269832, 0.0038438938, -0.00023221056, 0.0020071028, -0.0041531348, -0.002329868, 0.00093065854, 0.0023092001, -0.005884136, -0.0048372378, -0.0034294887, -0.0015185694, -0.0033648289, -0.0019908368, -0.00081023615, 0.0011238966, -0.0011296053, -0.0030494446, 8.653614e-05, 0.0013323121, 0.0026758143, 0.004003958, 0.00050975825, 0.0026247199, 0.0005161757, -0.0013934185, -0.0028035957, -0.0010070151, 2.8255956e-05, 0.0022217648, 0.003323036, 0.0040503102, 0.0018822679, 0.0041239923, 0.0051137027, 0.008851459, 0.005219633, 0.0064202314, 0.0079743415, 0.0100628855, 0.014500661, 0.022369321, 0.012929388, 0.015776725, 0.022887968, 0.0041185273, 0.025998222, 0.0067825518, 0.02626116, 0.0065171397, 0.027702652, 0.019018313, 0.0154563105, 0.028452104, 0.009574111, 0.022440054, 0.005132246, 0.0030872312, 0.007022485, 0.0050986125, -0.0022932147, -0.00059401337, 0.0039973585, 0.00582894, 0.005451996, 0.0071544726, 0.0071366015, 0.0032861105, 0.011308096, 0.009162836, 0.008039059, 0.004019597, -0.0040174006, -0.0029686184, -0.0019193575, -0.0010280303, -0.00027540477, 0.00088937854, 0.0027407692, 0.0038640539, -0.00027840497, 0.00070081005, 0.0016381091, 0.0025483235, 0.0036752135, 0.0049609616, 0.006896402, 0.009298042, 0.002315108, 0.0057285684, 0.0071099824, 0.008635823, 0.00269533, 0.0006528894, 0.0046531623, 0.0028798692, 0.005647526, 0.007969465, 0.00391996, 0.006776575, 0.0030975747, 0.007852508, 0.0073413695, 0.009779699, 0.010700521, 0.014546896, 0.008523146, 0.013524373, 0.009041351, 0.0055338647, 0.0105611365, 0.012494052, 0.013210674, 0.017312422, 0.011603039, 0.023888275, 0.016366918, 0.020751212, 0.019063236, 0.027422823, 0.030038742, 0.02238454, 0.03409836, 0.027115444, 0.008919319, 0.012208353, 0.03273562, 0.021593826, 0.03852728, 0.044167615, 0.026893223, 0.03363067, 0.017871713, 0.027591472, 0.04126989, 0.029437462, 0.055968147, 0.025909776, 0.068010464, 0.056737993, 0.03958509, 0.049357485, 0.04552159, 0.06614084, 0.007124871, 0.008951934, 0.008383619, 0.01061652, 0.010492583, 0.01275365, 0.009279981, 0.004323985, 0.0150672635, 0.017287586, 0.017188989, 0.00916333, 0.021946859, 0.018654536, 0.009950462, 0.019262519, 0.022602957, 0.01680292, 0.027460678, 0.024052724, 0.03078561, 0.033887498, 0.026755858, 0.015510305, -0.014134497, -0.01518293, -0.009466496, -0.011859649, -0.015317528, -0.013756867, -0.012882388, -0.010834629, -0.010101918, -0.011522741, -0.0073567177, -0.010110503, -0.011556404, -0.010607116, -0.012850316, -0.01358881, -0.002928637, 0.0017026135, 0.007427489, -0.0068299444, -0.010520309, -0.012045746, -0.010444472, -0.008801802, -0.01386318, -0.012241718, -0.011740833, -0.009158909, -0.008001685, -0.0098962635, -0.007821394, -0.0065315682, -0.006402654, -0.0028112296, 0.001924563, -0.0039919843, -0.0027166808, 0.0018216175, 0.0035080228, 0.009236097, -0.006028336, -0.0043157223, -0.0027414702, 0.0012926325, -0.01041782, -0.008496389, -0.007520969, -0.0068921954, -0.0057538603, -0.0076801027, -0.0045973617, -0.0018995433, -0.009720408, -0.008923876, -0.0072504613, -0.0058723465, -0.011364919, -0.0105412975, -0.012712439, -0.011656594, -0.009829752, -0.011654659, -0.009605622, -0.007433238, -0.008790659, -0.00798896, -0.0052741384, -0.0070715426, -0.0047677625, -0.0036968212, -0.0019880584, -0.0039555067, -0.0038367652, -0.0013601118, -0.006564604, -0.005261149, 9.582262e-05, 0.0017169928, -0.004213596, -0.0025582544, -0.0017240093, -0.004282816, 0.0008359172, 0.0031517588, 0.0019874375, -0.0012978236, 0.004652578, 0.0074046473, 0.0037178232, 0.00526746, 0.0065594674, 0.009343992, -0.0026062918, -0.0007905303, 0.0011767602, 0.0027069333, 0.003933047, 0.0013343568, 0.0052602785, 0.011858706, 0.009119242, 0.0056200335, 0.016334437, 0.011174534, 0.011161999, 0.013437981, 0.017093293, 0.022199988, 0.0036473756, 0.0068615493, 0.009585539, 0.014762028, 0.0153676905, 0.010235186, 0.01836502, 0.023294684, 0.017717674, 0.02320286, 0.01773905, 0.028272493, -0.004609688, -0.0026609213, -0.0073316987, -0.0059615127, -0.004834114, -0.003564299, -0.0040449603, -0.0025681467, -0.0012712984, -0.0023014322, -0.0022323236, -0.0005136106, -0.0008655493, 0.0028890404, 0.008834793, 0.0037668697, 0.008526514, -0.0024287016, 0.007878143, 0.011093603, 0.0070875436, 0.011967915, 0.0031429543, 0.0064674304, 0.0143365795, 0.017896926, 0.007898253, 0.009727565, -0.0054480126, -0.003911689, -0.0056106946, -0.0030568847, -0.0008313802, 0.00040311858, -0.002422296, -0.0017989236, -0.000610595, 0.00027693927, 0.001297039, 0.0029178732, -0.0036319243, -0.0027327265, -0.0017658542, -0.000838705, -0.005306774, -0.006344317, -0.0044167493, -0.0054073306, -0.003615278, -0.0023709678, -0.0007377141, 0.0014837754, -0.0008257214, -0.0016828586, -0.0062795924, -0.0041548605, -0.0011129318, 0.00045317534, 0.0011807894, -0.0008443732, -0.0011035427, -0.00038089, 0.0131605575, 0.01619255, 0.00726935, 0.01084837, 0.0029784725, 0.0075701405, 0.012786301, 0.014329287, 0.0027575474, 0.0044054585, 0.0049488, 0.0071801622, 0.022620125, 0.025866192, 0.017813627, 0.020204026, 0.0044399886, 0.008202449, 0.021222968, 0.012508833, 0.01552284, 0.018416021, 0.025137179, 0.010288086, -0.0015545845, 3.8111397e-05, -0.0016762003, -0.00040370043, -0.00036330317, 0.000710763, 0.00075411797, -0.0016829608, 0.00026794808, -0.00065748557, -0.00066844135, 0.0006442385, 0.001842481, 0.0007244522, 0.0017618932, 0.00071706076, 0.007855931, 0.0024692395, 0.0011485473, 6.2470805e-05, 0.0020086858, 0.001194966, 0.0023815306, 0.0009396731, 0.003615456, 0.0065450016, -0.0034493848, -0.000978957, 0.00054377853, 0.0022982117, 0.004300468, 0.0020166961, 0.004250535, 0.0068402993, 0.007021638, 0.011030791, 0.008787234, 0.0041010655, 0.008387339, 0.011389069, 0.025380576, 0.034457386, 0.0110643655, 0.020645194, 0.019508202, 0.016272103, 0.004084668, 0.01969162, 0.023906225, 0.011349533, 0.029439017, 0.016459482, 0.0012546183, 0.001914855, 0.0076868054, 0.010372225, 0.021741897, 0.023755746, 0.026762886, 0.008800925, 0.026319826, 0.032382272, 0.008456398, 0.014337772, 0.021941587, 0.015882013, 0.028043918, 0.020922638, 0.03063445, 0.026217299, 0.029471328, 0.033063665, 0.02271536, 0.02074432, 0.025578076, 0.023086393, 0.028239617, 0.025639275, 0.019195769, 0.03093163, 0.020947536, 0.025302503, 0.04327175, 0.022886975, 0.043071233, 0.03573228, 0.033079673, 0.028501542, 0.04282709, 0.05422837], "categories": [], "categories_nodes": [], "categories_segments": [], "categories_sizes": [], "default_left": [0, 0, 0, 0, 0, 0, 0, 0, 0, 0, 0, 0, 0, 0, 0, 0, 0, 0, 0, 0, 0, 0, 0, 0, 0, 0, 0, 0, 0, 0, 0, 0, 0, 0, 0, 0, 0, 0, 0, 0, 0, 0, 0, 0, 0, 0, 0, 0, 0, 0, 0, 0, 0, 0, 0, 0, 0, 0, 0, 0, 0, 0, 0, 0, 0, 0, 0, 0, 0, 0, 0, 0, 0, 0, 0, 0, 0, 0, 0, 0, 0, 0, 0, 0, 0, 0, 0, 0, 0, 0, 0, 0, 0, 0, 0, 0, 0, 0, 0, 0, 0, 0, 0, 0, 0, 0, 0, 0, 0, 0, 0, 0, 0, 0, 0, 0, 0, 0, 0, 0, 0, 0, 0, 0, 0, 0, 0, 0, 0, 0, 0, 0, 0, 0, 0, 0, 0, 0, 0, 0, 0, 0, 0, 0, 0, 0, 0, 0, 0, 0, 0, 0, 0, 0, 0, 0, 0, 0, 0, 0, 0, 0, 0, 0, 0, 0, 0, 0, 0, 0, 0, 0, 0, 0, 0, 0, 0, 0, 0, 0, 0, 0, 0, 0, 0, 0, 0, 0, 0, 0, 0, 0, 0, 0, 0, 0, 0, 0, 0, 0, 0, 0, 0, 0, 0, 0, 0, 0, 0, 0, 0, 0, 0, 0, 0, 0, 0, 0, 0, 0, 0, 0, 0, 0, 0, 0, 0, 0, 0, 0, 0, 0, 0, 0, 0, 0, 0, 0, 0, 0, 0, 0, 0, 0, 0, 0, 0, 0, 0, 0, 0, 0, 0, 0, 0, 0, 0, 0, 0, 0, 0, 0, 0, 0, 0, 0, 0, 0, 0, 0, 0, 0, 0, 0, 0, 0, 0, 0, 0, 0, 0, 0, 0, 0, 0, 0, 0, 0, 0, 0, 0, 0, 0, 0, 0, 0, 0, 0, 0, 0, 0, 0, 0, 0, 0, 0, 0, 0, 0, 0, 0, 0, 0, 0, 0, 0, 0, 0, 0, 0, 0, 0, 0, 0, 0, 0, 0, 0, 0, 0, 0, 0, 0, 0, 0, 0, 0, 0, 0, 0, 0, 0, 0, 0, 0, 0, 0, 0, 0, 0, 0, 0, 0, 0, 0, 0, 0, 0, 0, 0, 0, 0, 0, 0, 0, 0, 0, 0, 0, 0, 0, 0, 0, 0, 0, 0, 0, 0, 0, 0, 0, 0, 0, 0, 0, 0, 0, 0, 0, 0, 0, 0, 0, 0, 0, 0, 0, 0, 0, 0, 0, 0, 0, 0, 0, 0, 0, 0, 0, 0, 0, 0, 0, 0, 0, 0, 0, 0, 0, 0, 0, 0, 0, 0, 0, 0, 0, 0, 0, 0, 0, 0, 0, 0, 0, 0, 0, 0, 0, 0, 0, 0, 0, 0, 0, 0, 0, 0, 0, 0, 0, 0, 0, 0, 0, 0, 0, 0, 0, 0, 0, 0, 0, 0, 0, 0, 0, 0, 0, 0, 0, 0, 0, 0, 0, 0, 0, 0, 0, 0, 0, 0, 0, 0, 0, 0, 0, 0, 0, 0, 0, 0, 0, 0, 0, 0, 0, 0, 0, 0, 0, 0, 0, 0, 0, 0, 0, 0, 0, 0, 0, 0, 0, 0, 0, 0, 0, 0, 0, 0, 0, 0, 0, 0, 0, 0, 0, 0, 0, 0, 0, 0, 0, 0, 0, 0, 0, 0, 0, 0, 0, 0, 0, 0, 0, 0, 0, 0, 0, 0, 0, 0, 0, 0, 0, 0, 0, 0, 0, 0, 0, 0, 0, 0, 0, 0, 0, 0, 0, 0, 0, 0, 0, 0, 0, 0, 0, 0, 0, 0, 0, 0, 0, 0, 0, 0, 0, 0, 0, 0, 0, 0, 0, 0, 0, 0, 0, 0, 0, 0, 0, 0, 0, 0, 0, 0, 0, 0, 0, 0, 0, 0, 0, 0, 0, 0, 0, 0, 0, 0, 0, 0, 0, 0, 0, 0, 0, 0, 0, 0, 0, 0, 0, 0, 0, 0, 0, 0, 0, 0, 0, 0, 0, 0, 0, 0, 0, 0, 0, 0, 0, 0, 0, 0, 0, 0, 0, 0, 0, 0, 0, 0, 0, 0, 0, 0, 0, 0, 0, 0, 0, 0, 0, 0, 0, 0, 0, 0, 0, 0, 0, 0, 0, 0, 0, 0, 0, 0, 0, 0, 0, 0, 0, 0, 0, 0, 0, 0, 0, 0, 0, 0, 0, 0, 0, 0, 0, 0, 0, 0, 0, 0, 0, 0, 0, 0, 0, 0, 0, 0, 0, 0, 0, 0, 0, 0, 0, 0, 0, 0, 0, 0, 0, 0, 0, 0, 0, 0, 0, 0, 0, 0, 0, 0, 0, 0, 0, 0, 0, 0, 0, 0, 0, 0, 0, 0, 0, 0, 0, 0, 0, 0, 0, 0, 0, 0, 0, 0, 0, 0, 0, 0, 0, 0, 0, 0, 0, 0, 0, 0, 0, 0, 0, 0, 0, 0, 0, 0, 0, 0, 0, 0, 0, 0, 0, 0, 0, 0, 0, 0, 0, 0, 0, 0, 0, 0, 0, 0, 0, 0, 0, 0, 0, 0, 0, 0, 0, 0, 0, 0, 0, 0, 0, 0, 0, 0, 0, 0, 0, 0, 0, 0, 0, 0, 0, 0, 0, 0, 0, 0, 0, 0, 0, 0, 0, 0, 0, 0, 0, 0, 0, 0, 0, 0, 0, 0, 0, 0, 0, 0, 0, 0, 0, 0, 0, 0, 0, 0, 0, 0, 0, 0, 0, 0, 0, 0, 0, 0, 0, 0, 0, 0, 0, 0, 0, 0, 0, 0, 0, 0, 0, 0, 0, 0, 0, 0, 0, 0, 0, 0, 0, 0, 0, 0, 0, 0, 0, 0, 0, 0, 0, 0, 0, 0, 0, 0, 0, 0, 0, 0, 0, 0, 0, 0, 0, 0, 0, 0, 0, 0, 0, 0, 0, 0, 0, 0, 0, 0, 0, 0, 0, 0, 0, 0, 0, 0, 0, 0, 0, 0, 0, 0, 0, 0, 0, 0, 0, 0, 0, 0, 0, 0, 0, 0, 0, 0, 0, 0, 0, 0, 0, 0, 0, 0, 0, 0, 0, 0, 0, 0, 0, 0, 0, 0, 0, 0, 0, 0, 0, 0, 0, 0, 0, 0, 0, 0, 0, 0, 0, 0, 0, 0, 0, 0, 0, 0, 0, 0, 0, 0, 0, 0, 0, 0, 0, 0, 0, 0, 0, 0, 0, 0, 0, 0, 0, 0, 0, 0, 0, 0, 0, 0, 0, 0, 0, 0, 0, 0, 0, 0, 0, 0, 0, 0, 0, 0, 0, 0, 0, 0, 0, 0, 0, 0, 0, 0, 0, 0, 0, 0, 0, 0, 0, 0, 0, 0, 0, 0, 0, 0, 0, 0, 0, 0, 0, 0, 0, 0, 0, 0, 0, 0, 0, 0, 0, 0, 0, 0, 0, 0, 0, 0, 0, 0, 0, 0, 0, 0, 0, 0, 0, 0, 0, 0, 0, 0, 0, 0, 0, 0, 0, 0, 0, 0, 0, 0, 0, 0, 0, 0, 0, 0, 0, 0, 0, 0, 0, 0, 0, 0, 0, 0, 0, 0, 0, 0, 0, 0, 0, 0, 0, 0, 0, 0, 0, 0, 0, 0, 0, 0, 0, 0, 0, 0, 0, 0, 0, 0, 0, 0, 0, 0, 0, 0, 0, 0, 0, 0, 0, 0, 0, 0, 0, 0, 0, 0, 0, 0, 0, 0, 0, 0, 0, 0, 0, 0, 0, 0, 0, 0, 0, 0, 0, 0, 0, 0, 0, 0, 0, 0, 0, 0, 0, 0, 0, 0, 0, 0, 0, 0, 0, 0, 0, 0, 0, 0, 0], "id": 0, "left_children": [1, 3, 5, 7, 9, 11, 13, 15, 17, 19, 21, 23, 25, 27, 29, 31, 33, 35, 37, 39, 41, 43, 45, 47, 49, 51, 53, -1, 55, 57, -1, 59, 61, 63, 65, 67, 69, 71, 73, 75, 77, 79, 81, 83, 85, 87, 89, 91, 93, 95, 97, 99, 101, 103, 105, -1, -1, 107, 109, 111, 113, 115, 117, 119, 121, 123, 125, 127, 129, 131, 133, 135, 137, 139, 141, 143, 145, 147, 149, 151, 153, 155, 157, 159, 161, 163, 165, 167, 169, 171, 173, 175, 177, 179, 181, 183, 185, 187, 189, 191, 193, 195, 197, 199, 201, 203, 205, -1, -1, -1, 207, 209, 211, 213, 215, 217, 219, 221, 223, 225, 227, 229, 231, 233, 235, 237, 239, 241, 243, 245, 247, 249, 251, 253, 255, 257, 259, 261, 263, 265, 267, 269, 271, 273, 275, 277, 279, 281, 283, 285, 287, 289, 291, 293, 295, 297, 299, 301, 303, 305, 307, 309, 311, 313, 315, 317, 319, -1, 321, 323, 325, 327, 329, 331, 333, 335, 337, 339, 341, -1, 343, 345, 347, 349, 351, 353, 355, 357, 359, -1, -1, 361, 363, 365, 367, 369, 371, 373, 375, 377, 379, 381, 383, 385, -1, 387, 389, 391, -1, 393, -1, 395, 397, 399, 401, 403, 405, 407, 409, 411, 413, 415, 417, 419, 421, 423, 425, 427, 429, 431, 433, 435, 437, 439, 441, 443, 445, 447, 449, 451, 453, 455, 457, 459, 461, 463, 465, 467, -1, 469, 471, 473, 475, 477, 479, 481, 483, 485, 487, 489, 491, 493, 495, 497, 499, 501, 503, 505, 507, 509, -1, 511, -1, 513, 515, 517, 519, 521, 523, 525, 527, 529, 531, 533, 535, 537, 539, 541, 543, 545, 547, 549, 551, 553, 555, 557, 559, 561, 563, 565, 567, 569, 571, 573, 575, 577, 579, 581, 583, 585, 587, 589, 591, 593, 595, 597, 599, 601, 603, 605, -1, 607, -1, 609, 611, 613, 615, 617, 619, 621, 623, 625, 627, 629, 631, -1, 633, 635, 637, 639, 641, -1, 643, 645, 647, -1, -1, 649, 651, 653, 655, 657, 659, 661, 663, 665, 667, 669, 671, 673, 675, 677, 679, -1, -1, 681, 683, 685, 687, -1, 689, 691, 693, -1, -1, -1, -1, -1, 695, -1, -1, 697, -1, -1, -1, 699, -1, 701, 703, 705, 707, 709, -1, -1, 711, 713, -1, 715, -1, 717, 719, 721, 723, 725, 727, 729, 731, -1, -1, 733, 735, 737, 739, 741, 743, 745, 747, 749, 751, 753, 755, 757, 759, 761, 763, 765, 767, 769, 771, 773, 775, 777, 779, 781, 783, 785, 787, 789, 791, 793, 795, 797, 799, 801, 803, 805, 807, 809, 811, 813, 815, 817, 819, 821, 823, 825, 827, 829, 831, 833, 835, 837, 839, 841, 843, -1, -1, -1, -1, 845, 847, 849, 851, 853, 855, 857, 859, 861, 863, 865, 867, 869, -1, -1, 871, 873, 875, 877, 879, 881, 883, 885, 887, 889, 891, 893, -1, -1, -1, -1, 895, 897, 899, 901, 903, 905, 907, 909, 911, 913, 915, 917, 919, 921, 923, 925, 927, 929, 931, 933, 935, -1, -1, 937, 939, 941, 943, 945, 947, 949, 951, 953, 955, 957, 959, 961, 963, 965, 967, 969, 971, 973, 975, -1, 977, 979, -1, 981, 983, 985, 987, 989, 991, 993, 995, 997, 999, 1001, 1003, 1005, 1007, 1009, 1011, 1013, 1015, 1017, 1019, 1021, 1023, 1025, 1027, 1029, 1031, 1033, 1035, 1037, 1039, 1041, 1043, -1, -1, 1045, 1047, 1049, 1051, 1053, 1055, 1057, 1059, 1061, 1063, 1065, 1067, 1069, 1071, 1073, 1075, 1077, 1079, 1081, 1083, -1, 1085, 1087, 1089, -1, -1, -1, 1091, 1093, 1095, 1097, 1099, 1101, -1, 1103, -1, 1105, 1107, -1, 1109, 1111, -1, 1113, -1, 1115, 1117, -1, -1, 1119, 1121, 1123, 1125, -1, 1127, -1, 1129, 1131, 1133, -1, 1135, 1137, 1139, 1141, 1143, 1145, 1147, 1149, 1151, -1, -1, -1, -1, 1153, 1155, 1157, 1159, 1161, -1, -1, -1, 1163, 1165, 1167, 1169, 1171, 1173, 1175, 1177, 1179, -1, 1181, -1, -1, 1183, 1185, 1187, 1189, 1191, -1, -1, 1193, 1195, 1197, -1, 1199, 1201, -1, 1203, -1, -1, -1, -1, -1, -1, -1, -1, -1, -1, -1, 1205, -1, 1207, -1, 1209, 1211, 1213, 1215, -1, -1, -1, -1, -1, -1, -1, -1, -1, -1, -1, -1, -1, -1, -1, -1, -1, -1, -1, -1, -1, -1, -1, -1, -1, -1, -1, -1, -1, -1, -1, -1, -1, -1, -1, -1, -1, -1, -1, -1, -1, -1, -1, -1, -1, -1, -1, -1, -1, -1, -1, -1, -1, -1, -1, -1, -1, -1, -1, -1, -1, -1, -1, -1, -1, -1, -1, -1, -1, -1, -1, -1, -1, -1, -1, -1, -1, -1, -1, -1, -1, -1, -1, -1, -1, -1, -1, -1, -1, -1, -1, -1, -1, -1, -1, -1, -1, -1, -1, -1, -1, -1, -1, -1, -1, -1, -1, -1, -1, -1, -1, -1, -1, -1, -1, -1, -1, -1, -1, -1, -1, -1, -1, -1, -1, -1, -1, -1, -1, -1, -1, -1, -1, -1, -1, -1, -1, -1, -1, -1, -1, -1, -1, -1, -1, -1, -1, -1, -1, -1, -1, -1, -1, -1, -1, -1, -1, -1, -1, -1, -1, -1, -1, -1, -1, -1, -1, -1, -1, -1, -1, -1, -1, -1, -1, -1, -1, -1, -1, -1, -1, -1, -1, -1, -1, -1, -1, -1, -1, -1, -1, -1, -1, -1, -1, -1, -1, -1, -1, -1, -1, -1, -1, -1, -1, -1, -1, -1, -1, -1, -1, -1, -1, -1, -1, -1, -1, -1, -1, -1, -1, -1, -1, -1, -1, -1, -1, -1, -1, -1, -1, -1, -1, -1, -1, -1, -1, -1, -1, -1, -1, -1, -1, -1, -1, -1, -1, -1, -1, -1, -1, -1, -1, -1, -1, -1, -1, -1, -1, -1, -1, -1, -1, -1, -1, -1, -1, -1, -1, -1, -1, -1, -1, -1, -1, -1, -1, -1, -1, -1, -1, -1, -1, -1, -1, -1, -1, -1, -1, -1, -1, -1, -1, -1, -1, -1, -1, -1, -1, -1, -1, -1, -1, -1, -1, -1, -1, -1, -1, -1, -1, -1, -1, -1, -1, -1, -1, -1, -1, -1, -1, -1, -1, -1, -1, -1, -1, -1, -1, -1, -1, -1, -1, -1, -1, -1, -1, -1, -1, -1, -1, -1, -1, -1, -1, -1, -1, -1, -1, -1, -1, -1, -1, -1, -1, -1, -1, -1, -1, -1, -1, -1, -1, -1, -1, -1, -1, -1, -1, -1, -1, -1, -1, -1, -1, -1, -1, -1, -1, -1, -1, -1, -1, -1, -1, -1, -1, -1, -1, -1, -1, -1, -1, -1, -1, -1, -1, -1, -1, -1, -1, -1, -1, -1, -1, -1, -1, -1, -1, -1, -1, -1, -1, -1, -1, -1, -1, -1, -1, -1, -1, -1, -1, -1, -1, -1, -1, -1, -1, -1, -1, -1, -1, -1, -1, -1, -1, -1, -1, -1, -1, -1, -1, -1, -1, -1, -1, -1, -1, -1, -1, -1, -1, -1, -1, -1, -1, -1, -1, -1, -1, -1, -1, -1, -1, -1, -1, -1, -1, -1, -1, -1, -1, -1, -1, -1, -1, -1, -1, -1, -1, -1, -1, -1, -1, -1, -1, -1, -1, -1, -1, -1, -1, -1, -1, -1, -1, -1, -1, -1, -1, -1, -1, -1, -1, -1, -1, -1, -1], "loss_changes": [357.13745, 369.8266, 38.729584, 107.26077, 92.810974, 21.429626, 1.2412567, 24.91356, 57.133545, 49.21924, 9.264823, 5.059965, 8.985291, 0.16658926, 0.90039825, 4.041421, 16.69189, 1.7958016, 42.33493, 22.244171, 13.408042, 2.3291526, 3.084877, 0.19286248, 2.0383167, 2.5342941, 1.0915833, 0.0, 0.034589767, 0.51664734, 0.0, 0.7354822, 1.6476258, 0.5866287, 12.736748, 0.5585133, 1.1086121, 25.90274, 4.4387035, 2.2062683, 1.8552723, 5.39592, 2.298749, 2.9437404, 0.59835064, 1.2745919, 2.211485, 0.031025924, 0.5407274, 0.7662258, 1.3398037, 1.3362427, 0.3305235, 2.0841522, 0.4552536, 0.0, 0.0, 0.15668106, 0.12515259, 0.03520894, 0.50853443, 0.17063376, 1.5807266, 0.21728224, 0.24976337, 4.4357147, 0.32420206, 0.12327029, 0.02409041, 0.36044502, 0.2774701, 4.4089203, 3.8985138, 0.45629692, 0.31371307, 1.7693481, 1.3830857, 5.0192738, 0.70522213, 0.9652519, 1.3569517, 0.4033141, 0.39083147, 0.10037738, 0.91833305, 0.25948125, 0.07079083, 0.08009626, 1.1136353, 0.5992193, 1.5207787, 0.0027890839, 0.006542883, 0.06619769, 0.07448971, 0.07060993, 0.33703518, 0.5789633, 0.06411171, 0.78585196, 0.53778076, 0.08590412, 0.02390027, 0.43644714, 0.12721205, 0.026247025, 0.24760818, 0.0, 0.0, 0.0, 0.05054474, 0.008492947, 0.015177846, 0.1247226, 0.6556814, 0.039662987, 0.08638993, 1.1967454, 0.17062552, 0.030837506, 0.08241157, 0.045636445, 0.17509413, 2.2269115, 1.7987518, 0.10302627, 0.03215456, 0.06260608, 0.0663741, 0.016210154, 0.015240103, 0.084074736, 0.120036125, 0.08365154, 0.033222437, 1.3166885, 1.7192535, 0.9473419, 0.45796967, 0.12131214, 0.051561356, 0.03366804, 0.048973083, 3.5119019, 1.1269646, 0.22445792, 0.01647377, 0.8076992, 2.087833, 0.18675041, 0.11725187, 0.054489136, 0.12514544, 0.54734015, 1.1696702, 0.11672202, 0.30933475, 0.1480012, 0.16140795, 0.00456807, 0.021506757, 0.85572815, 1.2031136, 0.02962175, 0.054292638, 0.011755884, 0.0017619133, 0.0, 0.06291299, 0.05037538, 0.076253176, 0.16607285, 0.063135505, 0.10549641, 0.929163, 0.00041252933, 0.0006180642, 0.0015438504, 0.0023379643, 0.0, 0.0112085715, 0.017648935, 5.0303788e-05, 0.0110523105, 0.008309662, 0.34336436, 0.070082664, 0.061124876, 0.15826702, 0.0, 0.0, 0.070117, 0.0028559268, 0.26506042, 0.18511772, 0.008646965, 0.019718647, 0.0061233044, 0.0016974732, 0.029464722, 0.03748703, 0.020240545, 0.003714025, 0.052640915, 0.0, 0.19552994, 0.14609528, 0.010700226, 0.0, 0.0019094944, 0.0, 0.01868835, 0.0027611852, 0.030782223, 0.02659595, 0.24083179, 0.03778684, 0.00014978647, 0.032936856, 0.017396882, 0.04934185, 0.061641842, 0.79077864, 0.035108775, 0.07657897, 0.0042757094, 0.009682115, 0.03449083, 0.019926645, 0.010855254, 0.0012406763, 0.1735338, 0.031058848, 0.82985497, 0.59046555, 1.0374069, 0.5389719, 0.047260642, 0.14492819, 0.007897377, 0.017786503, 0.01323811, 0.008245731, 0.010830972, 0.008333147, 0.001866214, 0.0008728057, 0.00039736927, 0.0, 0.01553759, 0.009567201, 0.024493396, 0.019930124, 0.01512301, 0.018683434, 0.019141912, 0.012962937, 0.904335, 0.59446716, 1.3878479, 1.0777302, 0.58667755, 0.20085907, 0.1360321, 0.03878212, 0.027562618, 0.06993294, 0.04796028, 0.010626316, 0.0068352222, 0.0, 0.016617775, 0.0, 1.3593063, 1.1476288, 0.5056248, 0.05425644, 0.011052191, 0.23288804, 0.007284045, 0.020899773, 0.11526871, 0.19338894, 1.1301185, 0.13972151, 0.02860856, 0.087994576, 0.034828663, 0.013086557, 0.009970188, 0.026770592, 0.07908034, 0.0071034655, 0.15696812, 0.2579252, 0.4348755, 0.31527898, 0.023639247, 0.069089755, 0.083173156, 0.10743773, 0.03131926, 0.057469606, 0.083307266, 0.011829376, 0.0017557889, 5.031936e-05, 0.004698992, 0.007937588, 0.334176, 0.19125128, 0.12106031, 0.14909029, 0.005125046, 0.0042618364, 0.07377289, 0.002011478, 0.0022689998, 0.0022245198, 0.00016540289, 0.0, 0.04930787, 0.0, 0.0015399493, 0.0005829998, 0.015006632, 0.035559416, 0.097105026, 0.012228608, 0.018722787, 0.025887609, 0.16949463, 5.877018e-05, 1.2566628, 0.1046834, 0.0, 8.629449e-05, 0.00026437268, 5.920664e-05, 0.0003754376, 0.0010646991, 0.0, 0.000845192, 0.0022880216, 0.002956491, 0.0, 0.0, 8.631614e-06, 1.6819395e-06, 0.0014477964, 0.0042965636, 0.0017969906, 0.0008071363, 0.021577328, 0.10134721, 0.039731026, 0.1363895, 0.00045386422, 0.00389418, 0.024534225, 0.03100729, 0.034469724, 0.000869751, 0.0, 0.0, 0.028411865, 0.02529335, 0.02223301, 0.06544113, 0.0, 0.0027649403, 0.009970188, 0.0020449162, 0.0, 0.0, 0.0, 0.0, 0.0, 0.0014953613, 0.0, 0.0, 0.014081836, 0.0, 0.0, 0.0, 0.028253555, 0.0, 0.025999546, 0.030958176, 0.12780762, 0.14762402, 0.14537048, 0.0, 0.0, 0.00037419796, 0.011382155, 0.0, 0.0024476051, 0.0, 0.003088832, 0.008796811, 0.0065113306, 0.0147203505, 0.1123513, 0.22182174, 0.0026105642, 0.01411131, 0.0, 0.0, 0.0060520023, 0.013057334, 0.0059232786, 0.0021137507, 0.0446343, 0.007298041, 0.09111181, 0.04030986, 0.021888256, 0.6238866, 0.010260589, 0.032723267, 0.00734061, 0.0012781639, 0.0011992455, 0.000449989, 0.0024136528, 0.0015603104, 0.006405214, 0.010833884, 0.0042341202, 0.007211915, 0.001306338, 0.0033800155, 0.00031957566, 5.2506104e-05, 0.07511699, 0.035940588, 0.0022821724, 0.006420791, 0.21501255, 0.06900215, 0.28575927, 2.3949656, 1.2613835, 1.6936913, 0.0074135065, 0.1790998, 0.018280804, 0.021532416, 0.004688861, 0.005694583, 0.008689702, 0.015839472, 0.0029981732, 0.03410101, 0.0017070621, 0.001963757, 0.001219081, 0.00032467395, 0.0016721092, 0.0010396522, 0.0010178797, 0.00034169853, 0.00033658743, 6.645918e-06, 0.0, 0.0, 0.0, 0.0, 0.0030440986, 0.005603522, 0.013394237, 0.0136215985, 0.009525988, 0.015230954, 0.023777127, 0.033562124, 0.0054269433, 0.0033216476, 0.016038299, 9.4786286e-05, 0.019388914, 0.0, 0.0, 0.0023469925, 0.5448952, 0.33434296, 0.009642184, 0.35126972, 0.5957184, 0.16550541, 0.2645545, 0.1727953, 0.47015285, 0.2928772, 0.0972662, 0.0, 0.0, 0.0, 0.0, 0.0015182495, 0.005569577, 0.009327173, 0.022583008, 0.0062435046, 0.016821384, 0.04809013, 0.004182577, 0.0058908984, 0.003424883, 0.00084233284, 0.0018754005, 0.0035921335, 0.019844055, 1.1589661, 0.29707336, 0.21691704, 0.021160126, 0.5569, 0.0018627644, 0.008603096, 0.0, 0.0, 0.1267291, 0.04405403, 0.0018739104, 0.0028122663, 0.0029668808, 0.0138165355, 0.041193962, 0.015539885, 0.09427667, 0.09804469, 0.24157357, 0.5009854, 0.03171718, 0.04990957, 0.0039128065, 0.003909588, 0.049740076, 0.031814992, 0.002493143, 0.0020779967, 0.0, 0.000313282, 0.006509781, 0.0, 0.005702853, 0.006820917, 0.0016429424, 0.05840683, 0.00048718974, 0.0015519615, 0.018138982, 0.044917345, 0.012566052, 0.04941535, 0.36570144, 0.031899713, 0.315852, 0.02334845, 0.002276145, 0.0029315501, 0.0053711096, 0.009324633, 0.040605754, 0.05171281, 0.060959578, 0.0031744242, 0.0011063814, 0.0037863255, 0.0138221085, 0.01737547, 0.092600584, 0.0023573637, 0.009724617, 0.013313651, 2.0116568e-06, 0.0015774667, 0.0, 0.0, 0.00015373155, 0.0042798966, 0.0051936284, 0.0018484755, 0.18879403, 0.07756281, 0.26757652, 0.06348848, 0.042432964, 0.03821096, 0.038235188, 0.0014015734, 0.0021261424, 0.0016671568, 0.00056473457, 0.0017344132, 0.010674783, 0.013709828, 0.0007243529, 0.00016247551, 0.0, 3.415346e-05, 0.0016024858, 0.00013582595, 0.0, 0.0, 0.0, 0.02818297, 7.280207e-06, 0.0022473782, 0.00023565476, 0.00029271282, 4.0188228e-05, 0.0, 0.02872181, 0.0, 0.13108206, 0.054006368, 0.0, 0.0016853809, 0.0063567907, 0.0, 0.015506864, 0.0, 0.01991415, 0.01093936, 0.0, 0.0, 0.13630414, 0.4796877, 0.044177055, 0.014259219, 0.0, 2.582428e-05, 0.0, 9.524834e-05, 7.882051e-05, 0.00011622607, 0.0, 0.0005028845, 0.00045868568, 0.0011114613, 0.00028309505, 0.00056546554, 0.00037615284, 0.00056770444, 0.0006042849, 0.00040637702, 0.0, 0.0, 0.0, 0.0, 0.00031454558, 0.00018179102, 0.0017188191, 0.0030386522, 0.0070026666, 0.0, 0.0, 0.0, 0.025253326, 0.002438262, 0.011672974, 0.018408522, 0.005539179, 0.011895657, 0.035086095, 0.14185596, 5.4726843e-05, 0.0, 0.00014228374, 0.0, 0.0, 0.00010752678, 0.045393467, 0.044228554, 0.002162449, 0.0021395683, 0.0, 0.0, 0.027051449, 0.018310547, 0.0016202927, 0.0, 0.00044584274, 0.0010738373, 0.0, 0.015963554, 0.0, 0.0, 0.0, 0.0, 0.0, 0.0, 0.0, 0.0, 0.0, 0.0, 0.0, 0.009189606, 0.0, 0.0054935217, 0.0, 0.010106683, 0.16328049, 0.01523304, 0.04516363, 0.0, 0.0, 0.0, 0.0, 0.0, 0.0, 0.0, 0.0, 0.0, 0.0, 0.0, 0.0, 0.0, 0.0, 0.0, 0.0, 0.0, 0.0, 0.0, 0.0, 0.0, 0.0, 0.0, 0.0, 0.0, 0.0, 0.0, 0.0, 0.0, 0.0, 0.0, 0.0, 0.0, 0.0, 0.0, 0.0, 0.0, 0.0, 0.0, 0.0, 0.0, 0.0, 0.0, 0.0, 0.0, 0.0, 0.0, 0.0, 0.0, 0.0, 0.0, 0.0, 0.0, 0.0, 0.0, 0.0, 0.0, 0.0, 0.0, 0.0, 0.0, 0.0, 0.0, 0.0, 0.0, 0.0, 0.0, 0.0, 0.0, 0.0, 0.0, 0.0, 0.0, 0.0, 0.0, 0.0, 0.0, 0.0, 0.0, 0.0, 0.0, 0.0, 0.0, 0.0, 0.0, 0.0, 0.0, 0.0, 0.0, 0.0, 0.0, 0.0, 0.0, 0.0, 0.0, 0.0, 0.0, 0.0, 0.0, 0.0, 0.0, 0.0, 0.0, 0.0, 0.0, 0.0, 0.0, 0.0, 0.0, 0.0, 0.0, 0.0, 0.0, 0.0, 0.0, 0.0, 0.0, 0.0, 0.0, 0.0, 0.0, 0.0, 0.0, 0.0, 0.0, 0.0, 0.0, 0.0, 0.0, 0.0, 0.0, 0.0, 0.0, 0.0, 0.0, 0.0, 0.0, 0.0, 0.0, 0.0, 0.0, 0.0, 0.0, 0.0, 0.0, 0.0, 0.0, 0.0, 0.0, 0.0, 0.0, 0.0, 0.0, 0.0, 0.0, 0.0, 0.0, 0.0, 0.0, 0.0, 0.0, 0.0, 0.0, 0.0, 0.0, 0.0, 0.0, 0.0, 0.0, 0.0, 0.0, 0.0, 0.0, 0.0, 0.0, 0.0, 0.0, 0.0, 0.0, 0.0, 0.0, 0.0, 0.0, 0.0, 0.0, 0.0, 0.0, 0.0, 0.0, 0.0, 0.0, 0.0, 0.0, 0.0, 0.0, 0.0, 0.0, 0.0, 0.0, 0.0, 0.0, 0.0, 0.0, 0.0, 0.0, 0.0, 0.0, 0.0, 0.0, 0.0, 0.0, 0.0, 0.0, 0.0, 0.0, 0.0, 0.0, 0.0, 0.0, 0.0, 0.0, 0.0, 0.0, 0.0, 0.0, 0.0, 0.0, 0.0, 0.0, 0.0, 0.0, 0.0, 0.0, 0.0, 0.0, 0.0, 0.0, 0.0, 0.0, 0.0, 0.0, 0.0, 0.0, 0.0, 0.0, 0.0, 0.0, 0.0, 0.0, 0.0, 0.0, 0.0, 0.0, 0.0, 0.0, 0.0, 0.0, 0.0, 0.0, 0.0, 0.0, 0.0, 0.0, 0.0, 0.0, 0.0, 0.0, 0.0, 0.0, 0.0, 0.0, 0.0, 0.0, 0.0, 0.0, 0.0, 0.0, 0.0, 0.0, 0.0, 0.0, 0.0, 0.0, 0.0, 0.0, 0.0, 0.0, 0.0, 0.0, 0.0, 0.0, 0.0, 0.0, 0.0, 0.0, 0.0, 0.0, 0.0, 0.0, 0.0, 0.0, 0.0, 0.0, 0.0, 0.0, 0.0, 0.0, 0.0, 0.0, 0.0, 0.0, 0.0, 0.0, 0.0, 0.0, 0.0, 0.0, 0.0, 0.0, 0.0, 0.0, 0.0, 0.0, 0.0, 0.0, 0.0, 0.0, 0.0, 0.0, 0.0, 0.0, 0.0, 0.0, 0.0, 0.0, 0.0, 0.0, 0.0, 0.0, 0.0, 0.0, 0.0, 0.0, 0.0, 0.0, 0.0, 0.0, 0.0, 0.0, 0.0, 0.0, 0.0, 0.0, 0.0, 0.0, 0.0, 0.0, 0.0, 0.0, 0.0, 0.0, 0.0, 0.0, 0.0, 0.0, 0.0, 0.0, 0.0, 0.0, 0.0, 0.0, 0.0, 0.0, 0.0, 0.0, 0.0, 0.0, 0.0, 0.0, 0.0, 0.0, 0.0, 0.0, 0.0, 0.0, 0.0, 0.0, 0.0, 0.0, 0.0, 0.0, 0.0, 0.0, 0.0, 0.0, 0.0, 0.0, 0.0, 0.0, 0.0, 0.0, 0.0, 0.0, 0.0, 0.0, 0.0, 0.0, 0.0, 0.0, 0.0, 0.0, 0.0, 0.0, 0.0, 0.0, 0.0, 0.0, 0.0, 0.0, 0.0, 0.0, 0.0, 0.0, 0.0, 0.0, 0.0, 0.0, 0.0, 0.0, 0.0, 0.0, 0.0, 0.0, 0.0, 0.0, 0.0, 0.0, 0.0, 0.0, 0.0, 0.0, 0.0, 0.0, 0.0, 0.0, 0.0, 0.0, 0.0, 0.0, 0.0, 0.0, 0.0, 0.0, 0.0, 0.0, 0.0, 0.0, 0.0, 0.0, 0.0, 0.0, 0.0, 0.0, 0.0, 0.0, 0.0, 0.0, 0.0, 0.0, 0.0, 0.0, 0.0, 0.0, 0.0, 0.0, 0.0, 0.0, 0.0, 0.0, 0.0, 0.0, 0.0, 0.0, 0.0, 0.0, 0.0, 0.0, 0.0, 0.0, 0.0, 0.0, 0.0, 0.0, 0.0, 0.0, 0.0, 0.0, 0.0, 0.0, 0.0, 0.0, 0.0, 0.0, 0.0, 0.0, 0.0, 0.0, 0.0, 0.0], "parents": [2147483647, 0, 0, 1, 1, 2, 2, 3, 3, 4, 4, 5, 5, 6, 6, 7, 7, 8, 8, 9, 9, 10, 10, 11, 11, 12, 12, 13, 13, 14, 14, 15, 15, 16, 16, 17, 17, 18, 18, 19, 19, 20, 20, 21, 21, 22, 22, 23, 23, 24, 24, 25, 25, 26, 26, 28, 28, 29, 29, 31, 31, 32, 32, 33, 33, 34, 34, 35, 35, 36, 36, 37, 37, 38, 38, 39, 39, 40, 40, 41, 41, 42, 42, 43, 43, 44, 44, 45, 45, 46, 46, 47, 47, 48, 48, 49, 49, 50, 50, 51, 51, 52, 52, 53, 53, 54, 54, 57, 57, 58, 58, 59, 59, 60, 60, 61, 61, 62, 62, 63, 63, 64, 64, 65, 65, 66, 66, 67, 67, 68, 68, 69, 69, 70, 70, 71, 71, 72, 72, 73, 73, 74, 74, 75, 75, 76, 76, 77, 77, 78, 78, 79, 79, 80, 80, 81, 81, 82, 82, 83, 83, 84, 84, 85, 85, 86, 86, 87, 87, 88, 88, 89, 89, 90, 90, 91, 91, 92, 92, 93, 93, 94, 94, 95, 95, 96, 96, 97, 97, 98, 98, 99, 99, 100, 100, 101, 101, 102, 102, 103, 103, 104, 104, 105, 105, 106, 106, 110, 110, 111, 111, 112, 112, 113, 113, 114, 114, 115, 115, 116, 116, 117, 117, 118, 118, 119, 119, 120, 120, 121, 121, 122, 122, 123, 123, 124, 124, 125, 125, 126, 126, 127, 127, 128, 128, 129, 129, 130, 130, 131, 131, 132, 132, 133, 133, 134, 134, 135, 135, 136, 136, 137, 137, 138, 138, 139, 139, 140, 140, 141, 141, 142, 142, 143, 143, 144, 144, 145, 145, 146, 146, 147, 147, 148, 148, 149, 149, 150, 150, 151, 151, 152, 152, 153, 153, 154, 154, 155, 155, 156, 156, 157, 157, 158, 158, 159, 159, 160, 160, 161, 161, 162, 162, 163, 163, 164, 164, 165, 165, 166, 166, 168, 168, 169, 169, 170, 170, 171, 171, 172, 172, 173, 173, 174, 174, 175, 175, 176, 176, 177, 177, 178, 178, 180, 180, 181, 181, 182, 182, 183, 183, 184, 184, 185, 185, 186, 186, 187, 187, 188, 188, 191, 191, 192, 192, 193, 193, 194, 194, 195, 195, 196, 196, 197, 197, 198, 198, 199, 199, 200, 200, 201, 201, 202, 202, 203, 203, 205, 205, 206, 206, 207, 207, 209, 209, 211, 211, 212, 212, 213, 213, 214, 214, 215, 215, 216, 216, 217, 217, 218, 218, 219, 219, 220, 220, 221, 221, 222, 222, 223, 223, 224, 224, 225, 225, 226, 226, 227, 227, 228, 228, 229, 229, 230, 230, 231, 231, 232, 232, 233, 233, 234, 234, 235, 235, 236, 236, 237, 237, 238, 238, 239, 239, 240, 240, 241, 241, 242, 242, 243, 243, 244, 244, 245, 245, 246, 246, 247, 247, 249, 249, 250, 250, 251, 251, 252, 252, 253, 253, 254, 254, 255, 255, 256, 256, 257, 257, 258, 258, 259, 259, 260, 260, 261, 261, 262, 262, 263, 263, 264, 264, 265, 265, 266, 266, 267, 267, 268, 268, 269, 269, 271, 271, 273, 273, 274, 274, 275, 275, 276, 276, 277, 277, 278, 278, 279, 279, 280, 280, 281, 281, 282, 282, 283, 283, 284, 284, 285, 285, 286, 286, 287, 287, 288, 288, 289, 289, 290, 290, 291, 291, 292, 292, 293, 293, 294, 294, 295, 295, 296, 296, 297, 297, 298, 298, 299, 299, 300, 300, 301, 301, 302, 302, 303, 303, 304, 304, 305, 305, 306, 306, 307, 307, 308, 308, 309, 309, 310, 310, 311, 311, 312, 312, 313, 313, 314, 314, 315, 315, 316, 316, 317, 317, 318, 318, 319, 319, 321, 321, 323, 323, 324, 324, 325, 325, 326, 326, 327, 327, 328, 328, 329, 329, 330, 330, 331, 331, 332, 332, 333, 333, 334, 334, 336, 336, 337, 337, 338, 338, 339, 339, 340, 340, 342, 342, 343, 343, 344, 344, 347, 347, 348, 348, 349, 349, 350, 350, 351, 351, 352, 352, 353, 353, 354, 354, 355, 355, 356, 356, 357, 357, 358, 358, 359, 359, 360, 360, 361, 361, 362, 362, 365, 365, 366, 366, 367, 367, 368, 368, 370, 370, 371, 371, 372, 372, 378, 378, 381, 381, 385, 385, 387, 387, 388, 388, 389, 389, 390, 390, 391, 391, 394, 394, 395, 395, 397, 397, 399, 399, 400, 400, 401, 401, 402, 402, 403, 403, 404, 404, 405, 405, 406, 406, 409, 409, 410, 410, 411, 411, 412, 412, 413, 413, 414, 414, 415, 415, 416, 416, 417, 417, 418, 418, 419, 419, 420, 420, 421, 421, 422, 422, 423, 423, 424, 424, 425, 425, 426, 426, 427, 427, 428, 428, 429, 429, 430, 430, 431, 431, 432, 432, 433, 433, 434, 434, 435, 435, 436, 436, 437, 437, 438, 438, 439, 439, 440, 440, 441, 441, 442, 442, 443, 443, 444, 444, 445, 445, 446, 446, 447, 447, 448, 448, 449, 449, 450, 450, 451, 451, 452, 452, 453, 453, 454, 454, 455, 455, 456, 456, 457, 457, 458, 458, 459, 459, 460, 460, 461, 461, 462, 462, 463, 463, 464, 464, 469, 469, 470, 470, 471, 471, 472, 472, 473, 473, 474, 474, 475, 475, 476, 476, 477, 477, 478, 478, 479, 479, 480, 480, 481, 481, 484, 484, 485, 485, 486, 486, 487, 487, 488, 488, 489, 489, 490, 490, 491, 491, 492, 492, 493, 493, 494, 494, 495, 495, 500, 500, 501, 501, 502, 502, 503, 503, 504, 504, 505, 505, 506, 506, 507, 507, 508, 508, 509, 509, 510, 510, 511, 511, 512, 512, 513, 513, 514, 514, 515, 515, 516, 516, 517, 517, 518, 518, 519, 519, 520, 520, 523, 523, 524, 524, 525, 525, 526, 526, 527, 527, 528, 528, 529, 529, 530, 530, 531, 531, 532, 532, 533, 533, 534, 534, 535, 535, 536, 536, 537, 537, 538, 538, 539, 539, 540, 540, 541, 541, 542, 542, 544, 544, 545, 545, 547, 547, 548, 548, 549, 549, 550, 550, 551, 551, 552, 552, 553, 553, 554, 554, 555, 555, 556, 556, 557, 557, 558, 558, 559, 559, 560, 560, 561, 561, 562, 562, 563, 563, 564, 564, 565, 565, 566, 566, 567, 567, 568, 568, 569, 569, 570, 570, 571, 571, 572, 572, 573, 573, 574, 574, 575, 575, 576, 576, 577, 577, 578, 578, 581, 581, 582, 582, 583, 583, 584, 584, 585, 585, 586, 586, 587, 587, 588, 588, 589, 589, 590, 590, 591, 591, 592, 592, 593, 593, 594, 594, 595, 595, 596, 596, 597, 597, 598, 598, 599, 599, 600, 600, 602, 602, 603, 603, 604, 604, 608, 608, 609, 609, 610, 610, 611, 611, 612, 612, 613, 613, 615, 615, 617, 617, 618, 618, 620, 620, 621, 621, 623, 623, 625, 625, 626, 626, 629, 629, 630, 630, 631, 631, 632, 632, 634, 634, 636, 636, 637, 637, 638, 638, 640, 640, 641, 641, 642, 642, 643, 643, 644, 644, 645, 645, 646, 646, 647, 647, 648, 648, 653, 653, 654, 654, 655, 655, 656, 656, 657, 657, 661, 661, 662, 662, 663, 663, 664, 664, 665, 665, 666, 666, 667, 667, 668, 668, 669, 669, 671, 671, 674, 674, 675, 675, 676, 676, 677, 677, 678, 678, 681, 681, 682, 682, 683, 683, 685, 685, 686, 686, 688, 688, 700, 700, 702, 702, 704, 704, 705, 705, 706, 706, 707, 707], "right_children": [2, 4, 6, 8, 10, 12, 14, 16, 18, 20, 22, 24, 26, 28, 30, 32, 34, 36, 38, 40, 42, 44, 46, 48, 50, 52, 54, -1, 56, 58, -1, 60, 62, 64, 66, 68, 70, 72, 74, 76, 78, 80, 82, 84, 86, 88, 90, 92, 94, 96, 98, 100, 102, 104, 106, -1, -1, 108, 110, 112, 114, 116, 118, 120, 122, 124, 126, 128, 130, 132, 134, 136, 138, 140, 142, 144, 146, 148, 150, 152, 154, 156, 158, 160, 162, 164, 166, 168, 170, 172, 174, 176, 178, 180, 182, 184, 186, 188, 190, 192, 194, 196, 198, 200, 202, 204, 206, -1, -1, -1, 208, 210, 212, 214, 216, 218, 220, 222, 224, 226, 228, 230, 232, 234, 236, 238, 240, 242, 244, 246, 248, 250, 252, 254, 256, 258, 260, 262, 264, 266, 268, 270, 272, 274, 276, 278, 280, 282, 284, 286, 288, 290, 292, 294, 296, 298, 300, 302, 304, 306, 308, 310, 312, 314, 316, 318, 320, -1, 322, 324, 326, 328, 330, 332, 334, 336, 338, 340, 342, -1, 344, 346, 348, 350, 352, 354, 356, 358, 360, -1, -1, 362, 364, 366, 368, 370, 372, 374, 376, 378, 380, 382, 384, 386, -1, 388, 390, 392, -1, 394, -1, 396, 398, 400, 402, 404, 406, 408, 410, 412, 414, 416, 418, 420, 422, 424, 426, 428, 430, 432, 434, 436, 438, 440, 442, 444, 446, 448, 450, 452, 454, 456, 458, 460, 462, 464, 466, 468, -1, 470, 472, 474, 476, 478, 480, 482, 484, 486, 488, 490, 492, 494, 496, 498, 500, 502, 504, 506, 508, 510, -1, 512, -1, 514, 516, 518, 520, 522, 524, 526, 528, 530, 532, 534, 536, 538, 540, 542, 544, 546, 548, 550, 552, 554, 556, 558, 560, 562, 564, 566, 568, 570, 572, 574, 576, 578, 580, 582, 584, 586, 588, 590, 592, 594, 596, 598, 600, 602, 604, 606, -1, 608, -1, 610, 612, 614, 616, 618, 620, 622, 624, 626, 628, 630, 632, -1, 634, 636, 638, 640, 642, -1, 644, 646, 648, -1, -1, 650, 652, 654, 656, 658, 660, 662, 664, 666, 668, 670, 672, 674, 676, 678, 680, -1, -1, 682, 684, 686, 688, -1, 690, 692, 694, -1, -1, -1, -1, -1, 696, -1, -1, 698, -1, -1, -1, 700, -1, 702, 704, 706, 708, 710, -1, -1, 712, 714, -1, 716, -1, 718, 720, 722, 724, 726, 728, 730, 732, -1, -1, 734, 736, 738, 740, 742, 744, 746, 748, 750, 752, 754, 756, 758, 760, 762, 764, 766, 768, 770, 772, 774, 776, 778, 780, 782, 784, 786, 788, 790, 792, 794, 796, 798, 800, 802, 804, 806, 808, 810, 812, 814, 816, 818, 820, 822, 824, 826, 828, 830, 832, 834, 836, 838, 840, 842, 844, -1, -1, -1, -1, 846, 848, 850, 852, 854, 856, 858, 860, 862, 864, 866, 868, 870, -1, -1, 872, 874, 876, 878, 880, 882, 884, 886, 888, 890, 892, 894, -1, -1, -1, -1, 896, 898, 900, 902, 904, 906, 908, 910, 912, 914, 916, 918, 920, 922, 924, 926, 928, 930, 932, 934, 936, -1, -1, 938, 940, 942, 944, 946, 948, 950, 952, 954, 956, 958, 960, 962, 964, 966, 968, 970, 972, 974, 976, -1, 978, 980, -1, 982, 984, 986, 988, 990, 992, 994, 996, 998, 1000, 1002, 1004, 1006, 1008, 1010, 1012, 1014, 1016, 1018, 1020, 1022, 1024, 1026, 1028, 1030, 1032, 1034, 1036, 1038, 1040, 1042, 1044, -1, -1, 1046, 1048, 1050, 1052, 1054, 1056, 1058, 1060, 1062, 1064, 1066, 1068, 1070, 1072, 1074, 1076, 1078, 1080, 1082, 1084, -1, 1086, 1088, 1090, -1, -1, -1, 1092, 1094, 1096, 1098, 1100, 1102, -1, 1104, -1, 1106, 1108, -1, 1110, 1112, -1, 1114, -1, 1116, 1118, -1, -1, 1120, 1122, 1124, 1126, -1, 1128, -1, 1130, 1132, 1134, -1, 1136, 1138, 1140, 1142, 1144, 1146, 1148, 1150, 1152, -1, -1, -1, -1, 1154, 1156, 1158, 1160, 1162, -1, -1, -1, 1164, 1166, 1168, 1170, 1172, 1174, 1176, 1178, 1180, -1, 1182, -1, -1, 1184, 1186, 1188, 1190, 1192, -1, -1, 1194, 1196, 1198, -1, 1200, 1202, -1, 1204, -1, -1, -1, -1, -1, -1, -1, -1, -1, -1, -1, 1206, -1, 1208, -1, 1210, 1212, 1214, 1216, -1, -1, -1, -1, -1, -1, -1, -1, -1, -1, -1, -1, -1, -1, -1, -1, -1, -1, -1, -1, -1, -1, -1, -1, -1, -1, -1, -1, -1, -1, -1, -1, -1, -1, -1, -1, -1, -1, -1, -1, -1, -1, -1, -1, -1, -1, -1, -1, -1, -1, -1, -1, -1, -1, -1, -1, -1, -1, -1, -1, -1, -1, -1, -1, -1, -1, -1, -1, -1, -1, -1, -1, -1, -1, -1, -1, -1, -1, -1, -1, -1, -1, -1, -1, -1, -1, -1, -1, -1, -1, -1, -1, -1, -1, -1, -1, -1, -1, -1, -1, -1, -1, -1, -1, -1, -1, -1, -1, -1, -1, -1, -1, -1, -1, -1, -1, -1, -1, -1, -1, -1, -1, -1, -1, -1, -1, -1, -1, -1, -1, -1, -1, -1, -1, -1, -1, -1, -1, -1, -1, -1, -1, -1, -1, -1, -1, -1, -1, -1, -1, -1, -1, -1, -1, -1, -1, -1, -1, -1, -1, -1, -1, -1, -1, -1, -1, -1, -1, -1, -1, -1, -1, -1, -1, -1, -1, -1, -1, -1, -1, -1, -1, -1, -1, -1, -1, -1, -1, -1, -1, -1, -1, -1, -1, -1, -1, -1, -1, -1, -1, -1, -1, -1, -1, -1, -1, -1, -1, -1, -1, -1, -1, -1, -1, -1, -1, -1, -1, -1, -1, -1, -1, -1, -1, -1, -1, -1, -1, -1, -1, -1, -1, -1, -1, -1, -1, -1, -1, -1, -1, -1, -1, -1, -1, -1, -1, -1, -1, -1, -1, -1, -1, -1, -1, -1, -1, -1, -1, -1, -1, -1, -1, -1, -1, -1, -1, -1, -1, -1, -1, -1, -1, -1, -1, -1, -1, -1, -1, -1, -1, -1, -1, -1, -1, -1, -1, -1, -1, -1, -1, -1, -1, -1, -1, -1, -1, -1, -1, -1, -1, -1, -1, -1, -1, -1, -1, -1, -1, -1, -1, -1, -1, -1, -1, -1, -1, -1, -1, -1, -1, -1, -1, -1, -1, -1, -1, -1, -1, -1, -1, -1, -1, -1, -1, -1, -1, -1, -1, -1, -1, -1, -1, -1, -1, -1, -1, -1, -1, -1, -1, -1, -1, -1, -1, -1, -1, -1, -1, -1, -1, -1, -1, -1, -1, -1, -1, -1, -1, -1, -1, -1, -1, -1, -1, -1, -1, -1, -1, -1, -1, -1, -1, -1, -1, -1, -1, -1, -1, -1, -1, -1, -1, -1, -1, -1, -1, -1, -1, -1, -1, -1, -1, -1, -1, -1, -1, -1, -1, -1, -1, -1, -1, -1, -1, -1, -1, -1, -1, -1, -1, -1, -1, -1, -1, -1, -1, -1, -1, -1, -1, -1, -1, -1, -1, -1, -1, -1, -1, -1, -1, -1, -1, -1, -1, -1, -1, -1, -1, -1, -1, -1, -1, -1, -1, -1, -1, -1, -1, -1, -1, -1, -1, -1, -1, -1, -1, -1, -1, -1, -1, -1, -1, -1, -1, -1, -1, -1, -1, -1, -1, -1, -1, -1, -1, -1, -1, -1, -1, -1, -1, -1, -1, -1, -1, -1, -1, -1, -1, -1, -1, -1, -1, -1, -1, -1, -1, -1, -1, -1], "split_conditions": [2547.9849, 0.74596804, 4598.3276, 454.4019, 2512.686, 3.0283294, 2.989741, 357.08704, 0.5077499, 12.5, 2656.869, 3724.645, 3064.7446, 41.204685, 3.7590454, 293.3229, 0.5106423, 0.26030773, 0.670217, 1665.5991, 561.18353, 4.355172, 2.9152799, 2.8174667, 41.204685, 3.7590454, 1567.0133, 0.017099006, 2.8225927, 2256.3171, 0.047212224, 161.97913, 0.5077499, 0.34625423, 0.670217, 1428.8944, 810.1887, 1183.2118, 682.3157, 198.0, 5.0646205, 344.71744, 755.901, 2.7692568, 6.730591, 25.785877, 2230.9182, 2.313744, 29.198404, 2.7692568, 5679.1206, 3.1360548, 4.68434, 3.7590454, 3303.5908, 0.043624893, 0.052882064, 1921.5015, 6804.241, 148.10603, 0.41438785, 0.34625423, 0.670217, 0.26030773, 470.9275, 405.55603, 414.07257, 0.22278476, 0.22278476, 0.34625423, 669.0389, 680.0298, 1122.5371, 533.36835, 1021.9585, 1366.8969, 2.008246, 2.9152799, 6.730591, 247.71066, 1.2720006, 1.2720006, 1.2720006, 2.4272332, 3.1360548, 1520.4313, 7.935123, 2195.6536, 2.7692568, 4.355172, 3010.0, 2353.1296, 2.7550333, 2.8225927, 2.8587155, 3885.1472, 24.667686, 2.7692568, 2.7692568, 3.1251101, 1362.3798, 2767.2356, 5.232831, 3303.5908, 4.68434, 3.6835682, 3.1360548, 0.07003839, 0.080556676, 0.058199998, 3.6950495, 0.7184405, 358.7816, 621.5807, 0.67046326, 0.22278476, 503.83554, 0.5618596, 0.7409399, 0.22278476, 852.2495, 0.4940705, 0.5077499, 4.4223595, 302.30502, 0.7409399, 432.3767, 853.8426, 1099.6304, 1374.9478, 2218.869, 717.0525, 729.10284, 0.34625423, 805.57324, 994.941, 198.0, 0.6353031, 0.6353031, 623.03174, 610.5524, 762.9749, 892.0668, 2.008246, 7.5502167, 433.84787, 2.1434395, 2.4272332, 3.91564, 744.60535, 7.935123, 190.86874, 1.6552924, 465.3037, 583.98486, 0.79347134, 821.5505, 0.79347134, 959.4979, 2.313744, 2120.0244, 20.910755, 1905.7479, 1401.8452, 6.246347, 1733.2017, 868.1945, 0.009858166, 3547.6323, 2.4272332, 3084.9683, 20.386019, 2981.26, 3.7590454, 20.910755, 1750.386, 2906.2292, 2047.1576, 3050.0, 0.014475548, 3547.6323, 1567.0133, 2767.2356, 2.4272332, 3810.4043, 4926.6846, 198.0, 2.4272332, 2353.1296, 0.009490892, 0.04002145, 2767.2356, 2699.552, 2837.4797, 2837.4797, 2642.9375, 3.91564, 2767.2356, 7.034352, 1922.0718, 3517.9775, 3303.5908, 5.232831, 3.67622, 0.028694175, 32.994457, 3810.4043, 3.6835682, 0.08314856, 0.26030773, -0.011684433, 0.670217, 104.211624, 0.26030773, 0.26030773, 0.5618596, 247.71066, 535.2055, 476.9158, 0.43069497, 711.03076, 651.05505, 0.59494376, 0.67046326, 0.74549687, 660.72076, 865.60016, 545.2735, 0.3007384, 0.3839317, 568.5, 573.13837, 525.3529, 0.6353031, 0.5618596, 0.5618596, 4.7342587, 380.91434, 0.74549687, 720.76764, 0.67046326, 755.901, 967.40686, 1000.296, 1214.5659, 1201.1672, 1576.0677, 2.2433145, 0.018605946, 932.2997, 0.3007384, 619.7819, 0.3839317, 1173.1554, 967.40686, 1217.5192, 494.5027, 635.0971, 0.6061519, 0.6353031, 1304.2383, 0.5618596, 0.6653303, 1201.1672, 542.6042, 591.41473, 711.10913, 1126.3134, 0.7409399, 726.8949, 0.027826844, 1698.5184, 0.03819637, 50.0, 360.75153, 2.4371874, 7.935123, 490.59323, 755.901, 2.082353, 2.4195287, 2013.0459, 2218.869, 3.1360548, 1679.9486, 655.4091, 1217.5192, 1401.8452, 533.77625, 1.6552924, 1.2720006, 1.2720006, 301.51523, 0.79347134, 0.79347134, 1.6552924, 1.6552924, 833.8696, 623.03174, 588.44403, 1.6552924, 1214.5659, 682.3157, 1.6552924, 1.3008091, 1.9157155, 2563.7322, 1563.3347, 22.148626, 2981.066, 2.8174667, 3.6835682, 3.7590454, 1874.5194, 4.68434, 1733.2017, 1871.2405, 1493.6012, 1940.4021, 712.0364, -0.0070781843, 3010.0, 0.013748929, 1.9932791, 1922.0718, 1362.3798, 2.8587155, 14.039839, 1435.3926, 6.467859, 5.4150143, 1220.3445, 11.152957, 3.1360548, 3.409357, -0.0038111343, 3449.6921, 2.1724136, 1921.5015, 2.6690526, 2.4272332, 0.010534931, 1362.3798, 3449.6921, 2.9152799, 0.015188966, 0.020253679, 2699.552, 95.0, 2594.4773, 3993.7444, 2.6690526, 3309.2527, 3993.7444, 1663.8427, 3233.9988, 2.9152799, 3303.5908, 3810.4043, 2194.3096, 2.8174667, 20.910755, 2906.2292, 0.0086716665, 0.010449378, 2642.9375, 3.5364065, 2699.552, 1478.8307, 0.01642123, 1049.2063, 1744.4299, 4.355172, 0.01072219, 0.012849188, 0.0058751353, 0.0015109864, 0.03358413, 3201.1108, 0.04303309, 0.04632891, 4.355172, 0.0282954, 0.016381707, 0.007588045, 2353.1296, 0.03785994, 3.1251101, 5679.1206, 3.6835682, 3.7590454, 3.67622, 0.061999425, -0.012761126, 0.67046326, 155.31715, -0.008700194, 0.5618596, -0.00914201, 153.854, 490.59323, 115.17131, 622.75635, 200.21754, 0.59494376, 175.43532, 197.17584, -0.00779984, -0.0057542236, 702.6963, 760.28265, 368.34326, 443.07953, 0.43069497, 0.3839317, 0.5178671, 583.98486, 448.6609, 3.7636664, 468.17847, 0.7019199, 663.0536, 421.82306, 615.75134, 723.09357, 803.7179, 932.2997, 4.7942896, 0.32906058, 878.58484, 0.32906058, 4.884918, 0.41438785, 457.05606, 0.5077499, 0.43069497, 680.0298, 496.5593, 558.2847, 0.5618596, 385.1445, 0.5178671, 0.59494376, 0.5178671, 0.6353031, 430.11157, 750.86865, 0.67046326, 0.67046326, 558.2847, 493.80048, 0.7019199, 0.67046326, 254.87505, 888.4553, 701.2457, 810.1887, 880.9952, 726.8949, 958.10596, 1054.5073, 1153.501, 482.10385, 409.81055, 2119.059, 0.011625185, 0.015347827, 0.0077516125, 0.012429184, 7.7705145, 0.3007384, 0.28746742, 0.32906058, 0.43069497, 0.43069497, 0.35110605, 0.43069497, 8.538549, 1353.2346, 0.43069497, 274.23578, 0.43069497, 0.024793785, 0.018036649, 4.1825395, 314.8879, 0.6353031, 821.5505, 0.6353031, 729.10284, 0.6653303, 635.60333, 482.10385, 0.5178671, 0.59494376, 1365.2188, 0.056765974, 0.07562774, 0.08449342, 0.050209675, 0.6379265, 0.7019199, 0.7019199, 0.7019199, 0.6727225, 723.09357, 0.67046326, 0.67046326, 0.74549687, 0.7409399, 502.4779, 1074.4608, 0.7184405, 190.86874, 485.58, 651.05505, 2.6643186, 1.9157155, 6.246347, 477.69638, 8.312699, -0.015076, -0.009905528, 987.73315, 320.77774, 2.0608845, 726.8949, 1010.43585, 1412.8231, 1.9997336, 2.313744, 19.500986, 1936.7565, 758.7491, 1464.8767, 1112.0327, 712.0364, 253.57953, 708.41473, 6.1030684, 1060.1576, 1201.1672, 1602.813, -0.012690187, 1037.0801, 1.2720006, -0.009900014, 0.79347134, 1.6552924, 2.8700387, 1.4776367, 449.61447, 2.294153, 553.3164, 305.00427, 504.4803, 372.88028, 1.4776367, 410.8415, 1.4776367, 490.95395, 608.22363, 492.11646, 275.71585, 508.6452, 1.4776367, 1.6552924, 1.4776367, 4.7942896, 818.9148, 1328.9352, 605.01074, 792.48096, 1.4776367, 810.1887, 1.2759819, 1.5556093, 1326.8917, 2.1724136, -0.0047056805, -0.0032805745, 2.7550333, 2.4371874, 2.6690526, 2.5046487, 2.9152799, 965.4276, 2.7967153, 2380.9849, 1705.912, 1733.2017, 2380.9849, 2005.0562, 1252.1965, 1172.8522, 2380.9849, 4.8005533, 1654.1387, 1905.7479, 1759.8087, 1971.389, -0.008115297, 7.034352, 7.2006145, 3084.9683, -0.010222261, -0.009256842, 0.010622519, 3294.9858, 29.198404, 2.1724136, 2269.5327, 3076.1938, 1258.1943, 0.012656862, 2.8225927, -0.0015820162, 2043.7509, 3.0283294, 0.0017916278, 1642.4619, 2043.7509, -0.008478657, 3177.8328, -0.00604253, 2382.2332, 2417.0886, 0.014537332, 0.012397761, 3.0283294, 3.7590454, 1828.9159, 3.7590454, -0.0028103492, 3177.8328, -0.0033887734, 3547.6323, 3296.1677, 37.101208, 0.0024569482, 1300.3726, 3233.9988, 2.6690526, 2.7692568, 1922.0718, 2.8351607, 1922.0718, 23.736185, 2.989741, -0.0006661223, -0.00015560644, 0.00045713934, 9.340943e-05, 2.1724136, 3303.5908, 2.7452707, 2.4371874, 2.5046487, 0.0074497587, 0.010297218, 0.012248404, 2699.552, 19.500986, 3517.9775, 2.9152799, 1300.3726, 3790.458, 2.7967153, 2.9794407, 2005.502, 0.003590585, 2811.0745, 0.013173152, 0.019241517, 1750.386, 2.7967153, 2594.4773, 17.31956, 3575.7747, 0.024503507, 0.026585612, 1300.3726, 3503.5015, 1744.4299, 0.035391793, 3.67622, 3.6835682, 0.034305133, 3.6835682, 0.019404408, 0.01758536, 0.020726483, 0.023307553, 0.019443173, 0.016185522, 0.038073327, 0.039685067, 0.025060588, 0.019238701, 0.012149198, 3.0977051, 0.028667638, 2961.637, 0.033583216, 3.1251101, 1834.9015, 3.7590454, 4762.7275, 0.03714745, 0.06571436, 0.07891472, -0.009167448, -0.010261202, -0.0069871703, -0.0037302007, -0.008276019, -0.006491663, -0.011117133, -0.00924708, -0.009034708, -0.0067975735, -0.008810277, -0.005891507, -0.004763094, -0.0029929003, -0.006177868, -0.001498252, 0.004721949, -0.00024276179, -0.008309577, -0.0070918216, -0.0052472986, -0.00079009926, -0.005444525, -0.0037001288, -0.0021630458, 0.0010933051, -0.00519886, -0.0031053342, -0.000763784, 0.0019164603, -0.0008348636, 0.0010347159, 0.0031354723, 0.0014944634, 0.0102790035, 0.0015060148, 0.00081591745, 0.0031752402, 0.01777873, 0.021418104, 0.011175238, 0.0030150248, 0.0017269832, 0.0038438938, -0.00023221056, 0.0020071028, -0.0041531348, -0.002329868, 0.00093065854, 0.0023092001, -0.005884136, -0.0048372378, -0.0034294887, -0.0015185694, -0.0033648289, -0.0019908368, -0.00081023615, 0.0011238966, -0.0011296053, -0.0030494446, 8.653614e-05, 0.0013323121, 0.0026758143, 0.004003958, 0.00050975825, 0.0026247199, 0.0005161757, -0.0013934185, -0.0028035957, -0.0010070151, 2.8255956e-05, 0.0022217648, 0.003323036, 0.0040503102, 0.0018822679, 0.0041239923, 0.0051137027, 0.008851459, 0.005219633, 0.0064202314, 0.0079743415, 0.0100628855, 0.014500661, 0.022369321, 0.012929388, 0.015776725, 0.022887968, 0.0041185273, 0.025998222, 0.0067825518, 0.02626116, 0.0065171397, 0.027702652, 0.019018313, 0.0154563105, 0.028452104, 0.009574111, 0.022440054, 0.005132246, 0.0030872312, 0.007022485, 0.0050986125, -0.0022932147, -0.00059401337, 0.0039973585, 0.00582894, 0.005451996, 0.0071544726, 0.0071366015, 0.0032861105, 0.011308096, 0.009162836, 0.008039059, 0.004019597, -0.0040174006, -0.0029686184, -0.0019193575, -0.0010280303, -0.00027540477, 0.00088937854, 0.0027407692, 0.0038640539, -0.00027840497, 0.00070081005, 0.0016381091, 0.0025483235, 0.0036752135, 0.0049609616, 0.006896402, 0.009298042, 0.002315108, 0.0057285684, 0.0071099824, 0.008635823, 0.00269533, 0.0006528894, 0.0046531623, 0.0028798692, 0.005647526, 0.007969465, 0.00391996, 0.006776575, 0.0030975747, 0.007852508, 0.0073413695, 0.009779699, 0.010700521, 0.014546896, 0.008523146, 0.013524373, 0.009041351, 0.0055338647, 0.0105611365, 0.012494052, 0.013210674, 0.017312422, 0.011603039, 0.023888275, 0.016366918, 0.020751212, 0.019063236, 0.027422823, 0.030038742, 0.02238454, 0.03409836, 0.027115444, 0.008919319, 0.012208353, 0.03273562, 0.021593826, 0.03852728, 0.044167615, 0.026893223, 0.03363067, 0.017871713, 0.027591472, 0.04126989, 0.029437462, 0.055968147, 0.025909776, 0.068010464, 0.056737993, 0.03958509, 0.049357485, 0.04552159, 0.06614084, 0.007124871, 0.008951934, 0.008383619, 0.01061652, 0.010492583, 0.01275365, 0.009279981, 0.004323985, 0.0150672635, 0.017287586, 0.017188989, 0.00916333, 0.021946859, 0.018654536, 0.009950462, 0.019262519, 0.022602957, 0.01680292, 0.027460678, 0.024052724, 0.03078561, 0.033887498, 0.026755858, 0.015510305, -0.014134497, -0.01518293, -0.009466496, -0.011859649, -0.015317528, -0.013756867, -0.012882388, -0.010834629, -0.010101918, -0.011522741, -0.0073567177, -0.010110503, -0.011556404, -0.010607116, -0.012850316, -0.01358881, -0.002928637, 0.0017026135, 0.007427489, -0.0068299444, -0.010520309, -0.012045746, -0.010444472, -0.008801802, -0.01386318, -0.012241718, -0.011740833, -0.009158909, -0.008001685, -0.0098962635, -0.007821394, -0.0065315682, -0.006402654, -0.0028112296, 0.001924563, -0.0039919843, -0.0027166808, 0.0018216175, 0.0035080228, 0.009236097, -0.006028336, -0.0043157223, -0.0027414702, 0.0012926325, -0.01041782, -0.008496389, -0.007520969, -0.0068921954, -0.0057538603, -0.0076801027, -0.0045973617, -0.0018995433, -0.009720408, -0.008923876, -0.0072504613, -0.0058723465, -0.011364919, -0.0105412975, -0.012712439, -0.011656594, -0.009829752, -0.011654659, -0.009605622, -0.007433238, -0.008790659, -0.00798896, -0.0052741384, -0.0070715426, -0.0047677625, -0.0036968212, -0.0019880584, -0.0039555067, -0.0038367652, -0.0013601118, -0.006564604, -0.005261149, 9.582262e-05, 0.0017169928, -0.004213596, -0.0025582544, -0.0017240093, -0.004282816, 0.0008359172, 0.0031517588, 0.0019874375, -0.0012978236, 0.004652578, 0.0074046473, 0.0037178232, 0.00526746, 0.0065594674, 0.009343992, -0.0026062918, -0.0007905303, 0.0011767602, 0.0027069333, 0.003933047, 0.0013343568, 0.0052602785, 0.011858706, 0.009119242, 0.0056200335, 0.016334437, 0.011174534, 0.011161999, 0.013437981, 0.017093293, 0.022199988, 0.0036473756, 0.0068615493, 0.009585539, 0.014762028, 0.0153676905, 0.010235186, 0.01836502, 0.023294684, 0.017717674, 0.02320286, 0.01773905, 0.028272493, -0.004609688, -0.0026609213, -0.0073316987, -0.0059615127, -0.004834114, -0.003564299, -0.0040449603, -0.0025681467, -0.0012712984, -0.0023014322, -0.0022323236, -0.0005136106, -0.0008655493, 0.0028890404, 0.008834793, 0.0037668697, 0.008526514, -0.0024287016, 0.007878143, 0.011093603, 0.0070875436, 0.011967915, 0.0031429543, 0.0064674304, 0.0143365795, 0.017896926, 0.007898253, 0.009727565, -0.0054480126, -0.003911689, -0.0056106946, -0.0030568847, -0.0008313802, 0.00040311858, -0.002422296, -0.0017989236, -0.000610595, 0.00027693927, 0.001297039, 0.0029178732, -0.0036319243, -0.0027327265, -0.0017658542, -0.000838705, -0.005306774, -0.006344317, -0.0044167493, -0.0054073306, -0.003615278, -0.0023709678, -0.0007377141, 0.0014837754, -0.0008257214, -0.0016828586, -0.0062795924, -0.0041548605, -0.0011129318, 0.00045317534, 0.0011807894, -0.0008443732, -0.0011035427, -0.00038089, 0.0131605575, 0.01619255, 0.00726935, 0.01084837, 0.0029784725, 0.0075701405, 0.012786301, 0.014329287, 0.0027575474, 0.0044054585, 0.0049488, 0.0071801622, 0.022620125, 0.025866192, 0.017813627, 0.020204026, 0.0044399886, 0.008202449, 0.021222968, 0.012508833, 0.01552284, 0.018416021, 0.025137179, 0.010288086, -0.0015545845, 3.8111397e-05, -0.0016762003, -0.00040370043, -0.00036330317, 0.000710763, 0.00075411797, -0.0016829608, 0.00026794808, -0.00065748557, -0.00066844135, 0.0006442385, 0.001842481, 0.0007244522, 0.0017618932, 0.00071706076, 0.007855931, 0.0024692395, 0.0011485473, 6.2470805e-05, 0.0020086858, 0.001194966, 0.0023815306, 0.0009396731, 0.003615456, 0.0065450016, -0.0034493848, -0.000978957, 0.00054377853, 0.0022982117, 0.004300468, 0.0020166961, 0.004250535, 0.0068402993, 0.007021638, 0.011030791, 0.008787234, 0.0041010655, 0.008387339, 0.011389069, 0.025380576, 0.034457386, 0.0110643655, 0.020645194, 0.019508202, 0.016272103, 0.004084668, 0.01969162, 0.023906225, 0.011349533, 0.029439017, 0.016459482, 0.0012546183, 0.001914855, 0.0076868054, 0.010372225, 0.021741897, 0.023755746, 0.026762886, 0.008800925, 0.026319826, 0.032382272, 0.008456398, 0.014337772, 0.021941587, 0.015882013, 0.028043918, 0.020922638, 0.03063445, 0.026217299, 0.029471328, 0.033063665, 0.02271536, 0.02074432, 0.025578076, 0.023086393, 0.028239617, 0.025639275, 0.019195769, 0.03093163, 0.020947536, 0.025302503, 0.04327175, 0.022886975, 0.043071233, 0.03573228, 0.033079673, 0.028501542, 0.04282709, 0.05422837], "split_indices": [7, 1, 7, 6, 9, 1, 1, 6, 1, 4, 8, 9, 7, 0, 1, 6, 1, 1, 1, 9, 7, 1, 1, 1, 0, 1, 5, 0, 1, 5, 0, 6, 1, 1, 1, 8, 7, 8, 6, 2, 1, 7, 7, 1, 1, 0, 7, 1, 0, 1, 9, 1, 1, 1, 7, 0, 0, 5, 9, 6, 1, 1, 1, 1, 7, 6, 6, 1, 1, 1, 6, 7, 7, 6, 7, 9, 1, 1, 1, 7, 1, 1, 1, 1, 1, 7, 1, 7, 1, 1, 3, 6, 1, 1, 1, 8, 0, 1, 1, 1, 5, 7, 1, 7, 1, 1, 1, 0, 0, 0, 1, 1, 9, 9, 1, 1, 8, 1, 1, 1, 8, 1, 1, 0, 5, 1, 6, 7, 8, 7, 9, 7, 7, 1, 6, 9, 2, 1, 1, 7, 6, 6, 6, 1, 1, 8, 1, 1, 1, 6, 1, 7, 1, 7, 8, 1, 8, 1, 7, 1, 7, 0, 7, 7, 1, 7, 5, 0, 9, 1, 9, 0, 8, 1, 0, 5, 7, 6, 3, 0, 9, 5, 7, 1, 7, 9, 2, 1, 6, 0, 0, 7, 7, 7, 7, 7, 1, 7, 1, 6, 7, 7, 1, 1, 0, 0, 7, 1, 0, 1, 0, 1, 5, 1, 1, 1, 7, 7, 7, 1, 8, 9, 1, 1, 1, 7, 8, 7, 1, 1, 8, 7, 7, 1, 1, 1, 0, 6, 1, 8, 1, 7, 7, 8, 8, 7, 7, 0, 0, 8, 1, 7, 1, 8, 7, 7, 5, 7, 1, 1, 9, 1, 1, 7, 5, 7, 7, 9, 1, 6, 0, 9, 0, 2, 5, 1, 1, 9, 7, 1, 1, 9, 9, 1, 8, 6, 7, 7, 5, 1, 1, 1, 7, 1, 1, 1, 1, 8, 7, 7, 1, 8, 6, 1, 1, 1, 8, 6, 0, 9, 1, 1, 1, 8, 1, 7, 7, 7, 7, 5, 0, 3, 0, 1, 6, 5, 1, 0, 6, 1, 1, 5, 0, 1, 1, 0, 9, 1, 5, 1, 1, 0, 5, 9, 1, 0, 0, 7, 2, 6, 9, 1, 6, 9, 5, 8, 1, 7, 7, 6, 1, 0, 7, 0, 0, 7, 1, 7, 5, 0, 5, 6, 1, 0, 0, 0, 0, 0, 7, 0, 0, 1, 0, 0, 0, 6, 0, 1, 9, 1, 1, 1, 0, 0, 1, 6, 0, 1, 0, 5, 9, 5, 8, 6, 1, 6, 5, 0, 0, 9, 8, 7, 7, 1, 1, 1, 8, 7, 0, 7, 1, 8, 7, 7, 7, 8, 8, 0, 1, 8, 1, 0, 1, 7, 1, 1, 7, 7, 7, 1, 6, 1, 1, 1, 1, 6, 8, 1, 1, 7, 7, 1, 1, 5, 9, 7, 7, 7, 6, 8, 8, 8, 5, 5, 9, 0, 0, 0, 0, 0, 1, 1, 1, 1, 1, 1, 1, 0, 8, 1, 5, 1, 0, 0, 0, 5, 1, 8, 1, 7, 1, 6, 5, 1, 1, 8, 0, 0, 0, 0, 1, 1, 1, 1, 1, 7, 1, 1, 1, 1, 5, 7, 1, 7, 7, 9, 1, 1, 1, 5, 1, 0, 0, 9, 5, 1, 6, 8, 9, 1, 1, 0, 8, 5, 7, 7, 5, 5, 6, 1, 6, 7, 7, 0, 6, 1, 0, 1, 1, 0, 1, 9, 0, 8, 6, 7, 6, 1, 7, 1, 7, 7, 6, 5, 6, 1, 1, 1, 0, 7, 8, 6, 6, 1, 7, 1, 1, 5, 1, 0, 0, 1, 1, 1, 1, 1, 5, 1, 8, 7, 7, 8, 7, 7, 7, 8, 1, 7, 7, 7, 7, 0, 1, 1, 9, 0, 0, 0, 9, 0, 1, 7, 8, 5, 0, 1, 0, 7, 1, 0, 6, 7, 0, 8, 0, 7, 7, 0, 0, 1, 1, 6, 1, 0, 8, 0, 9, 8, 0, 0, 5, 8, 1, 1, 6, 1, 6, 0, 1, 0, 0, 0, 0, 1, 7, 1, 1, 1, 0, 0, 0, 7, 0, 7, 1, 5, 9, 1, 1, 5, 0, 6, 0, 0, 5, 1, 6, 0, 8, 0, 0, 5, 8, 6, 0, 1, 1, 0, 1, 0, 0, 0, 0, 0, 0, 0, 0, 0, 0, 0, 1, 0, 6, 0, 1, 5, 1, 8, 0, 0, 0, 0, 0, 0, 0, 0, 0, 0, 0, 0, 0, 0, 0, 0, 0, 0, 0, 0, 0, 0, 0, 0, 0, 0, 0, 0, 0, 0, 0, 0, 0, 0, 0, 0, 0, 0, 0, 0, 0, 0, 0, 0, 0, 0, 0, 0, 0, 0, 0, 0, 0, 0, 0, 0, 0, 0, 0, 0, 0, 0, 0, 0, 0, 0, 0, 0, 0, 0, 0, 0, 0, 0, 0, 0, 0, 0, 0, 0, 0, 0, 0, 0, 0, 0, 0, 0, 0, 0, 0, 0, 0, 0, 0, 0, 0, 0, 0, 0, 0, 0, 0, 0, 0, 0, 0, 0, 0, 0, 0, 0, 0, 0, 0, 0, 0, 0, 0, 0, 0, 0, 0, 0, 0, 0, 0, 0, 0, 0, 0, 0, 0, 0, 0, 0, 0, 0, 0, 0, 0, 0, 0, 0, 0, 0, 0, 0, 0, 0, 0, 0, 0, 0, 0, 0, 0, 0, 0, 0, 0, 0, 0, 0, 0, 0, 0, 0, 0, 0, 0, 0, 0, 0, 0, 0, 0, 0, 0, 0, 0, 0, 0, 0, 0, 0, 0, 0, 0, 0, 0, 0, 0, 0, 0, 0, 0, 0, 0, 0, 0, 0, 0, 0, 0, 0, 0, 0, 0, 0, 0, 0, 0, 0, 0, 0, 0, 0, 0, 0, 0, 0, 0, 0, 0, 0, 0, 0, 0, 0, 0, 0, 0, 0, 0, 0, 0, 0, 0, 0, 0, 0, 0, 0, 0, 0, 0, 0, 0, 0, 0, 0, 0, 0, 0, 0, 0, 0, 0, 0, 0, 0, 0, 0, 0, 0, 0, 0, 0, 0, 0, 0, 0, 0, 0, 0, 0, 0, 0, 0, 0, 0, 0, 0, 0, 0, 0, 0, 0, 0, 0, 0, 0, 0, 0, 0, 0, 0, 0, 0, 0, 0, 0, 0, 0, 0, 0, 0, 0, 0, 0, 0, 0, 0, 0, 0, 0, 0, 0, 0, 0, 0, 0, 0, 0, 0, 0, 0, 0, 0, 0, 0, 0, 0, 0, 0, 0, 0, 0, 0, 0, 0, 0, 0, 0, 0, 0, 0, 0, 0, 0, 0, 0, 0, 0, 0, 0, 0, 0, 0, 0, 0, 0, 0, 0, 0, 0, 0, 0, 0, 0, 0, 0, 0, 0, 0, 0, 0, 0, 0, 0, 0, 0, 0, 0, 0, 0, 0, 0, 0, 0, 0, 0, 0, 0, 0, 0, 0, 0, 0, 0, 0, 0, 0, 0, 0, 0, 0, 0, 0, 0, 0, 0, 0, 0, 0, 0, 0, 0, 0, 0, 0, 0, 0, 0, 0, 0, 0, 0, 0, 0, 0, 0, 0, 0, 0, 0, 0, 0, 0, 0, 0, 0, 0, 0, 0, 0, 0, 0, 0, 0, 0, 0, 0, 0, 0, 0, 0, 0, 0, 0, 0, 0, 0, 0, 0, 0, 0, 0, 0, 0, 0, 0, 0, 0, 0, 0, 0, 0, 0, 0, 0, 0, 0, 0, 0, 0, 0, 0, 0, 0, 0, 0, 0, 0, 0, 0, 0, 0, 0, 0, 0, 0, 0, 0, 0, 0, 0, 0], "split_type": [0, 0, 0, 0, 0, 0, 0, 0, 0, 0, 0, 0, 0, 0, 0, 0, 0, 0, 0, 0, 0, 0, 0, 0, 0, 0, 0, 0, 0, 0, 0, 0, 0, 0, 0, 0, 0, 0, 0, 0, 0, 0, 0, 0, 0, 0, 0, 0, 0, 0, 0, 0, 0, 0, 0, 0, 0, 0, 0, 0, 0, 0, 0, 0, 0, 0, 0, 0, 0, 0, 0, 0, 0, 0, 0, 0, 0, 0, 0, 0, 0, 0, 0, 0, 0, 0, 0, 0, 0, 0, 0, 0, 0, 0, 0, 0, 0, 0, 0, 0, 0, 0, 0, 0, 0, 0, 0, 0, 0, 0, 0, 0, 0, 0, 0, 0, 0, 0, 0, 0, 0, 0, 0, 0, 0, 0, 0, 0, 0, 0, 0, 0, 0, 0, 0, 0, 0, 0, 0, 0, 0, 0, 0, 0, 0, 0, 0, 0, 0, 0, 0, 0, 0, 0, 0, 0, 0, 0, 0, 0, 0, 0, 0, 0, 0, 0, 0, 0, 0, 0, 0, 0, 0, 0, 0, 0, 0, 0, 0, 0, 0, 0, 0, 0, 0, 0, 0, 0, 0, 0, 0, 0, 0, 0, 0, 0, 0, 0, 0, 0, 0, 0, 0, 0, 0, 0, 0, 0, 0, 0, 0, 0, 0, 0, 0, 0, 0, 0, 0, 0, 0, 0, 0, 0, 0, 0, 0, 0, 0, 0, 0, 0, 0, 0, 0, 0, 0, 0, 0, 0, 0, 0, 0, 0, 0, 0, 0, 0, 0, 0, 0, 0, 0, 0, 0, 0, 0, 0, 0, 0, 0, 0, 0, 0, 0, 0, 0, 0, 0, 0, 0, 0, 0, 0, 0, 0, 0, 0, 0, 0, 0, 0, 0, 0, 0, 0, 0, 0, 0, 0, 0, 0, 0, 0, 0, 0, 0, 0, 0, 0, 0, 0, 0, 0, 0, 0, 0, 0, 0, 0, 0, 0, 0, 0, 0, 0, 0, 0, 0, 0, 0, 0, 0, 0, 0, 0, 0, 0, 0, 0, 0, 0, 0, 0, 0, 0, 0, 0, 0, 0, 0, 0, 0, 0, 0, 0, 0, 0, 0, 0, 0, 0, 0, 0, 0, 0, 0, 0, 0, 0, 0, 0, 0, 0, 0, 0, 0, 0, 0, 0, 0, 0, 0, 0, 0, 0, 0, 0, 0, 0, 0, 0, 0, 0, 0, 0, 0, 0, 0, 0, 0, 0, 0, 0, 0, 0, 0, 0, 0, 0, 0, 0, 0, 0, 0, 0, 0, 0, 0, 0, 0, 0, 0, 0, 0, 0, 0, 0, 0, 0, 0, 0, 0, 0, 0, 0, 0, 0, 0, 0, 0, 0, 0, 0, 0, 0, 0, 0, 0, 0, 0, 0, 0, 0, 0, 0, 0, 0, 0, 0, 0, 0, 0, 0, 0, 0, 0, 0, 0, 0, 0, 0, 0, 0, 0, 0, 0, 0, 0, 0, 0, 0, 0, 0, 0, 0, 0, 0, 0, 0, 0, 0, 0, 0, 0, 0, 0, 0, 0, 0, 0, 0, 0, 0, 0, 0, 0, 0, 0, 0, 0, 0, 0, 0, 0, 0, 0, 0, 0, 0, 0, 0, 0, 0, 0, 0, 0, 0, 0, 0, 0, 0, 0, 0, 0, 0, 0, 0, 0, 0, 0, 0, 0, 0, 0, 0, 0, 0, 0, 0, 0, 0, 0, 0, 0, 0, 0, 0, 0, 0, 0, 0, 0, 0, 0, 0, 0, 0, 0, 0, 0, 0, 0, 0, 0, 0, 0, 0, 0, 0, 0, 0, 0, 0, 0, 0, 0, 0, 0, 0, 0, 0, 0, 0, 0, 0, 0, 0, 0, 0, 0, 0, 0, 0, 0, 0, 0, 0, 0, 0, 0, 0, 0, 0, 0, 0, 0, 0, 0, 0, 0, 0, 0, 0, 0, 0, 0, 0, 0, 0, 0, 0, 0, 0, 0, 0, 0, 0, 0, 0, 0, 0, 0, 0, 0, 0, 0, 0, 0, 0, 0, 0, 0, 0, 0, 0, 0, 0, 0, 0, 0, 0, 0, 0, 0, 0, 0, 0, 0, 0, 0, 0, 0, 0, 0, 0, 0, 0, 0, 0, 0, 0, 0, 0, 0, 0, 0, 0, 0, 0, 0, 0, 0, 0, 0, 0, 0, 0, 0, 0, 0, 0, 0, 0, 0, 0, 0, 0, 0, 0, 0, 0, 0, 0, 0, 0, 0, 0, 0, 0, 0, 0, 0, 0, 0, 0, 0, 0, 0, 0, 0, 0, 0, 0, 0, 0, 0, 0, 0, 0, 0, 0, 0, 0, 0, 0, 0, 0, 0, 0, 0, 0, 0, 0, 0, 0, 0, 0, 0, 0, 0, 0, 0, 0, 0, 0, 0, 0, 0, 0, 0, 0, 0, 0, 0, 0, 0, 0, 0, 0, 0, 0, 0, 0, 0, 0, 0, 0, 0, 0, 0, 0, 0, 0, 0, 0, 0, 0, 0, 0, 0, 0, 0, 0, 0, 0, 0, 0, 0, 0, 0, 0, 0, 0, 0, 0, 0, 0, 0, 0, 0, 0, 0, 0, 0, 0, 0, 0, 0, 0, 0, 0, 0, 0, 0, 0, 0, 0, 0, 0, 0, 0, 0, 0, 0, 0, 0, 0, 0, 0, 0, 0, 0, 0, 0, 0, 0, 0, 0, 0, 0, 0, 0, 0, 0, 0, 0, 0, 0, 0, 0, 0, 0, 0, 0, 0, 0, 0, 0, 0, 0, 0, 0, 0, 0, 0, 0, 0, 0, 0, 0, 0, 0, 0, 0, 0, 0, 0, 0, 0, 0, 0, 0, 0, 0, 0, 0, 0, 0, 0, 0, 0, 0, 0, 0, 0, 0, 0, 0, 0, 0, 0, 0, 0, 0, 0, 0, 0, 0, 0, 0, 0, 0, 0, 0, 0, 0, 0, 0, 0, 0, 0, 0, 0, 0, 0, 0, 0, 0, 0, 0, 0, 0, 0, 0, 0, 0, 0, 0, 0, 0, 0, 0, 0, 0, 0, 0, 0, 0, 0, 0, 0, 0, 0, 0, 0, 0, 0, 0, 0, 0, 0, 0, 0, 0, 0, 0, 0, 0, 0, 0, 0, 0, 0, 0, 0, 0, 0, 0, 0, 0, 0, 0, 0, 0, 0, 0, 0, 0, 0, 0, 0, 0, 0, 0, 0, 0, 0, 0, 0, 0, 0, 0, 0, 0, 0, 0, 0, 0, 0, 0, 0, 0, 0, 0, 0, 0, 0, 0, 0, 0, 0, 0, 0, 0, 0, 0, 0, 0, 0, 0, 0, 0, 0, 0, 0, 0, 0, 0, 0, 0, 0, 0, 0, 0, 0, 0, 0, 0, 0, 0, 0, 0, 0, 0, 0, 0, 0, 0, 0, 0, 0, 0, 0, 0, 0, 0, 0, 0, 0, 0, 0, 0, 0, 0, 0, 0, 0, 0, 0, 0, 0, 0, 0, 0, 0, 0, 0, 0, 0, 0, 0, 0, 0, 0, 0, 0, 0, 0, 0, 0, 0, 0, 0, 0, 0, 0, 0, 0, 0, 0, 0, 0, 0, 0, 0, 0, 0, 0, 0, 0, 0, 0, 0, 0, 0, 0, 0, 0, 0, 0, 0, 0, 0, 0, 0, 0, 0, 0, 0, 0, 0, 0, 0, 0, 0, 0, 0, 0, 0, 0, 0, 0, 0, 0, 0, 0, 0, 0, 0, 0, 0, 0, 0, 0, 0, 0, 0, 0, 0, 0, 0, 0, 0, 0, 0, 0, 0, 0, 0, 0, 0, 0, 0, 0, 0, 0, 0, 0, 0, 0, 0, 0, 0, 0, 0, 0, 0, 0, 0, 0, 0, 0, 0, 0, 0, 0], "sum_hessian": [599758.0, 562288.0, 37470.0, 136321.0, 425967.0, 35128.0, 2342.0, 88774.0, 47547.0, 367395.0, 58572.0, 10019.0, 25109.0, 270.0, 2072.0, 36802.0, 51972.0, 13073.0, 34474.0, 280399.0, 86996.0, 32743.0, 25829.0, 2713.0, 7306.0, 12010.0, 13099.0, 18.0, 252.0, 1895.0, 177.0, 15832.0, 20970.0, 17639.0, 34333.0, 4215.0, 8858.0, 23153.0, 11321.0, 217479.0, 62920.0, 72408.0, 14588.0, 18154.0, 14589.0, 6143.0, 19686.0, 1291.0, 1422.0, 5021.0, 2285.0, 8667.0, 3343.0, 5982.0, 7117.0, 132.0, 120.0, 754.0, 1141.0, 2682.0, 13150.0, 8714.0, 12256.0, 6336.0, 11303.0, 22614.0, 11719.0, 3789.0, 426.0, 6313.0, 2545.0, 20152.0, 3001.0, 9629.0, 1692.0, 208495.0, 8984.0, 39181.0, 23739.0, 15884.0, 56524.0, 11105.0, 3483.0, 4793.0, 13361.0, 12851.0, 1738.0, 3956.0, 2187.0, 8562.0, 11124.0, 238.0, 1053.0, 1104.0, 318.0, 984.0, 4037.0, 1796.0, 489.0, 1597.0, 7070.0, 2670.0, 673.0, 5322.0, 660.0, 3035.0, 4082.0, 296.0, 458.0, 216.0, 925.0, 1273.0, 1409.0, 3900.0, 9250.0, 1755.0, 6959.0, 7630.0, 4626.0, 1254.0, 5082.0, 1013.0, 10290.0, 11078.0, 11536.0, 6619.0, 5100.0, 2222.0, 1567.0, 242.0, 184.0, 3557.0, 2756.0, 1630.0, 915.0, 9957.0, 10195.0, 1820.0, 1181.0, 7361.0, 2268.0, 951.0, 741.0, 165173.0, 43322.0, 5427.0, 3557.0, 22772.0, 16409.0, 18844.0, 4895.0, 6959.0, 8925.0, 19635.0, 36889.0, 3399.0, 7706.0, 1393.0, 2090.0, 602.0, 4191.0, 9191.0, 4170.0, 4025.0, 8826.0, 1229.0, 509.0, 72.0, 3884.0, 672.0, 1515.0, 5446.0, 3116.0, 2069.0, 9055.0, 156.0, 82.0, 675.0, 378.0, 38.0, 1066.0, 295.0, 23.0, 418.0, 566.0, 766.0, 3271.0, 248.0, 1548.0, 7.0, 482.0, 1116.0, 481.0, 3801.0, 3269.0, 1412.0, 1258.0, 640.0, 33.0, 2871.0, 2451.0, 479.0, 181.0, 2347.0, 688.0, 661.0, 3421.0, 890.0, 35.0, 1086.0, 187.0, 607.0, 802.0, 1503.0, 2397.0, 6645.0, 2605.0, 185.0, 1570.0, 904.0, 6055.0, 3037.0, 4593.0, 3239.0, 1387.0, 598.0, 656.0, 3516.0, 1566.0, 825.0, 188.0, 8991.0, 1299.0, 5939.0, 5139.0, 9945.0, 1591.0, 5379.0, 1240.0, 1924.0, 3176.0, 1651.0, 571.0, 1156.0, 411.0, 166.0, 76.0, 131.0, 53.0, 2012.0, 1545.0, 1562.0, 1194.0, 1056.0, 574.0, 801.0, 114.0, 8096.0, 1861.0, 8527.0, 1668.0, 1155.0, 665.0, 985.0, 196.0, 3729.0, 3632.0, 1901.0, 367.0, 636.0, 315.0, 562.0, 179.0, 86189.0, 78984.0, 34680.0, 8642.0, 203.0, 5224.0, 1044.0, 2513.0, 9744.0, 13028.0, 10204.0, 6205.0, 5919.0, 12925.0, 2717.0, 2178.0, 3654.0, 3305.0, 8124.0, 801.0, 10768.0, 8867.0, 24110.0, 12779.0, 811.0, 2588.0, 5476.0, 2230.0, 324.0, 1069.0, 1610.0, 480.0, 471.0, 131.0, 1686.0, 2505.0, 6008.0, 3183.0, 2445.0, 1725.0, 1884.0, 2141.0, 8335.0, 491.0, 404.0, 825.0, 471.0, 38.0, 3856.0, 28.0, 218.0, 454.0, 47.0, 1468.0, 4792.0, 654.0, 1897.0, 1219.0, 1903.0, 166.0, 6742.0, 2313.0, 100.0, 56.0, 53.0, 29.0, 214.0, 461.0, 2.0, 376.0, 586.0, 480.0, 156.0, 139.0, 13.0, 10.0, 43.0, 375.0, 317.0, 249.0, 580.0, 186.0, 2376.0, 895.0, 89.0, 159.0, 885.0, 663.0, 420.0, 696.0, 317.0, 164.0, 1998.0, 1803.0, 1371.0, 1898.0, 608.0, 804.0, 844.0, 414.0, 254.0, 386.0, 15.0, 18.0, 168.0, 2703.0, 1779.0, 672.0, 284.0, 195.0, 174.0, 7.0, 2227.0, 120.0, 366.0, 295.0, 2908.0, 513.0, 707.0, 183.0, 21.0, 1065.0, 402.0, 205.0, 479.0, 323.0, 438.0, 1065.0, 299.0, 2098.0, 2540.0, 4105.0, 944.0, 1661.0, 167.0, 18.0, 789.0, 781.0, 720.0, 184.0, 4990.0, 1065.0, 426.0, 2611.0, 716.0, 3877.0, 866.0, 2373.0, 1110.0, 277.0, 513.0, 85.0, 491.0, 165.0, 906.0, 2610.0, 951.0, 615.0, 190.0, 635.0, 48.0, 140.0, 6061.0, 2930.0, 662.0, 637.0, 2729.0, 3210.0, 1969.0, 3170.0, 1187.0, 8758.0, 180.0, 1411.0, 2018.0, 3361.0, 602.0, 638.0, 1534.0, 390.0, 327.0, 2849.0, 708.0, 943.0, 388.0, 183.0, 648.0, 508.0, 265.0, 146.0, 31.0, 135.0, 49.0, 27.0, 8.0, 123.0, 1089.0, 923.0, 932.0, 613.0, 202.0, 1360.0, 620.0, 574.0, 431.0, 625.0, 549.0, 25.0, 766.0, 35.0, 42.0, 72.0, 3414.0, 4682.0, 400.0, 1461.0, 7128.0, 1399.0, 1029.0, 639.0, 203.0, 952.0, 548.0, 117.0, 598.0, 387.0, 41.0, 155.0, 1516.0, 2213.0, 3495.0, 137.0, 1581.0, 320.0, 332.0, 35.0, 295.0, 341.0, 507.0, 55.0, 7420.0, 78769.0, 58341.0, 20643.0, 7470.0, 27210.0, 1468.0, 7174.0, 140.0, 63.0, 3790.0, 1434.0, 516.0, 528.0, 1702.0, 811.0, 6032.0, 3712.0, 7426.0, 5602.0, 4305.0, 5899.0, 3938.0, 2267.0, 1819.0, 4100.0, 9863.0, 3062.0, 2230.0, 487.0, 1098.0, 1080.0, 3385.0, 269.0, 1149.0, 2156.0, 1569.0, 6555.0, 221.0, 580.0, 1166.0, 9602.0, 1725.0, 7142.0, 21825.0, 2285.0, 11649.0, 1130.0, 644.0, 167.0, 1118.0, 1470.0, 2630.0, 2846.0, 2056.0, 174.0, 193.0, 131.0, 762.0, 307.0, 1484.0, 126.0, 277.0, 203.0, 36.0, 435.0, 118.0, 13.0, 136.0, 1550.0, 1812.0, 693.0, 4859.0, 1149.0, 865.0, 2318.0, 797.0, 1648.0, 1483.0, 242.0, 662.0, 1222.0, 225.0, 1916.0, 5046.0, 3289.0, 393.0, 98.0, 87.0, 317.0, 689.0, 136.0, 210.0, 261.0, 36.0, 3820.0, 12.0, 206.0, 281.0, 173.0, 39.0, 8.0, 1455.0, 13.0, 3770.0, 1022.0, 8.0, 646.0, 1885.0, 12.0, 1203.0, 16.0, 943.0, 960.0, 91.0, 75.0, 3477.0, 3265.0, 2144.0, 169.0, 49.0, 7.0, 8.0, 45.0, 23.0, 6.0, 4.0, 210.0, 94.0, 367.0, 209.0, 167.0, 218.0, 368.0, 238.0, 242.0, 7.0, 6.0, 8.0, 2.0, 21.0, 22.0, 182.0, 193.0, 176.0, 141.0, 181.0, 68.0, 423.0, 157.0, 98.0, 88.0, 631.0, 1745.0, 453.0, 442.0, 75.0, 14.0, 61.0, 98.0, 367.0, 518.0, 56.0, 607.0, 54.0, 366.0, 296.0, 400.0, 771.0, 1227.0, 766.0, 1037.0, 747.0, 624.0, 162.0, 1736.0, 256.0, 548.0, 489.0, 355.0, 355.0, 59.0, 1715.0, 988.0, 213.0, 71.0, 9.0, 2218.0, 148.0, 218.0, 218.0, 77.0, 2097.0, 811.0, 196.0, 317.0, 585.0, 122.0, 954.0, 111.0, 173.0, 229.0, 363.0, 116.0, 233.0, 205.0, 209.0, 856.0, 141.0, 158.0, 1499.0, 599.0, 606.0, 1934.0, 1109.0, 2996.0, 276.0, 668.0, 1594.0, 67.0, 295.0, 494.0, 648.0, 133.0, 159.0, 561.0, 153.0, 31.0, 3197.0, 1793.0, 382.0, 683.0, 214.0, 212.0, 1261.0, 1350.0, 399.0, 317.0, 2636.0, 1241.0, 345.0, 521.0, 1309.0, 1064.0, 844.0, 266.0, 93.0, 184.0, 297.0, 216.0, 69.0, 16.0, 290.0, 201.0, 109.0, 56.0, 705.0, 201.0, 1558.0, 1052.0, 355.0, 596.0, 381.0, 234.0, 150.0, 40.0, 518.0, 117.0, 7.0, 41.0, 64.0, 76.0, 4043.0, 2018.0, 2675.0, 255.0, 338.0, 324.0, 397.0, 240.0, 369.0, 2360.0, 1803.0, 1407.0, 75.0, 1894.0, 771.0, 2399.0, 513.0, 674.0, 5566.0, 3192.0, 8.0, 172.0, 1306.0, 105.0, 541.0, 1477.0, 661.0, 2700.0, 350.0, 252.0, 326.0, 312.0, 378.0, 1156.0, 191.0, 199.0, 142.0, 185.0, 2641.0, 208.0, 213.0, 495.0, 572.0, 371.0, 114.0, 274.0, 146.0, 37.0, 384.0, 264.0, 325.0, 183.0, 132.0, 133.0, 131.0, 15.0, 5.0, 26.0, 41.0, 94.0, 1018.0, 71.0, 707.0, 216.0, 434.0, 498.0, 311.0, 302.0, 151.0, 51.0, 1048.0, 312.0, 306.0, 314.0, 392.0, 182.0, 380.0, 51.0, 479.0, 146.0, 423.0, 126.0, 3.0, 22.0, 640.0, 126.0, 15.0, 57.0, 1837.0, 1577.0, 3919.0, 763.0, 140.0, 260.0, 336.0, 1125.0, 4128.0, 3000.0, 652.0, 747.0, 533.0, 496.0, 477.0, 162.0, 123.0, 80.0, 491.0, 461.0, 396.0, 152.0, 10.0, 145.0, 198.0, 1318.0, 209.0, 2004.0, 498.0, 2997.0, 30.0, 107.0, 1035.0, 546.0, 100.0, 220.0, 100.0, 232.0, 24.0, 11.0, 270.0, 25.0, 76.0, 265.0, 241.0, 266.0, 47.0, 8.0, 4236.0, 3184.0, 50114.0, 28655.0, 14827.0, 43514.0, 7194.0, 13449.0, 1198.0, 6272.0, 15843.0, 11367.0, 980.0, 488.0, 2984.0, 4190.0, 3151.0, 639.0, 19.0, 1415.0, 300.0, 216.0, 210.0, 318.0, 178.0, 1524.0, 418.0, 393.0, 1367.0, 4665.0, 2310.0, 1402.0, 6694.0, 732.0, 264.0, 5338.0, 2454.0, 1851.0, 3718.0, 2181.0, 1864.0, 2074.0, 1946.0, 321.0, 123.0, 1696.0, 1909.0, 2191.0, 8443.0, 1420.0, 2596.0, 466.0, 1491.0, 739.0, 262.0, 225.0, 764.0, 316.0, 883.0, 2502.0, 243.0, 906.0, 1996.0, 160.0, 1063.0, 506.0, 3329.0, 3226.0, 86.0, 135.0, 541.0, 39.0, 412.0, 754.0, 4896.0, 4706.0, 819.0, 906.0, 2504.0, 4638.0, 13972.0, 7853.0, 1429.0, 856.0, 7627.0, 4022.0, 538.0, 592.0, 534.0, 110.0, 83.0, 84.0, 173.0, 945.0, 628.0, 842.0, 1866.0, 764.0, 2735.0, 111.0, 1383.0, 673.0, 152.0, 22.0, 94.0, 99.0, 96.0, 35.0, 155.0, 607.0, 220.0, 87.0, 1009.0, 475.0, 41.0, 85.0, 56.0, 221.0, 189.0, 14.0, 31.0, 5.0, 279.0, 156.0, 110.0, 26.0, 207.0, 1343.0, 773.0, 1039.0, 61.0, 632.0, 2211.0, 2648.0, 702.0, 447.0, 550.0, 315.0, 954.0, 1364.0, 569.0, 228.0, 1230.0, 418.0, 403.0, 1080.0, 121.0, 121.0, 104.0, 558.0, 24.0, 1198.0, 185.0, 40.0, 598.0, 1318.0, 2985.0, 2061.0, 2721.0, 568.0, 146.0, 247.0, 72.0, 26.0, 44.0, 273.0, 378.0, 311.0, 119.0, 17.0, 3209.0, 611.0, 5.0, 7.0, 85.0, 121.0, 8.0, 273.0, 167.0, 6.0, 28.0, 11.0, 1027.0, 428.0, 1645.0, 2125.0, 355.0, 667.0, 215.0, 431.0, 1640.0, 245.0, 732.0, 471.0, 380.0, 563.0, 557.0, 403.0, 1775.0, 1702.0, 737.0, 2528.0, 1319.0, 825.0, 161.0, 8.0, 6.0, 1.0, 38.0, 7.0, 13.0, 10.0, 2.0, 4.0, 110.0, 100.0, 49.0, 45.0, 119.0, 248.0, 180.0, 29.0, 1.0, 166.0, 33.0, 185.0, 117.0, 251.0, 206.0, 32.0, 237.0, 5.0, 7.0, 14.0, 11.0, 11.0, 141.0, 41.0, 73.0, 120.0, 84.0, 92.0, 191.0, 232.0, 55.0, 102.0, 64.0, 34.0, 58.0, 30.0, 85.0, 546.0, 5.0, 1740.0, 21.0, 432.0, 100.0, 342.0, 27.0, 48.0, 21.0, 40.0, 268.0, 250.0, 34.0, 22.0, 420.0, 187.0, 13.0, 41.0, 348.0, 18.0, 703.0, 68.0, 1079.0, 148.0, 108.0, 658.0, 566.0, 181.0, 471.0, 153.0, 1304.0, 432.0, 12.0, 2206.0, 127.0, 91.0, 71.0, 6.0, 359.0, 1738.0, 673.0, 138.0, 107.0, 89.0], "tree_param": {"num_deleted": "0", "num_feature": "10", "num_nodes": "1217", "size_leaf_vector": "1"}}]}, "name": "gbtree"}, "learner_model_param": {"base_score": "5.918944E-2", "boost_from_average": "1", "num_class": "0", "num_feature": "10", "num_target": "1"}, "objective": {"name": "reg:squarederror", "reg_loss_param": {"scale_pos_weight": "1"}}}, "version": [2, 0, 3]}